Dimensions:
2500 30 4
Weights Input To Hidden:
0.0275368280708789825439453125 0.014174968935549259185791015625 0.010082029737532138824462890625 -0.0125562958419322967529296875 0.02424955181777477264404296875 -0.01503019034862518310546875 0.014659089036285877227783203125 0.01714038290083408355712890625 0.010581045411527156829833984375 -0.00275191129185259342193603515625 -0.003278751857578754425048828125 -0.015200401656329631805419921875 0.01224912144243717193603515625 -0.008010941557586193084716796875 0.006681793369352817535400390625 -0.01672977395355701446533203125 0.0055155833251774311065673828125 -0.007266499102115631103515625 0.0168606229126453399658203125 0.0006842275033704936504364013671875 -0.0196742080152034759521484375 0.009240873157978057861328125 0.0044919066131114959716796875 -0.011717700399458408355712890625 0.0187748558819293975830078125 0.00247422815300524234771728515625 0.0055667343549430370330810546875 -0.01320272870361804962158203125 0.00438788719475269317626953125 -0.0037394012324512004852294921875 
0.00028514373116195201873779296875 -0.01915408484637737274169921875 -0.01218941248953342437744140625 0.00347025855444371700286865234375 0.014883987605571746826171875 -0.00492875464260578155517578125 0.01716564036905765533447265625 0.0020023547112941741943359375 -0.00961811654269695281982421875 0.00255779805593192577362060546875 -0.011942091397941112518310546875 0.0117995701730251312255859375 -0.014350245706737041473388671875 -0.0190028585493564605712890625 0.015016577206552028656005859375 -0.008832999505102634429931640625 0.02380376867949962615966796875 -0.00817625410854816436767578125 -0.009628980420529842376708984375 0.01309429109096527099609375 -0.01896111853420734405517578125 -0.0045553059317171573638916015625 0.01759805344045162200927734375 0.00887929089367389678955078125 0.00497468747198581695556640625 0.014148089103400707244873046875 0.0072056013159453868865966796875 0.012139640748500823974609375 0.015528761781752109527587890625 0.0061027179472148418426513671875 
-0.012426414526998996734619140625 -0.009414471685886383056640625 0.01168323867022991180419921875 -0.010912046767771244049072265625 0.00122957117855548858642578125 -0.02977992594242095947265625 -0.000964879174716770648956298828125 -0.009232680313289165496826171875 -0.012266363017261028289794921875 0.007626372389495372772216796875 -0.013453221879899501800537109375 0.02524034120142459869384765625 0.00908937118947505950927734375 -0.005491835065186023712158203125 -0.01308325864374637603759765625 0.00599898584187030792236328125 -0.0050366832874715328216552734375 0.007887071929872035980224609375 -0.00144096626900136470794677734375 0.0044906283728778362274169921875 0.009524445049464702606201171875 -0.010934318415820598602294921875 0.014526770450174808502197265625 0.0081609077751636505126953125 0.0150406099855899810791015625 0.01781620271503925323486328125 -0.014592218212783336639404296875 0.0097660012543201446533203125 -0.00197435705922544002532958984375 0.009830045513808727264404296875 
-0.0070675141178071498870849609375 0.0050851185806095600128173828125 0.00796936266124248504638671875 0.0061041885055601596832275390625 -0.008181008510291576385498046875 -0.01436285860836505889892578125 -0.009842179715633392333984375 0.014169023372232913970947265625 0.01788734085857868194580078125 -0.00507615692913532257080078125 0.0223563127219676971435546875 0.010148531757295131683349609375 -0.0070036607794463634490966796875 0.0135559700429439544677734375 0.00811524689197540283203125 -0.0172114670276641845703125 0.0161785669624805450439453125 -0.01730211079120635986328125 -0.0155034549534320831298828125 0.01273240149021148681640625 -0.0006437596748583018779754638671875 0.0046763508580625057220458984375 -0.017034821212291717529296875 0.00922601111233234405517578125 0.008864465169608592987060546875 0.0027482924051582813262939453125 0.00528000295162200927734375 0.01941304840147495269775390625 -0.00196515792049467563629150390625 -0.01636706292629241943359375 
0.0023314743302762508392333984375 -0.0062883323989808559417724609375 -0.009183573536574840545654296875 -0.01620699465274810791015625 0.01936596445739269256591796875 0.00467835366725921630859375 0.013086349703371524810791015625 0.008366801775991916656494140625 -0.0113225914537906646728515625 -0.0043423972092568874359130859375 0.0044419653713703155517578125 0.00806964375078678131103515625 0.013719405047595500946044921875 -0.00351303513161838054656982421875 0.015525118447840213775634765625 0.0062666111625730991363525390625 -0.01620521582663059234619140625 0.014967839233577251434326171875 -0.013104571960866451263427734375 -0.01000433601438999176025390625 -0.011200201697647571563720703125 0.01443100161850452423095703125 -0.00340093229897320270538330078125 -0.0110475458204746246337890625 -0.0208157338201999664306640625 -0.0081276856362819671630859375 0.008658782579004764556884765625 0.0126232691109180450439453125 -0.01781710423529148101806640625 -0.020494721829891204833984375 
0.00384672847576439380645751953125 -0.00028041205951012670993804931640625 0.0175265334546566009521484375 -0.009855895303189754486083984375 -0.0072198179550468921661376953125 -0.01015450060367584228515625 -0.001751280971802771091461181640625 0.00059506832621991634368896484375 -0.00376126100309193134307861328125 0.0069470820017158985137939453125 0.00915600545704364776611328125 0.014825289137661457061767578125 0.00260243029333651065826416015625 -0.01658517308533191680908203125 -0.00222962559200823307037353515625 -0.00383802107535302639007568359375 0.02261399663984775543212890625 -0.01784513331949710845947265625 -0.001496671698987483978271484375 0.009693183936178684234619140625 -0.012094653211534023284912109375 -0.010762824676930904388427734375 0.014937122352421283721923828125 1.5799350876477546989917755126953125e-05 -0.00022624610573984682559967041015625 0.02044427581131458282470703125 -0.008016102947294712066650390625 0.0059971516020596027374267578125 0.00243145995773375034332275390625 -0.008930067531764507293701171875 
0.001371239661239087581634521484375 -0.000109720989712513983249664306640625 -0.007673072628676891326904296875 -0.005763935856521129608154296875 0.0181285552680492401123046875 -0.024518430233001708984375 0.009295349009335041046142578125 -0.009462900459766387939453125 0.010429372079670429229736328125 0.024861000478267669677734375 -0.01332415640354156494140625 -0.010125695727765560150146484375 -0.0090747512876987457275390625 0.008459798991680145263671875 -0.011314381845295429229736328125 -0.01379714906215667724609375 0.00497076474130153656005859375 -0.013130553066730499267578125 -0.00224700733087956905364990234375 -0.0020349402911961078643798828125 0.0087144635617733001708984375 -0.01808350719511508941650390625 -0.0047641801647841930389404296875 0.00231024320237338542938232421875 -0.00980754755437374114990234375 0.0028559775091707706451416015625 -0.01612799800932407379150390625 -0.0052931047976016998291015625 -0.0187968201935291290283203125 -0.01184354163706302642822265625 
-0.005349698476493358612060546875 0.0159839205443859100341796875 0.004789327271282672882080078125 -0.014844444580376148223876953125 -0.0059986528940498828887939453125 0.0125021599233150482177734375 -0.009589578025043010711669921875 -0.003719682805240154266357421875 0.01251690648496150970458984375 0.020472936332225799560546875 0.01062024943530559539794921875 0.022530205547809600830078125 0.00234034075401723384857177734375 -0.01653087325394153594970703125 -0.001326619298197329044342041015625 0.015066719613969326019287109375 -0.01617273129522800445556640625 -0.0025011734105646610260009765625 0.003641172312200069427490234375 0.0186984725296497344970703125 0.0042643281631171703338623046875 0.01797834970057010650634765625 -0.0006629099952988326549530029296875 0.0033316048793494701385498046875 0.01944540627300739288330078125 -0.01203363947570323944091796875 0.0037390957586467266082763671875 -0.01235594041645526885986328125 -0.00263637653551995754241943359375 -0.02102408744394779205322265625 
-0.011432087980210781097412109375 -0.007942753843963146209716796875 0.01521329022943973541259765625 -0.0029713562689721584320068359375 0.0089182443916797637939453125 -0.00057059829123318195343017578125 -0.002674184739589691162109375 -0.01319435425102710723876953125 -0.01827550493180751800537109375 -0.012748857028782367706298828125 -0.01996017806231975555419921875 -0.012140690349042415618896484375 0.001455920166335999965667724609375 -0.00858167000114917755126953125 0.012172244489192962646484375 -0.01736296713352203369140625 -0.0126355029642581939697265625 -0.00374208204448223114013671875 -0.00334633910097181797027587890625 -0.0045744520612061023712158203125 -0.01619980297982692718505859375 0.01296810992062091827392578125 -0.01282177865505218505859375 -0.01609007455408573150634765625 0.01147430203855037689208984375 0.0062124156393110752105712890625 -0.004786531440913677215576171875 0.005324714817106723785400390625 0.001851373002864420413970947265625 -0.0201149769127368927001953125 
-0.02389041520655155181884765625 -0.004039582796394824981689453125 -0.001115818857215344905853271484375 0.02027532272040843963623046875 0.02093451283872127532958984375 -0.00377682573162019252777099609375 0.008738994598388671875 0.0057993172667920589447021484375 0.0050037917681038379669189453125 -0.0072439047507941722869873046875 0.011743116192519664764404296875 -0.000481206574477255344390869140625 -0.00766470469534397125244140625 0.01944306679069995880126953125 0.0048650600947439670562744140625 0.005915348418056964874267578125 0.0177630521357059478759765625 0.0141102783381938934326171875 0.01763694919645786285400390625 0.0220961607992649078369140625 -3.164629379170946776866912841796875e-05 0.0168268419802188873291015625 -0.0102965869009494781494140625 0.0046308473683893680572509765625 0.01385258324444293975830078125 0.01938978768885135650634765625 -0.0045396503992378711700439453125 0.01581604778766632080078125 0.010466952808201313018798828125 -0.011573412455618381500244140625 
0.01369959302246570587158203125 0.02356138266623020172119140625 0.005378826521337032318115234375 -0.01076545380055904388427734375 -0.013078006915748119354248046875 0.000522818067111074924468994140625 -0.002327605150640010833740234375 0.002661961130797863006591796875 0.0048885610885918140411376953125 -0.011975864879786968231201171875 0.0184691250324249267578125 0.001776432269252836704254150390625 -0.01207776926457881927490234375 0.01620773784816265106201171875 0.005065466277301311492919921875 -0.00227070436812937259674072265625 -0.01866437308490276336669921875 -0.01516847312450408935546875 -0.02285664714872837066650390625 0.0035972394980490207672119140625 -0.0117250718176364898681640625 -0.01329281367361545562744140625 -0.001865102793090045452117919921875 0.0004650264163501560688018798828125 -0.02787904627621173858642578125 0.01520576514303684234619140625 -0.01601514033973217010498046875 0.035961695015430450439453125 -0.0007971523446030914783477783203125 -0.0277347974479198455810546875 
-0.00479284860193729400634765625 -0.01595476083457469940185546875 -0.00724385119974613189697265625 0.01136524416506290435791015625 -0.0191356278955936431884765625 -0.0040835360996425151824951171875 -0.009789160452783107757568359375 0.001426655682735145092010498046875 0.0120553262531757354736328125 0.00017384285456500947475433349609375 -0.00632962025701999664306640625 -0.0170116126537322998046875 -0.0073701594956219196319580078125 0.01059630326926708221435546875 0.01956813968718051910400390625 0.011476797051727771759033203125 -0.0071692862547934055328369140625 0.015292373485863208770751953125 0.0178667120635509490966796875 0.0063715241849422454833984375 0.009818042628467082977294921875 -0.00203133677132427692413330078125 -0.012352182529866695404052734375 0.011722452007234096527099609375 -0.013224544934928417205810546875 0.025633640587329864501953125 -0.00359730608761310577392578125 -0.0065276077948510646820068359375 0.02112309820950031280517578125 -0.0108399204909801483154296875 
0.0247371494770050048828125 0.0169511698186397552490234375 -0.0117134340107440948486328125 0.016187779605388641357421875 -0.02008530683815479278564453125 0.01610878296196460723876953125 -0.013018936850130558013916015625 -0.0049452953971922397613525390625 -0.00257388665340840816497802734375 0.0050770533271133899688720703125 0.01747840829193592071533203125 -0.021902821958065032958984375 0.00974948517978191375732421875 0.0042276200838387012481689453125 0.010459366254508495330810546875 0.00917808525264263153076171875 0.00258584320545196533203125 0.00378186465241014957427978515625 0.00549598596990108489990234375 -0.005439785309135913848876953125 0.012206713669002056121826171875 0.014454635791480541229248046875 0.0169136524200439453125 -0.020824253559112548828125 -0.01277292706072330474853515625 0.01498986966907978057861328125 -0.01995705999433994293212890625 -0.016384698450565338134765625 0.0053377593867480754852294921875 0.00352522335015237331390380859375 
-0.0056829913519322872161865234375 0.0050286985933780670166015625 -0.002814141102135181427001953125 -0.02090971171855926513671875 -0.01860836707055568695068359375 -0.0178881175816059112548828125 0.013532153330743312835693359375 -0.0116721354424953460693359375 -0.001151568372733891010284423828125 0.009829838760197162628173828125 -0.00788186304271221160888671875 0.017967157065868377685546875 0.0057054604403674602508544921875 -0.01914737187325954437255859375 0.0045213438570499420166015625 0.01869380287826061248779296875 -0.00501398555934429168701171875 -0.0148645080626010894775390625 0.00045624273479916155338287353515625 -0.00197715195827186107635498046875 -0.019486844539642333984375 -0.00248543010093271732330322265625 -0.0041865594685077667236328125 -0.0039666243828833103179931640625 0.012718363665044307708740234375 0.0065511427819728851318359375 0.0063162618316709995269775390625 0.00195051473565399646759033203125 0.0075384951196610927581787109375 -0.0119582526385784149169921875 
-0.0232165753841400146484375 -0.00089010386727750301361083984375 0.01465412788093090057373046875 0.02000402845442295074462890625 0.013648659922182559967041015625 0.0066230283118784427642822265625 -0.01733437366783618927001953125 -0.00839705578982830047607421875 0.00209772330708801746368408203125 0.01798084937036037445068359375 0.0028157341293990612030029296875 0.0249658524990081787109375 0.013925791718065738677978515625 -0.0094521678984165191650390625 0.001902421005070209503173828125 0.0171193517744541168212890625 0.00925113260746002197265625 0.01713861525058746337890625 0.00199439446441829204559326171875 -0.00298782088793814182281494140625 -0.009027167223393917083740234375 0.0122607648372650146484375 -0.009930990636348724365234375 -0.01381204091012477874755859375 0.00206871307455003261566162109375 -0.02172118984162807464599609375 -0.0037002726458013057708740234375 -0.0001165369976661168038845062255859375 -0.00235534808598458766937255859375 -0.0108015500009059906005859375 
-0.00416580028831958770751953125 -0.018089719116687774658203125 0.0173471458256244659423828125 0.0183875523507595062255859375 0.047137558460235595703125 -0.01699840836226940155029296875 -0.001725131762214004993438720703125 -0.02204807288944721221923828125 -0.0136839039623737335205078125 -0.017101146280765533447265625 -0.0239696465432643890380859375 0.0263817124068737030029296875 -0.0045918566174805164337158203125 -0.00577169843018054962158203125 0.0046783932484686374664306640625 -0.00095667503774166107177734375 -0.009855967946350574493408203125 -0.0044067613780498504638671875 -0.005986370146274566650390625 0.02826355583965778350830078125 -0.01919926702976226806640625 0.00296732294373214244842529296875 -0.009990014135837554931640625 -0.01071573235094547271728515625 -0.00282903132028877735137939453125 -0.00165295717306435108184814453125 0.02267119474709033966064453125 0.009555893950164318084716796875 -0.006957025267183780670166015625 -0.0224277414381504058837890625 
0.011853511445224285125732421875 -0.017356105148792266845703125 -0.0049209273420274257659912109375 0.0049044177867472171783447265625 0.010751134715974330902099609375 0.007782067172229290008544921875 0.010021747089922428131103515625 0.01089675724506378173828125 0.01681401394307613372802734375 0.0216959752142429351806640625 -0.0059197484515607357025146484375 0.01035936176776885986328125 -0.012592994607985019683837890625 0.012980674393475055694580078125 0.01358258537948131561279296875 -0.0041475701145827770233154296875 -0.0050964639522135257720947265625 0.009432676248252391815185546875 -0.0124959088861942291259765625 -0.00195524119772017002105712890625 -0.0006276001222431659698486328125 0.00871322117745876312255859375 0.011265375651419162750244140625 -0.015534072183072566986083984375 -0.013830669224262237548828125 0.0026862225495278835296630859375 0.017541415989398956298828125 -0.0036260820925235748291015625 0.01190108619630336761474609375 -0.0226419977843761444091796875 
0.02154665626585483551025390625 0.007185419090092182159423828125 0.010011143982410430908203125 -0.00252575683407485485076904296875 0.01622902788221836090087890625 -0.010689891874790191650390625 -0.008793764747679233551025390625 0.000432981061749160289764404296875 -0.010338257066905498504638671875 0.007217399775981903076171875 -0.01589107327163219451904296875 -9.12532559596002101898193359375e-05 -0.012257131747901439666748046875 0.0114435143768787384033203125 -0.0191281996667385101318359375 -0.0050104833208024501800537109375 -0.00417983531951904296875 0.0193406082689762115478515625 -0.011072357185184955596923828125 0.00216546584852039813995361328125 0.00921147130429744720458984375 -0.003932915627956390380859375 -0.00368030997924506664276123046875 0.01468863897025585174560546875 0.0004919069469906389713287353515625 0.009977403096854686737060546875 0.00115496455691754817962646484375 0.008147350512444972991943359375 -0.009772955439984798431396484375 0.01911512203514575958251953125 
0.00601132027804851531982421875 -0.008305844850838184356689453125 -0.01575603149831295013427734375 0.01757588423788547515869140625 -0.01705641858279705047607421875 0.0065332031808793544769287109375 -0.0136656872928142547607421875 0.0146088860929012298583984375 -0.014049015939235687255859375 0.01134616695344448089599609375 -0.01584194786846637725830078125 0.0044687888585031032562255859375 0.01859012059867382049560546875 0.00889675132930278778076171875 0.00255193584598600864410400390625 -0.0064499569125473499298095703125 -0.0065401471219956874847412109375 -0.005018879659473896026611328125 0.0164929926395416259765625 0.01582625694572925567626953125 -0.0057418835349380970001220703125 0.00733401440083980560302734375 0.0059301597066223621368408203125 0.01227491535246372222900390625 0.004739112220704555511474609375 -0.011286991648375988006591796875 -0.01658137142658233642578125 0.00025037195882759988307952880859375 -0.002439138479530811309814453125 3.220085272914730012416839599609375e-05 
-0.0096668563783168792724609375 0.004493825137615203857421875 -0.013470948673784732818603515625 -0.0084930546581745147705078125 -0.001250327215529978275299072265625 0.0157624147832393646240234375 0.01086954772472381591796875 0.00151287508197128772735595703125 0.01480922289192676544189453125 -0.001252007670700550079345703125 0.0110751725733280181884765625 0.0063580586574971675872802734375 -0.01535386405885219573974609375 0.004781774245202541351318359375 0.0033759125508368015289306640625 -0.020696260035037994384765625 0.017818696796894073486328125 -0.006473707966506481170654296875 -0.014756678603589534759521484375 0.0076273381710052490234375 -0.01474025286734104156494140625 -0.00307509698905050754547119140625 -0.01383340172469615936279296875 0.01323754526674747467041015625 0.0152519755065441131591796875 -0.0008134539821185171604156494140625 0.00356015074066817760467529296875 0.0060647022910416126251220703125 0.013953506946563720703125 0.01086428947746753692626953125 
0.015818111598491668701171875 0.02082378230988979339599609375 -0.013635079376399517059326171875 0.0008341926732100546360015869140625 0.016666136682033538818359375 4.904847810394130647182464599609375e-05 -0.00834737159311771392822265625 0.014532958157360553741455078125 0.01503281854093074798583984375 0.00232076016254723072052001953125 -0.012799066491425037384033203125 0.00019977396004833281040191650390625 0.014289443381130695343017578125 0.009491990320384502410888671875 0.01750163733959197998046875 0.00895216129720211029052734375 0.011943439953029155731201171875 -0.011984213255345821380615234375 -0.006264035589993000030517578125 0.010504071600735187530517578125 0.00564810447394847869873046875 0.02203382551670074462890625 -0.00381736457347869873046875 -0.00226065586321055889129638671875 -0.001653115614317357540130615234375 -0.007061657495796680450439453125 -0.001122982241213321685791015625 -0.008017475716769695281982421875 -0.00266136205755174160003662109375 -0.00346695096231997013092041015625 
0.0203448571264743804931640625 -0.00782665051519870758056640625 0.01201590709388256072998046875 -0.0094780586659908294677734375 0.0007753610261715948581695556640625 -0.02970136888325214385986328125 -0.00226309173740446567535400390625 -0.0112954564392566680908203125 0.01701791025698184967041015625 -0.02022746019065380096435546875 -0.00678255967795848846435546875 0.020021975040435791015625 -0.009662357158958911895751953125 -0.010817502625286579132080078125 0.0080968998372554779052734375 -0.0010332171805202960968017578125 -0.01028458960354328155517578125 0.013639605604112148284912109375 0.011236603371798992156982421875 0.02517239190638065338134765625 -0.012950261123478412628173828125 -0.0067996792495250701904296875 0.011878634802997112274169921875 0.012105270288884639739990234375 -0.013951313681900501251220703125 -0.00371140684001147747039794921875 0.014087677933275699615478515625 0.00316785811446607112884521484375 0.010580009780824184417724609375 -0.02004844881594181060791015625 
-0.0048902146518230438232421875 0.00120397727005183696746826171875 -0.00620854832231998443603515625 0.00905602611601352691650390625 -0.0041736871935427188873291015625 -0.02198637090623378753662109375 0.008842550218105316162109375 -0.0046616685576736927032470703125 0.0030077830888330936431884765625 -0.013973937369883060455322265625 -0.0208838097751140594482421875 -0.0085423626005649566650390625 0.019200049340724945068359375 0.0046227579005062580108642578125 0.00233176373876631259918212890625 -0.02136491425335407257080078125 0.02279799617826938629150390625 0.0092200450599193572998046875 0.02122235111892223358154296875 -0.0051686428487300872802734375 -0.02238381467759609222412109375 0.01986274681985378265380859375 -0.01356447674334049224853515625 0.011531076394021511077880859375 -0.009025906212627887725830078125 -0.0066946619190275669097900390625 0.02256418764591217041015625 0.0072076879441738128662109375 -0.01537535898387432098388671875 0.01921910233795642852783203125 
0.015491769649088382720947265625 0.00223326240666210651397705078125 -0.00343102240003645420074462890625 0.01501648128032684326171875 -0.006699130870401859283447265625 -0.01851113699376583099365234375 0.014927473850548267364501953125 0.0074696242809295654296875 0.004698039032518863677978515625 0.008854406885802745819091796875 0.01539797522127628326416015625 -0.013162682764232158660888671875 -0.011322603560984134674072265625 -0.00787587463855743408203125 0.01790145598351955413818359375 -0.01820938102900981903076171875 0.00354698137380182743072509765625 -0.0040338686667382717132568359375 -0.00278077833354473114013671875 0.02313132025301456451416015625 -0.0023920522071421146392822265625 0.00262069818563759326934814453125 0.007601673714816570281982421875 -0.00996015779674053192138671875 -0.006561574526131153106689453125 0.01577731035649776458740234375 -0.010373848490417003631591796875 -0.013676740229129791259765625 -0.01812419481575489044189453125 -0.0039249244146049022674560546875 
0.008901108987629413604736328125 0.001835937495343387126922607421875 0.0154526270925998687744140625 0.009558345191180706024169921875 -0.0043319254182279109954833984375 -0.01814791373908519744873046875 0.010472469963133335113525390625 0.00271313381381332874298095703125 -0.007053143344819545745849609375 0.012359331361949443817138671875 0.0177377201616764068603515625 0.0041123996488749980926513671875 -0.011665561236441135406494140625 0.000119540010928176343441009521484375 -0.0175429843366146087646484375 -0.00467681698501110076904296875 0.012949265539646148681640625 -0.01673533581197261810302734375 0.0170910358428955078125 -0.0126807279884815216064453125 0.01647773943841457366943359375 -0.0021615331061184406280517578125 -0.0043588425032794475555419921875 -0.0126671083271503448486328125 0.009761922061443328857421875 -0.01062844693660736083984375 0.008548234589397907257080078125 0.0059701972641050815582275390625 0.01350018568336963653564453125 0.0169641114771366119384765625 
0.008024190552532672882080078125 0.004595371894538402557373046875 -0.0059574185870587825775146484375 0.0077235139906406402587890625 0.01661603339016437530517578125 -0.0184298641979694366455078125 -0.012915412895381450653076171875 -0.0056234332732856273651123046875 -0.007023160345852375030517578125 0.01849915273487567901611328125 0.012298571877181529998779296875 -0.011847923509776592254638671875 0.01239260844886302947998046875 0.0111332498490810394287109375 0.009305546991527080535888671875 -0.014686481095850467681884765625 0.00028269601170904934406280517578125 -0.001690064556896686553955078125 0.0167159028351306915283203125 0.01675059832632541656494140625 0.01625618897378444671630859375 -0.001788825844414532184600830078125 0.00368125527165830135345458984375 -0.0023164949379861354827880859375 0.003926341421902179718017578125 -0.009909558109939098358154296875 0.01379044912755489349365234375 -0.01568524725735187530517578125 -0.001448627677746117115020751953125 -0.011044020764529705047607421875 
-0.00210605631582438945770263671875 -0.009580436162650585174560546875 0.0123561210930347442626953125 -0.00124148116447031497955322265625 0.001680808025412261486053466796875 -0.02456093765795230865478515625 0.00466702692210674285888671875 -0.0057306108064949512481689453125 0.0167879499495029449462890625 0.013209068216383457183837890625 -0.00122805847786366939544677734375 0.015483642928302288055419921875 0.008072935044765472412109375 0.0047972849570214748382568359375 0.0052678473293781280517578125 0.009610622189939022064208984375 0.00046879079309292137622833251953125 0.0013927738182246685028076171875 -0.0098887048661708831787109375 -0.00310214352793991565704345703125 0.005543834529817104339599609375 -0.00362369115464389324188232421875 0.00217583938501775264739990234375 -0.0071093910373747348785400390625 -0.009714207611978054046630859375 -0.001717686536721885204315185546875 0.01220349967479705810546875 0.001921841991133987903594970703125 0.0032232529483735561370849609375 0.0060987933538854122161865234375 
0.009082314558327198028564453125 -0.01184503175318241119384765625 -0.019958905875682830810546875 -0.01483605615794658660888671875 0.008852689526975154876708984375 -0.012865446507930755615234375 -0.014920919202268123626708984375 0.0017145625315606594085693359375 -0.0070881671272218227386474609375 -0.01558787561953067779541015625 0.01910589449107646942138671875 -0.009092404507100582122802734375 0.01582072861492633819580078125 -0.02014652825891971588134765625 -0.0056378557346761226654052734375 0.01491036452353000640869140625 0.0221058428287506103515625 0.012673954479396343231201171875 0.02189175598323345184326171875 -0.0069723515771329402923583984375 -0.001926546799950301647186279296875 0.015055508352816104888916015625 0.01586456038057804107666015625 0.0019918796606361865997314453125 -0.014693819917738437652587890625 -0.0169337131083011627197265625 -0.00909821502864360809326171875 -0.00803838670253753662109375 -0.02079862169921398162841796875 -0.008145508356392383575439453125 
-0.020220100879669189453125 0.012060415931046009063720703125 -0.01698156632483005523681640625 0.0053257443942129611968994140625 0.0188353955745697021484375 -0.01828448660671710968017578125 -0.00295898434706032276153564453125 0.013773798011243343353271484375 -0.008933764882385730743408203125 0.006539628840982913970947265625 0.001216179691255092620849609375 -0.00822902657091617584228515625 0.01781321875751018524169921875 -0.008723807521164417266845703125 -0.006412249989807605743408203125 -0.0146000869572162628173828125 0.01588934846222400665283203125 0.012156096287071704864501953125 0.001287064515054225921630859375 0.0166898183524608612060546875 0.01421699859201908111572265625 0.0076847081072628498077392578125 0.00029860078939236700534820556640625 -0.0091597177088260650634765625 -0.014030027203261852264404296875 0.0007440023473463952541351318359375 0.02169896103441715240478515625 0.014774049632251262664794921875 0.008976529352366924285888671875 -0.022278748452663421630859375 
-0.0116248093545436859130859375 -0.005859070457518100738525390625 0.012369570322334766387939453125 0.013172184117138385772705078125 0.01890874467790126800537109375 -0.01617637090384960174560546875 0.01947266422212123870849609375 -0.01086728833615779876708984375 -0.017826221883296966552734375 -0.01025888137519359588623046875 0.01800474710762500762939453125 0.0043911361135542392730712890625 0.01930141448974609375 -0.008451892994344234466552734375 -0.0054806582629680633544921875 0.0112863816320896148681640625 -0.01670244522392749786376953125 -0.011897460557520389556884765625 0.00275525264441967010498046875 -0.014290907420217990875244140625 0.016907177865505218505859375 0.0247754752635955810546875 0.0070529901422560214996337890625 0.0171150602400302886962890625 0.011658377014100551605224609375 0.00956481508910655975341796875 0.0039326064288616180419921875 0.015227653086185455322265625 -0.01877156458795070648193359375 0.00959417782723903656005859375 
-0.0083723478019237518310546875 0.01323576830327510833740234375 -0.01234339177608489990234375 0.007853709161281585693359375 0.0082235671579837799072265625 0.0046072374098002910614013671875 0.01285085268318653106689453125 -0.01493625901639461517333984375 0.0141107141971588134765625 0.014018221758306026458740234375 0.01679064147174358367919921875 -0.00655872933566570281982421875 0.01688976772129535675048828125 0.013250126503407955169677734375 -0.013245332054793834686279296875 0.01005216874182224273681640625 -0.01378752291202545166015625 -0.010010992176830768585205078125 0.0165766887366771697998046875 -0.009550024755299091339111328125 -0.008173848502337932586669921875 -0.0018908674828708171844482421875 -0.0085383765399456024169921875 0.014142057858407497406005859375 -0.008066992275416851043701171875 0.003985219635069370269775390625 -0.011987554840743541717529296875 0.000128154992125928401947021484375 -0.00546229816973209381103515625 -0.012185699306428432464599609375 
0.0172022841870784759521484375 -0.01044219546020030975341796875 -0.0165450833737850189208984375 0.004343840293586254119873046875 0.01960881240665912628173828125 -0.008278808556497097015380859375 -0.013941694982349872589111328125 0.008771275170147418975830078125 0.001005257829092442989349365234375 0.00460783205926418304443359375 -0.01918060518801212310791015625 -0.014243944548070430755615234375 0.0118479244410991668701171875 -0.005866485647857189178466796875 0.0040508345700800418853759765625 0.01598750054836273193359375 -0.005117143504321575164794921875 -0.007688631303608417510986328125 0.009968518279492855072021484375 0.010516709648072719573974609375 0.00146790617145597934722900390625 0.00161362229846417903900146484375 -0.0164445154368877410888671875 -0.011417050845921039581298828125 -0.00360337621532380580902099609375 0.0240361206233501434326171875 0.01451724208891391754150390625 -0.0173111967742443084716796875 0.01781220175325870513916015625 0.011944205500185489654541015625 
0.0215629078447818756103515625 0.01044492982327938079833984375 0.01918105781078338623046875 0.0045185671187937259674072265625 0.00040936763980425894260406494140625 0.01470339484512805938720703125 0.011954565532505512237548828125 0.020683132112026214599609375 0.0090088807046413421630859375 0.00951222889125347137451171875 -0.00272593949921429157257080078125 -0.019209913909435272216796875 -0.00270119099877774715423583984375 -0.012632663361728191375732421875 0.008235372602939605712890625 0.013908066786825656890869140625 0.01967128552496433258056640625 0.0201344601809978485107421875 0.015442557632923126220703125 -0.012930623255670070648193359375 0.0066766128875315189361572265625 -0.008120386861264705657958984375 -0.000625844113528728485107421875 -0.01042802445590496063232421875 -0.013563380576670169830322265625 0.02000365965068340301513671875 0.0131553597748279571533203125 0.014946320094168186187744140625 0.001133639481849968433380126953125 0.0120337121188640594482421875 
0.012700670398771762847900390625 -0.00224907905794680118560791015625 -0.02076748572289943695068359375 -0.0069327466189861297607421875 0.02387546934187412261962890625 0.014055791310966014862060546875 -0.015380685217678546905517578125 -0.0072266161441802978515625 0.01518896780908107757568359375 -0.011871230788528919219970703125 0.0185367204248905181884765625 -0.00939963571727275848388671875 -0.0023567364551126956939697265625 -0.008406453765928745269775390625 -0.0102831535041332244873046875 0.0007488038972951471805572509765625 0.0172848291695117950439453125 0.0049894270487129688262939453125 0.0039481432177126407623291015625 0.0060014384798705577850341796875 0.0061712018214166164398193359375 0.0089414231479167938232421875 -0.0049964697100222110748291015625 -0.0153100453317165374755859375 0.000908982940018177032470703125 0.000617343583144247531890869140625 0.005821335129439830780029296875 0.01027218997478485107421875 0.019992172718048095703125 -0.012769476510584354400634765625 
0.00962452031672000885009765625 0.008575022220611572265625 -0.01474280655384063720703125 -0.014525112695991992950439453125 -0.000155878966324962675571441650390625 0.008631714619696140289306640625 0.01497622765600681304931640625 0.0074822916649281978607177734375 0.02420817501842975616455078125 0.009374606423079967498779296875 -0.0060077984817326068878173828125 -0.013088214211165904998779296875 0.004066756926476955413818359375 -0.0137804783880710601806640625 0.009800969623029232025146484375 0.007151224650442600250244140625 0.02166284807026386260986328125 0.00473147071897983551025390625 0.0212003886699676513671875 -0.004077755846083164215087890625 0.009764389134943485260009765625 -0.001733190030790865421295166015625 0.0021397755481302738189697265625 -0.01742661930620670318603515625 0.009432933293282985687255859375 -0.0099901221692562103271484375 0.00288553745485842227935791015625 0.00386342196725308895111083984375 0.001098487409763038158416748046875 -0.008781640790402889251708984375 
-0.01034340448677539825439453125 -0.01713957078754901885986328125 -0.0062405136413872241973876953125 0.0068272934295237064361572265625 -0.00132741988636553287506103515625 0.02383912913501262664794921875 -0.008970367722213268280029296875 0.004036280326545238494873046875 -0.006239249370992183685302734375 0.0138658694922924041748046875 0.00950863398611545562744140625 -0.013795797713100910186767578125 -0.01722023077309131622314453125 -0.012396720238029956817626953125 0.009405837394297122955322265625 -0.00980069302022457122802734375 0.014332239516079425811767578125 0.0044611343182623386383056640625 0.001767901121638715267181396484375 2.380468868068419396877288818359375e-05 0.00200717453844845294952392578125 -0.0171966552734375 0.00183749361895024776458740234375 -0.01660686545073986053466796875 -0.0093430690467357635498046875 0.0230328775942325592041015625 0.00829969160258769989013671875 -0.013448993675410747528076171875 0.009606458246707916259765625 0.00184038118459284305572509765625 
0.007562044076621532440185546875 -0.0087131969630718231201171875 0.01595624722540378570556640625 0.0094427168369293212890625 0.0088461227715015411376953125 -0.00776070915162563323974609375 -0.008565618656575679779052734375 0.010302732698619365692138671875 0.014731262810528278350830078125 0.0002832374884746968746185302734375 -0.0040843100287020206451416015625 0.018507294356822967529296875 0.0029625971801578998565673828125 -0.0206110142171382904052734375 -0.005016314797103404998779296875 0.0206870250403881072998046875 -0.001459087361581623554229736328125 0.0036544166505336761474609375 -0.00065827672369778156280517578125 0.011686746962368488311767578125 0.00900111906230449676513671875 0.00419249199330806732177734375 0.0068795341067016124725341796875 -0.009838906116783618927001953125 -0.016240648925304412841796875 0.022632725536823272705078125 0.0039453567005693912506103515625 0.0063595906831324100494384765625 0.013144229538738727569580078125 -0.0053475177846848964691162109375 
-0.00338171608746051788330078125 0.013965554535388946533203125 0.0033585703931748867034912109375 0.01096685789525508880615234375 0.0022619604133069515228271484375 -0.001574298250488936901092529296875 -0.01990444026887416839599609375 0.00260001304559409618377685546875 0.011806541122496128082275390625 0.0084374435245990753173828125 -0.00785518623888492584228515625 -0.00271928613074123859405517578125 -0.00331605807878077030181884765625 -0.014625084586441516876220703125 0.01736035011708736419677734375 -0.001863046549260616302490234375 0.004006199538707733154296875 -0.00282446225173771381378173828125 -0.00234742392785847187042236328125 0.013359963893890380859375 0.012933970429003238677978515625 -0.0083757080137729644775390625 -0.001194509095512330532073974609375 -0.005039109848439693450927734375 -0.02235426567494869232177734375 -0.0007934346213005483150482177734375 0.01572366617619991302490234375 0.02104459889233112335205078125 0.00646580941975116729736328125 -0.024719305336475372314453125 
0.011772631667554378509521484375 -0.0157306231558322906494140625 0.014589016325771808624267578125 -0.014084354974329471588134765625 -0.013940864242613315582275390625 0.007544229738414287567138671875 -0.009514824487268924713134765625 -0.016568005084991455078125 0.02143591083586215972900390625 -0.009559941478073596954345703125 -0.01816621236503124237060546875 -0.013952578417956829071044921875 0.001483783940784633159637451171875 0.0009172177524305880069732666015625 0.01658526621758937835693359375 0.007950934581458568572998046875 0.0088462568819522857666015625 0.00511507876217365264892578125 0.007566452957689762115478515625 -0.01133959554135799407958984375 -0.00548694469034671783447265625 0.01869302056729793548583984375 0.0196514017879962921142578125 -0.015179187990725040435791015625 -0.0062360600568354129791259765625 0.004669933579862117767333984375 -0.011749203316867351531982421875 0.011021184735000133514404296875 0.014245773665606975555419921875 0.0128740631043910980224609375 
0.02729074098169803619384765625 -0.0001407064846716821193695068359375 -0.01974498666822910308837890625 -0.02710889466106891632080078125 -0.02083641849458217620849609375 0.01021726988255977630615234375 0.0159969367086887359619140625 0.00745637528598308563232421875 0.0353257693350315093994140625 0.0148422755300998687744140625 -0.0297756381332874298095703125 0.011482632718980312347412109375 -0.034489132463932037353515625 -0.044603310525417327880859375 -0.014150249771773815155029296875 0.0140825249254703521728515625 -0.01107745803892612457275390625 0.01566490717232227325439453125 0.02081576175987720489501953125 -0.012296599335968494415283203125 -0.014696664176881313323974609375 -0.01053340174257755279541015625 -0.0006574115832336246967315673828125 -0.000175143839442171156406402587890625 0.012938664294779300689697265625 0.0082334242761135101318359375 -0.02718907035887241363525390625 -0.009766790084540843963623046875 -0.01589013449847698211669921875 0.011614096350967884063720703125 
-0.0068879686295986175537109375 0.0152678973972797393798828125 -0.0058218310587108135223388671875 0.0027884249575436115264892578125 -0.02626822702586650848388671875 0.022780574858188629150390625 -0.012076103128492832183837890625 0.014779365621507167816162109375 0.02599672786891460418701171875 0.004418694414198398590087890625 0.01768387854099273681640625 0.0059619606472551822662353515625 -0.0196848809719085693359375 0.0066993306390941143035888671875 0.00345231662504374980926513671875 0.01444542966783046722412109375 0.007503907196223735809326171875 -0.004939601756632328033447265625 0.011096455156803131103515625 -0.0268348492681980133056640625 0.0159404166042804718017578125 -0.01680984534323215484619140625 -0.010140162892639636993408203125 0.00254270038567483425140380859375 0.009921346791088581085205078125 0.024291612207889556884765625 0.00849920697510242462158203125 -0.009324303828179836273193359375 0.02510200627148151397705078125 0.009379929862916469573974609375 
0.0175841636955738067626953125 0.0056820004247128963470458984375 -0.00358845409937202930450439453125 -0.007622140459716320037841796875 0.0175437033176422119140625 -0.0121456347405910491943359375 -0.00210614618845283985137939453125 -0.01115176640450954437255859375 0.0364849008619785308837890625 0.0182538926601409912109375 -0.02824830450117588043212890625 -0.018851317465305328369140625 -0.012870691716670989990234375 -0.00195651757530868053436279296875 -0.00938969664275646209716796875 0.00369965308345854282379150390625 0.02335001528263092041015625 0.00034749988117255270481109619140625 -0.00124617479741573333740234375 -0.0023630871437489986419677734375 0.00316874845884740352630615234375 -0.0070881838910281658172607421875 -0.01654074899852275848388671875 -0.0076823956333100795745849609375 0.00969529338181018829345703125 0.01460024155676364898681640625 -0.01537647284567356109619140625 -0.01788903959095478057861328125 -0.01345203630626201629638671875 0.0194849409162998199462890625 
-0.01686866581439971923828125 -0.017668224871158599853515625 -0.007966272532939910888671875 0.0214388556778430938720703125 0.011213190853595733642578125 -0.02086037211120128631591796875 -0.012701428495347499847412109375 -0.007348813116550445556640625 0.0150580890476703643798828125 0.001846919767558574676513671875 0.00304849748499691486358642578125 0.0048269261606037616729736328125 0.013961005024611949920654296875 -0.0211689509451389312744140625 -0.0039191539399325847625732421875 0.00130973546765744686126708984375 0.01798137091100215911865234375 -0.014031608588993549346923828125 -0.016496710479259490966796875 0.01199825294315814971923828125 -0.02156199701130390167236328125 -0.00965186767280101776123046875 0.005442894995212554931640625 -0.010614016093313694000244140625 -0.0172051005065441131591796875 -0.01686207391321659088134765625 0.02311916090548038482666015625 -0.0051503665745258331298828125 -0.014048158191144466400146484375 -0.0242661572992801666259765625 
-0.0035819564945995807647705078125 0.01218316145241260528564453125 0.0030683106742799282073974609375 -0.0045870430767536163330078125 0.02350730262696743011474609375 -0.008993172086775302886962890625 -0.01816872693598270416259765625 -0.0061515937559306621551513671875 0.0116110742092132568359375 0.01400315575301647186279296875 0.01798717491328716278076171875 0.003619533963501453399658203125 0.019220538437366485595703125 0.01423093862831592559814453125 0.00210523582063615322113037109375 -0.01321850717067718505859375 0.00211723125539720058441162109375 0.019468806684017181396484375 -0.00347878225147724151611328125 -0.011153045110404491424560546875 -0.0230498202145099639892578125 0.0256871320307254791259765625 -0.01234501786530017852783203125 0.00360618275590240955352783203125 -0.009934944100677967071533203125 -0.01157425343990325927734375 0.01661709509789943695068359375 0.00994006730616092681884765625 0.0118281506001949310302734375 -0.002727660350501537322998046875 
-0.01428687572479248046875 -0.001844063051976263523101806640625 -0.009392836131155490875244140625 0.015536376275122165679931640625 -0.0043974253349006175994873046875 -0.01858343742787837982177734375 -0.005423842929303646087646484375 -0.0185498930513858795166015625 -0.0236531011760234832763671875 0.003989609889686107635498046875 0.00240533216856420040130615234375 -0.0061797886155545711517333984375 0.00985214300453662872314453125 0.0029820762574672698974609375 0.01885054074227809906005859375 -0.0100062787532806396484375 0.007609562017023563385009765625 0.019800789654254913330078125 0.0031892252154648303985595703125 0.007098368369042873382568359375 -0.025359280407428741455078125 0.02180571295320987701416015625 0.005216742865741252899169921875 0.004877381026744842529296875 -0.0062201772816479206085205078125 -0.007577083073556423187255859375 0.0016159075312316417694091796875 0.01722211949527263641357421875 0.0117070935666561126708984375 0.00858534686267375946044921875 
-0.00878277607262134552001953125 0.00564529187977313995361328125 0.00930979289114475250244140625 -0.010377627797424793243408203125 0.0133480615913867950439453125 0.014655840583145618438720703125 -0.010459757409989833831787109375 -0.0070139295421540737152099609375 -0.01705627143383026123046875 0.013286528177559375762939453125 0.01832564733922481536865234375 0.0069309095852077007293701171875 0.02108184807002544403076171875 0.007739446125924587249755859375 -0.012675668112933635711669921875 -0.007179730571806430816650390625 1.82901640073396265506744384765625e-05 -0.00215102010406553745269775390625 -0.00240813684649765491485595703125 0.01103212870657444000244140625 0.01729326881468296051025390625 0.01798045076429843902587890625 -0.0055322865955531597137451171875 -0.02129893563687801361083984375 -0.012916198931634426116943359375 -0.00931904278695583343505859375 -0.0048335078172385692596435546875 0.0043897922150790691375732421875 -0.02085942961275577545166015625 0.0075349123217165470123291015625 
0.016268528997898101806640625 0.013776618055999279022216796875 -0.006010882556438446044921875 -0.006930221803486347198486328125 0.0202396772801876068115234375 -0.006752553395926952362060546875 -0.0133192427456378936767578125 0.009737486951053142547607421875 0.008320058695971965789794921875 0.00222150865010917186737060546875 -0.0073104402981698513031005859375 -0.0192769728600978851318359375 -0.001321875490248203277587890625 -0.01374501176178455352783203125 -0.0001244355808012187480926513671875 0.000167772450367920100688934326171875 0.012096329592168331146240234375 -0.001707050600089132785797119140625 -0.0056268312036991119384765625 0.0166167505085468292236328125 -0.01988879777491092681884765625 0.004145033657550811767578125 -0.01535310037434101104736328125 -0.0071549979038536548614501953125 -0.005929707549512386322021484375 0.0068826894275844097137451171875 0.0057608005590736865997314453125 -0.013890872709453105926513671875 0.0177459754049777984619140625 -3.285151251475326716899871826171875e-05 
0.02467204444110393524169921875 0.0168875940144062042236328125 -0.01640780270099639892578125 0.0064470027573406696319580078125 -0.01945180259644985198974609375 0.0077986749820411205291748046875 -0.00311077828519046306610107421875 0.02090145461261272430419921875 0.01007166318595409393310546875 0.0163938440382480621337890625 0.006463133729994297027587890625 0.0003507696674205362796783447265625 -0.00139170535840094089508056640625 -0.01779212243854999542236328125 0.02007362805306911468505859375 0.011441000737249851226806640625 -0.002966064028441905975341796875 -0.000762845389544963836669921875 0.0053156088106334209442138671875 0.00643946789205074310302734375 0.01257200539112091064453125 -0.011056256480515003204345703125 0.0050769648514688014984130859375 -0.02314824797213077545166015625 0.02047806419432163238525390625 -0.007143862545490264892578125 0.01075263321399688720703125 -0.03389526903629302978515625 0.02058383636176586151123046875 0.01029006578028202056884765625 
0.014698040671646595001220703125 0.00442010350525379180908203125 -0.0069476030766963958740234375 -0.014387412928044795989990234375 0.006483799777925014495849609375 -0.0172222889959812164306640625 0.00326474499888718128204345703125 -0.008797499351203441619873046875 0.017984412610530853271484375 0.00872050411999225616455078125 -0.0071371993981301784515380859375 -0.02316524647176265716552734375 -0.006381724961102008819580078125 -0.0330282710492610931396484375 0.007897503674030303955078125 0.0050832093693315982818603515625 -0.0039877495728433132171630859375 -0.007426641881465911865234375 0.023651741445064544677734375 0.01847399771213531494140625 -0.0009174931910820305347442626953125 -0.02050004899501800537109375 0.0055699250660836696624755859375 -0.010718188248574733734130859375 0.013092170469462871551513671875 6.8291075876913964748382568359375e-05 -0.012839623726904392242431640625 -0.013167697004973888397216796875 -0.0090199299156665802001953125 0.00251727015711367130279541015625 
0.0395822264254093170166015625 -0.012880408205091953277587890625 -0.0047603067941963672637939453125 0.0167257487773895263671875 -0.014223820529878139495849609375 0.008798285387456417083740234375 0.01192158274352550506591796875 -0.001509429537691175937652587890625 0.0158162005245685577392578125 0.005078434012830257415771484375 0.0054711042903363704681396484375 0.0015020589344203472137451171875 -0.014571018517017364501953125 -0.003284477628767490386962890625 0.02125161327421665191650390625 0.0044924928806722164154052734375 0.0040653548203408718109130859375 0.00360420090146362781524658203125 0.01803426630795001983642578125 0.0209954343736171722412109375 0.01837405003607273101806640625 -0.02153134159743785858154296875 -0.02653145231306552886962890625 0.0076895174570381641387939453125 0.00625909306108951568603515625 0.020928986370563507080078125 0.01334947533905506134033203125 -0.0256845317780971527099609375 0.009543371386826038360595703125 0.02529764734208583831787109375 
0.009473971091210842132568359375 0.00604091025888919830322265625 0.01787799410521984100341796875 0.0008353315643034875392913818359375 0.001173300785012543201446533203125 0.0033858083188533782958984375 -0.01399425603449344635009765625 0.014256364665925502777099609375 -0.007745989598333835601806640625 0.00823537446558475494384765625 0.00796122662723064422607421875 -0.0232574604451656341552734375 0.0001521553494967520236968994140625 0.012387041933834552764892578125 -0.00574092753231525421142578125 -0.02328816242516040802001953125 6.57411219435743987560272216796875e-05 0.002651025541126728057861328125 -0.0123669803142547607421875 0.02147632651031017303466796875 -0.00359408627264201641082763671875 0.0040163514204323291778564453125 0.002957577817142009735107421875 -0.02051689662039279937744140625 -0.004286807961761951446533203125 -0.012411773204803466796875 -0.01027831993997097015380859375 0.013015218079090118408203125 -0.010894120670855045318603515625 0.0190648995339870452880859375 
0.009976603090763092041015625 -0.0058410945348441600799560546875 -0.01446452923119068145751953125 0.00144729949533939361572265625 0.01365990377962589263916015625 -0.02064998447895050048828125 0.014290452934801578521728515625 0.0170543082058429718017578125 -0.01426281593739986419677734375 0.0227745473384857177734375 -0.018474243581295013427734375 -0.00280449143610894680023193359375 -0.004325416870415210723876953125 -0.0189362876117229461669921875 0.012966491281986236572265625 -0.006905018351972103118896484375 -0.012642112560570240020751953125 -0.0123605169355869293212890625 0.014361961744725704193115234375 0.010798296891152858734130859375 0.00229891459457576274871826171875 0.02057860977947711944580078125 -0.00412981025874614715576171875 -0.0121558606624603271484375 0.0146381966769695281982421875 -0.0102628655731678009033203125 -0.0068813799880445003509521484375 0.014354632236063480377197265625 -0.00221927394159138202667236328125 -0.024731166660785675048828125 
0.00343746901489794254302978515625 -0.014059786684811115264892578125 0.01590744219720363616943359375 -0.0069677717983722686767578125 -0.01844898425042629241943359375 0.01841257698833942413330078125 -0.00283929961733520030975341796875 -0.01298630051314830780029296875 -0.007990914396941661834716796875 -0.02386165969073772430419921875 0.01322085596621036529541015625 0.012470501475036144256591796875 -0.0068065337836742401123046875 0.0094859302043914794921875 -0.018526919186115264892578125 -0.013984343968331813812255859375 0.014307166449725627899169921875 -0.011771398596465587615966796875 0.0074225808493793010711669921875 0.003750425763428211212158203125 -0.00034010721719823777675628662109375 -0.0057574328966438770294189453125 -0.0109094083309173583984375 -0.01171826757490634918212890625 -0.02132900990545749664306640625 0.011186440475285053253173828125 0.01526892744004726409912109375 0.019929282367229461669921875 -0.00385056273080408573150634765625 -0.00352196511812508106231689453125 
-0.009803961031138896942138671875 0.001859185285866260528564453125 0.003980523906648159027099609375 -0.02003506012260913848876953125 0.0129361413419246673583984375 -0.0050738346762955188751220703125 -0.0074270046316087245941162109375 -0.006866200827062129974365234375 -0.00864664651453495025634765625 -0.012044175527989864349365234375 -0.00910671241581439971923828125 0.0054790764115750789642333984375 0.01661950908601284027099609375 -0.01899708621203899383544921875 0.01503284834325313568115234375 0.01589140482246875762939453125 -0.007853233255445957183837890625 0.0151500664651393890380859375 0.009877813048660755157470703125 -0.00060370820574462413787841796875 -0.016033627092838287353515625 0.00636951625347137451171875 -0.001717839739285409450531005859375 -0.0077786706387996673583984375 0.012907584197819232940673828125 0.013490385375916957855224609375 -0.02064335532486438751220703125 0.011472553946077823638916015625 0.0023021674714982509613037109375 0.01378991268575191497802734375 
0.0303911454975605010986328125 -0.009768879972398281097412109375 -0.00367825268767774105072021484375 0.015001642517745494842529296875 -0.0098110474646091461181640625 -0.011754042468965053558349609375 -0.0061974637210369110107421875 -0.01748490147292613983154296875 0.02344214729964733123779296875 0.008124743588268756866455078125 -0.0032353210262954235076904296875 0.013207753188908100128173828125 -0.00297513534314930438995361328125 -0.00899444334208965301513671875 -0.013715736567974090576171875 -0.02612841129302978515625 -0.0041878782212734222412109375 0.01736898720264434814453125 0.000893548480235040187835693359375 -0.005056827329099178314208984375 0.013534761033952236175537109375 0.00260705687105655670166015625 0.01708264090120792388916015625 -0.01107523404061794281005859375 -0.00165317277424037456512451171875 0.02696445398032665252685546875 0.01444621570408344268798828125 0.0124971382319927215576171875 -0.0157974697649478912353515625 0.0037069716490805149078369140625 
0.03025027550756931304931640625 0.001166513073258101940155029296875 0.009885554201900959014892578125 -0.015266285277903079986572265625 -0.004027959890663623809814453125 -0.003575957380235195159912109375 0.00035706700873561203479766845703125 0.008004666306078433990478515625 0.004006241448223590850830078125 0.01763503439724445343017578125 -0.0043301344849169254302978515625 0.013782898895442485809326171875 -0.02626873552799224853515625 -0.0025142743252217769622802734375 0.02148984372615814208984375 0.0071349106729030609130859375 0.0005985116004012525081634521484375 -0.0120878554880619049072265625 0.009567377157509326934814453125 0.0089633762836456298828125 -0.00366645329631865024566650390625 -0.01115052402019500732421875 0.012095675803720951080322265625 0.01154886372387409210205078125 -0.0034131915308535099029541015625 -0.001578516210429370403289794921875 -0.013016683049499988555908203125 0.01471078395843505859375 0.00233571487478911876678466796875 -0.00960698164999485015869140625 
0.02693975158035755157470703125 -0.003938543610274791717529296875 0.00984109006822109222412109375 -0.011695916764438152313232421875 -0.014080457389354705810546875 0.011095914058387279510498046875 0.007298655807971954345703125 -0.010064343921840190887451171875 0.02940890006721019744873046875 -0.001364202355034649372100830078125 0.008063136599957942962646484375 -0.00169688253663480281829833984375 0.002520984970033168792724609375 0.0108468830585479736328125 -0.01832495629787445068359375 0.00345265679061412811279296875 0.014178090728819370269775390625 -0.00363018992356956005096435546875 -0.00175494770519435405731201171875 0.0155312083661556243896484375 0.0043074735440313816070556640625 -0.01041146926581859588623046875 -0.00142714544199407100677490234375 -0.011409706436097621917724609375 -0.01112203858792781829833984375 0.026200480759143829345703125 0.0155299790203571319580078125 -0.0057292100973427295684814453125 -0.005977810360491275787353515625 0.0030454364605247974395751953125 
0.00206649303436279296875 -0.010348819196224212646484375 -0.0062432070262730121612548828125 0.0058507290668785572052001953125 -0.00294948928058147430419921875 0.004832060076296329498291015625 -0.0046132286079227924346923828125 0.007758967578411102294921875 -0.0023318468593060970306396484375 -0.00083514233119785785675048828125 -0.0037898835726082324981689453125 0.00059679127298295497894287109375 -0.00380988977849483489990234375 -0.0185587219893932342529296875 0.0041314228437840938568115234375 -0.02082059346139430999755859375 0.01858293823897838592529296875 0.01546015404164791107177734375 -0.00098750577308237552642822265625 -0.0120778717100620269775390625 -0.009449572302401065826416015625 0.01831992529332637786865234375 -0.01780598051846027374267578125 -0.01169211603701114654541015625 0.01059455983340740203857421875 -0.000694197486154735088348388671875 0.007218246348202228546142578125 0.005758623592555522918701171875 -0.00830859132111072540283203125 0.02128360979259014129638671875 
-0.00735841505229473114013671875 0.0071308203041553497314453125 -0.01198510825634002685546875 -0.0007289789500646293163299560546875 0.0203374065458774566650390625 -0.02191097475588321685791015625 0.0086553990840911865234375 -0.01452617533504962921142578125 0.01860108040273189544677734375 0.024082876741886138916015625 -0.02271395735442638397216796875 0.0040188333950936794281005859375 -0.006617293693125247955322265625 -0.0022399239242076873779296875 -0.0157692916691303253173828125 0.00371272419579327106475830078125 0.008306010626256465911865234375 0.0200243629515171051025390625 0.020075000822544097900390625 0.008261115290224552154541015625 0.001606113277375698089599609375 0.02148665674030780792236328125 -0.010565988719463348388671875 0.00674833543598651885986328125 -0.0193018205463886260986328125 0.01818391121923923492431640625 0.00505956821143627166748046875 0.01839511282742023468017578125 -0.002411183901131153106689453125 0.001771205919794738292694091796875 
-0.012187011539936065673828125 -0.0069887745194137096405029296875 0.01745849289000034332275390625 -0.006583099253475666046142578125 0.00250037689693272113800048828125 0.00879236496984958648681640625 -0.014098242856562137603759765625 -0.01869240216910839080810546875 0.0043886783532798290252685546875 0.003588835708796977996826171875 -0.00227460428141057491302490234375 0.015189425088465213775634765625 -0.01315130852162837982177734375 0.000253356876783072948455810546875 0.013415043242275714874267578125 -0.001940213027410209178924560546875 0.0064540649764239788055419921875 -0.0178416781127452850341796875 -0.006071408279240131378173828125 0.00992360152304172515869140625 -0.0181177817285060882568359375 0.011446068994700908660888671875 0.0254587195813655853271484375 -0.013391935266554355621337890625 0.01037758402526378631591796875 0.00378944166004657745361328125 0.0070755593478679656982421875 0.0264864228665828704833984375 0.008862427435815334320068359375 -0.00139834545552730560302734375 
-0.010782436467707157135009765625 -0.017712362110614776611328125 -0.02119644545018672943115234375 -0.014457774348556995391845703125 -0.013349927030503749847412109375 -0.0054347370751202106475830078125 0.00141402590088546276092529296875 -0.016707472503185272216796875 -0.01645870693027973175048828125 -0.012948612682521343231201171875 -0.000217779175727628171443939208984375 0.008973849005997180938720703125 -0.0153120942413806915283203125 0.014415205456316471099853515625 -0.012074607424437999725341796875 0.0032709673978388309478759765625 -0.0069235456176102161407470703125 0.0177454464137554168701171875 0.0035582347773015499114990234375 -0.0075312857516109943389892578125 -0.0168555080890655517578125 0.015590214170515537261962890625 -0.000727000529877841472625732421875 0.0035953153856098651885986328125 -0.0032162941060960292816162109375 -0.00937791727483272552490234375 -0.009406677447259426116943359375 -0.0076205884106457233428955078125 0.0029649506323039531707763671875 -0.02732377685606479644775390625 
0.0007550805457867681980133056640625 0.014127046801149845123291015625 -0.0199886821210384368896484375 -0.00441419892013072967529296875 0.00122295389883220195770263671875 0.0028052502311766147613525390625 -0.010312623344361782073974609375 -0.0154717303812503814697265625 0.012676912359893321990966796875 -0.0040711448527872562408447265625 0.0074743176810443401336669921875 -0.01614041626453399658203125 -0.0046217390336096286773681640625 -0.0065149622969329357147216796875 0.011018865741789340972900390625 -0.0006060992018319666385650634765625 -0.012324164621531963348388671875 -0.01414981298148632049560546875 -0.014930351637303829193115234375 0.005534044466912746429443359375 0.0150736831128597259521484375 0.0072449971921741962432861328125 0.01330442167818546295166015625 -0.012427498586475849151611328125 -0.00569144450128078460693359375 0.004355293698608875274658203125 0.018141932785511016845703125 -0.02233505062758922576904296875 -0.0200190804898738861083984375 0.008833707310259342193603515625 
0.012866221368312835693359375 -0.007856190204620361328125 -0.001820394885726273059844970703125 0.0081350468099117279052734375 -0.0178495608270168304443359375 -0.014274732209742069244384765625 0.0059108338318765163421630859375 0.02033042721450328826904296875 0.0164296217262744903564453125 -0.000854028505273163318634033203125 -0.007859398610889911651611328125 -0.01671671308577060699462890625 -0.0123946405947208404541015625 0.000628162291832268238067626953125 0.015540413558483123779296875 0.01127293147146701812744140625 0.01968427002429962158203125 -0.001158209634013473987579345703125 0.008140719495713710784912109375 -0.008618353866040706634521484375 -0.01630081795156002044677734375 -0.003994025290012359619140625 -0.02525709569454193115234375 -0.0028921267949044704437255859375 -0.0095907486975193023681640625 0.02569650113582611083984375 0.011020020581781864166259765625 -0.02158865891396999359130859375 0.01717243529856204986572265625 0.00381423532962799072265625 
-0.00213330797851085662841796875 -0.0003782394924201071262359619140625 -0.010494776070117950439453125 0.013676595874130725860595703125 0.00278200418688356876373291015625 0.01703250966966152191162109375 -0.00255416333675384521484375 -0.008596754632890224456787109375 0.018846578896045684814453125 0.0072096991352736949920654296875 -0.010714131407439708709716796875 -0.01254465989768505096435546875 0.001698425388894975185394287109375 -0.0072388057596981525421142578125 -0.00220550340600311756134033203125 0.0146508477628231048583984375 -0.0048816050402820110321044921875 -0.009153357706964015960693359375 -0.0049992934800684452056884765625 0.013529245741665363311767578125 -0.01822884380817413330078125 0.02116765640676021575927734375 0.012392732314765453338623046875 -0.01909767091274261474609375 -0.003222883678972721099853515625 -0.0145413614809513092041015625 -0.00190015020780265331268310546875 0.0133559666574001312255859375 -0.012362475506961345672607421875 0.01423884928226470947265625 
-0.00925085879862308502197265625 0.00297877029515802860260009765625 -0.0075841634534299373626708984375 -0.01568933017551898956298828125 0.01811062730848789215087890625 -0.000887292553670704364776611328125 0.01978847943246364593505859375 0.013508410193026065826416015625 -0.00814205221831798553466796875 -0.0055278535000979900360107421875 0.00315832649357616901397705078125 -0.00200958899222314357757568359375 -0.0117021687328815460205078125 0.00294630392454564571380615234375 0.01638202555477619171142578125 -0.0010429541580379009246826171875 0.00187251158058643341064453125 0.0107159502804279327392578125 -0.0075768358074128627777099609375 0.013115623034536838531494140625 0.001080681453458964824676513671875 0.017312802374362945556640625 0.00932774506509304046630859375 -0.0070838923566043376922607421875 0.01823554933071136474609375 -0.00967483036220073699951171875 -0.00223867618478834629058837890625 0.01612153835594654083251953125 -0.0190466381609439849853515625 -0.01338485442101955413818359375 
-0.008399517275393009185791015625 0.014264927245676517486572265625 -0.012503423728048801422119140625 0.008429530076682567596435546875 0.0327700339257717132568359375 -0.02646300755441188812255859375 -0.008297243155539035797119140625 0.010266869328916072845458984375 -0.0220590941607952117919921875 0.010469523258507251739501953125 -0.008892909623682498931884765625 0.02498806454241275787353515625 0.00299301068298518657684326171875 0.008744134567677974700927734375 -0.0155103504657745361328125 0.02054201066493988037109375 -0.017131470143795013427734375 0.0050491117872297763824462890625 -0.00433778576552867889404296875 0.00249261804856359958648681640625 -0.008786619640886783599853515625 -0.00034531974233686923980712890625 -0.00223371828906238079071044921875 0.0060286927036941051483154296875 -0.02365449629724025726318359375 -0.015701942145824432373046875 0.03297390043735504150390625 0.010069360025227069854736328125 -0.001621561474166810512542724609375 -0.0235147736966609954833984375 
-0.01846210099756717681884765625 0.01678569614887237548828125 0.01050674356520175933837890625 -0.00227668858133256435394287109375 0.01682737655937671661376953125 -0.0190577991306781768798828125 -0.013037552125751972198486328125 0.00505153834819793701171875 -0.026272870600223541259765625 -0.01922084391117095947265625 0.0112415142357349395751953125 0.01920840702950954437255859375 0.0104247666895389556884765625 0.014665937982499599456787109375 0.006664578802883625030517578125 0.0091574229300022125244140625 0.0055896774865686893463134765625 0.006220013834536075592041015625 -0.009050468914210796356201171875 -0.000708959065377712249755859375 -0.011560700833797454833984375 -0.0008028815500438213348388671875 -0.013756540603935718536376953125 0.01843136735260486602783203125 0.016491658985614776611328125 -0.019196450710296630859375 0.012558518908917903900146484375 0.004689462482929229736328125 0.00328830978833138942718505859375 -0.000879672239534556865692138671875 
0.0101504586637020111083984375 0.01580422557890415191650390625 -0.01841033436357975006103515625 0.010896070860326290130615234375 0.013490430079400539398193359375 0.00503141246736049652099609375 -0.001125227310694754123687744140625 -0.011444139294326305389404296875 0.010630712844431400299072265625 -0.01095833815634250640869140625 0.00325273466296494007110595703125 -0.0075630941428244113922119140625 0.013947538100183010101318359375 -0.00965348817408084869384765625 0.0184131674468517303466796875 -0.0072437343187630176544189453125 -0.00254566036164760589599609375 -0.011584528721868991851806640625 0.01565319485962390899658203125 0.0123977325856685638427734375 -0.0052332351915538311004638671875 -0.0007135081687010824680328369140625 -0.01846489869058132171630859375 -0.0172884799540042877197265625 -0.0076776104979217052459716796875 -0.00423131883144378662109375 -0.0034876340068876743316650390625 -0.0009596299496479332447052001953125 0.01093268208205699920654296875 -0.00284042046405375003814697265625 
0.0171498171985149383544921875 0.0121977962553501129150390625 -0.00795677118003368377685546875 0.014619885943830013275146484375 0.02108971960842609405517578125 0.00357098341919481754302978515625 -0.001891544205136597156524658203125 -0.0129045806825160980224609375 0.011696699075400829315185546875 0.0176994688808917999267578125 -0.017907626926898956298828125 0.0084779672324657440185546875 -0.015949584543704986572265625 0.00327534205280244350433349609375 0.004585440270602703094482421875 0.0090736858546733856201171875 0.02280067838728427886962890625 -0.01772840321063995361328125 -0.0067104138433933258056640625 0.01438914798200130462646484375 -0.014503915794193744659423828125 -0.0076937177218496799468994140625 -0.005411696620285511016845703125 0.01060384698212146759033203125 -0.001825604005716741085052490234375 0.024435974657535552978515625 -0.006031730212271213531494140625 -0.030282802879810333251953125 0.0057892822660505771636962890625 -0.001349340309388935565948486328125 
0.0030010319314897060394287109375 0.01722536049783229827880859375 -0.001151358592323958873748779296875 0.000561638153158128261566162109375 0.010972012765705585479736328125 -0.00591355003416538238525390625 0.024850405752658843994140625 -0.006881588138639926910400390625 -0.0095155537128448486328125 -0.0194600187242031097412109375 -0.010272205807268619537353515625 -0.00308088771998882293701171875 0.02646691165864467620849609375 -0.01070567034184932708740234375 0.01538051106035709381103515625 -0.02099562622606754302978515625 0.0180474407970905303955078125 0.0070563168264925479888916015625 0.00996821932494640350341796875 0.02378891408443450927734375 0.0064721792005002498626708984375 0.02429969795048236846923828125 0.0008433800539933145046234130859375 -0.0068285488523542881011962890625 0.0161989629268646240234375 0.01699634082615375518798828125 0.01498042047023773193359375 -0.01939874701201915740966796875 -0.011917040683329105377197265625 -0.01598356850445270538330078125 
0.0134957842528820037841796875 -0.00323380087502300739288330078125 0.01423525251448154449462890625 0.001458711922168731689453125 0.02478457801043987274169921875 -0.009241378866136074066162109375 0.017882816493511199951171875 -0.01627291738986968994140625 -0.00245048454962670803070068359375 0.0028770095668733119964599609375 -0.009877343662083148956298828125 0.011750075034797191619873046875 0.0126983821392059326171875 0.011036378331482410430908203125 0.00306668947450816631317138671875 -0.005708730779588222503662109375 0.0026019471697509288787841796875 -0.0044575068168342113494873046875 0.010819830931723117828369140625 -0.0050765178166329860687255859375 0.0022488110698759555816650390625 -0.0084560252726078033447265625 0.001510268892161548137664794921875 -0.0072086821310222148895263671875 0.001306480378843843936920166015625 -0.0058455504477024078369140625 0.01741482317447662353515625 0.007003706879913806915283203125 0.00978687964379787445068359375 -0.016049109399318695068359375 
0.0038652583025395870208740234375 -0.004357009194791316986083984375 -0.0017169932834804058074951171875 -0.014111521653831005096435546875 0.02310913987457752227783203125 -0.0046755983494222164154052734375 0.010686117224395275115966796875 -0.02961890399456024169921875 -0.0251041166484355926513671875 0.00132526108063757419586181640625 0.00387828401289880275726318359375 0.02644119597971439361572265625 0.000203512594453059136867523193359375 -0.006755373440682888031005859375 -0.01495529711246490478515625 0.014514391310513019561767578125 -0.005475404672324657440185546875 0.005114858038723468780517578125 -0.00937492586672306060791015625 0.01380850933492183685302734375 -0.0041424627415835857391357421875 -0.00113789923489093780517578125 0.007923915050923824310302734375 -0.01005195267498493194580078125 0.01997332833707332611083984375 -0.02576358616352081298828125 -0.0018942379392683506011962890625 0.01726968400180339813232421875 -0.0247063525021076202392578125 -0.00597711838781833648681640625 
-0.0057175145484507083892822265625 -0.00328639592044055461883544921875 0.01523657329380512237548828125 -0.0046743513084948062896728515625 0.01031536795198917388916015625 -0.02707531861960887908935546875 -0.010780711658298969268798828125 -0.0073479986749589443206787109375 -0.0146306715905666351318359375 0.0057298573665320873260498046875 -0.01999650336802005767822265625 -0.0005273909191600978374481201171875 0.02169414050877094268798828125 -0.0029753930866718292236328125 0.00199645687825977802276611328125 -0.0211796462535858154296875 0.0242469310760498046875 -0.00157094025053083896636962890625 0.009003229439258575439453125 0.02336448989808559417724609375 0.007787606678903102874755859375 0.02953761629760265350341796875 0.017822444438934326171875 0.00047533409087918698787689208984375 0.011500353924930095672607421875 -0.006193394772708415985107421875 -0.0072481655515730381011962890625 0.01752344332635402679443359375 -0.0287236385047435760498046875 -0.01537577621638774871826171875 
0.02431445755064487457275390625 -0.0044637979008257389068603515625 -0.01584297977387905120849609375 0.01967136003077030181884765625 0.01903059147298336029052734375 -0.009688497520983219146728515625 0.0061410474590957164764404296875 -0.01825805567204952239990234375 -0.010726876556873321533203125 0.009744425304234027862548828125 -0.01202141307294368743896484375 -0.0087311379611492156982421875 0.0203809402883052825927734375 -0.014905589632689952850341796875 -0.0097313858568668365478515625 -0.02772952057421207427978515625 0.0062171318568289279937744140625 -0.00791409797966480255126953125 0.02281481213867664337158203125 0.018625915050506591796875 -0.0276782028377056121826171875 0.028350047767162322998046875 0.00184829137288033962249755859375 -0.00292697385884821414947509765625 0.02462580613791942596435546875 -0.004910607822239398956298828125 0.02056985162198543548583984375 -0.0184582881629467010498046875 -0.0059435837902128696441650390625 -0.0057892729528248310089111328125 
0.01697795093059539794921875 0.00421873293817043304443359375 0.007986473850905895233154296875 0.003126126714050769805908203125 0.031685926020145416259765625 0.0029484103433787822723388671875 -0.012113013304769992828369140625 -0.00940001942217350006103515625 0.008342802524566650390625 0.009975478984415531158447265625 -1.6957366824499331414699554443359375e-05 -0.0137411244213581085205078125 0.01972121186554431915283203125 -0.022868834435939788818359375 0.0158583484590053558349609375 0.0008190655498765408992767333984375 0.01034314930438995361328125 -0.0039940592832863330841064453125 0.02047243155539035797119140625 0.0142352469265460968017578125 -0.02960524521768093109130859375 0.01396057941019535064697265625 -0.001563846482895314693450927734375 -0.01725784875452518463134765625 0.0055065262131392955780029296875 0.01818268932402133941650390625 0.02291321940720081329345703125 -0.00230628787539899349212646484375 -0.011699088849127292633056640625 -0.005510578863322734832763671875 
0.008620321750640869140625 0.01480502076447010040283203125 0.000993029098026454448699951171875 -0.0171637274324893951416015625 0.005209484137594699859619140625 -0.01286496222019195556640625 0.0026749023236334323883056640625 -0.014004611410200595855712890625 -0.00464664213359355926513671875 0.00370613182894885540008544921875 -0.021243385970592498779296875 0.016005642712116241455078125 0.009744788520038127899169921875 -0.00296246469952166080474853515625 0.0086318552494049072265625 -0.00126063823699951171875 -0.013648279011249542236328125 -0.0048970212228596210479736328125 -0.003609121777117252349853515625 0.013232238590717315673828125 -0.013705204240977764129638671875 0.0322602093219757080078125 0.007177882827818393707275390625 -0.006724708713591098785400390625 0.00565200857818126678466796875 -0.01906199753284454345703125 0.000565732014365494251251220703125 0.007291388697922229766845703125 0.008849167264997959136962890625 0.001159450970590114593505859375 
0.01698693446815013885498046875 -0.00801924802362918853759765625 0.0009055440896190702915191650390625 0.00213695433922111988067626953125 0.0050681107677519321441650390625 -0.00249172118492424488067626953125 0.006951413117349147796630859375 -0.0207601673901081085205078125 0.005049407482147216796875 0.00195505586452782154083251953125 0.009836803190410137176513671875 0.0025478019379079341888427734375 -0.009039494208991527557373046875 0.01756072603166103363037109375 0.0067330389283597469329833984375 -0.0057939733378589153289794921875 -0.01667796075344085693359375 -0.0061005312018096446990966796875 -0.008900006301701068878173828125 0.00977698527276515960693359375 0.00367158767767250537872314453125 0.02347599901258945465087890625 0.02200471423566341400146484375 -0.00314880232326686382293701171875 0.0055750231258571147918701171875 -0.0043430547229945659637451171875 -0.0072738905437290668487548828125 0.02506660111248493194580078125 0.008735634386539459228515625 -0.0296428166329860687255859375 
-0.01539985835552215576171875 -7.3861985583789646625518798828125e-05 -0.00938297621905803680419921875 -0.0096568763256072998046875 0.01427631266415119171142578125 -0.0354206375777721405029296875 0.008856332860887050628662109375 -0.02793015353381633758544921875 0.00650381855666637420654296875 -0.008652210235595703125 -0.01906076259911060333251953125 0.01839205436408519744873046875 0.0041665970347821712493896484375 0.012144518084824085235595703125 -0.01721753738820552825927734375 0.0057997540570795536041259765625 0.012761889956891536712646484375 -0.01403632573783397674560546875 -0.0197974033653736114501953125 -0.00649243406951427459716796875 -0.02782115153968334197998046875 0.010729926638305187225341796875 -0.0046113892458379268646240234375 -0.02033956348896026611328125 0.0173880346119403839111328125 0.007125551812350749969482421875 -0.0074745980091392993927001953125 0.010828900150954723358154296875 -0.021361090242862701416015625 -0.0313118398189544677734375 
0.0024154246784746646881103515625 -0.00269053317606449127197265625 -0.02100219018757343292236328125 -0.0047242380678653717041015625 -0.0020779627375304698944091796875 -0.015535254962742328643798828125 0.02201387844979763031005859375 0.0006449339562095701694488525390625 -0.023170769214630126953125 0.0085688531398773193359375 -0.00211817980743944644927978515625 -0.0047477413900196552276611328125 0.015141562558710575103759765625 0.00228693219833076000213623046875 0.01500408537685871124267578125 0.011661170981824398040771484375 -0.005810427479445934295654296875 0.00676940381526947021484375 0.000125593549455516040325164794921875 0.0242559649050235748291015625 -0.02190908975899219512939453125 0.01638444326817989349365234375 -0.0070006758905947208404541015625 -0.00321158464066684246063232421875 -0.011384894140064716339111328125 -0.001116864033974707126617431640625 0.0225605554878711700439453125 0.0192627608776092529296875 -0.02640796266496181488037109375 -0.0072569116018712520599365234375 
-0.0062002525664865970611572265625 -0.013826739974319934844970703125 0.016146071255207061767578125 -0.0049735228531062602996826171875 0.0110208094120025634765625 -0.00813035108149051666259765625 0.015215012244880199432373046875 -0.0101734101772308349609375 -0.01122704334557056427001953125 0.012062431313097476959228515625 0.001331153907813131809234619140625 -0.001728678005747497081756591796875 0.0170216076076030731201171875 -0.0053287255577743053436279296875 0.014034189283847808837890625 -0.01394312269985675811767578125 0.01632050983607769012451171875 0.007939781062304973602294921875 -0.0033120610751211643218994140625 0.00319731049239635467529296875 -0.0074994103051722049713134765625 0.0127738080918788909912109375 -0.00023966634762473404407501220703125 -0.012152667157351970672607421875 0.005539978854358196258544921875 -0.0194200389087200164794921875 0.02176775224506855010986328125 0.02291421033442020416259765625 0.0062402677722275257110595703125 -0.0091036669909954071044921875 
0.00179811450652778148651123046875 -0.01440916024148464202880859375 0.0005470230826176702976226806640625 0.02146374620497226715087890625 0.00945699214935302734375 -0.02706983499228954315185546875 0.001889132778160274028778076171875 -0.014470943249762058258056640625 0.01578885875642299652099609375 -0.0077259684912860393524169921875 -0.00277788494713604450225830078125 0.00038412879803217947483062744140625 0.0049293707124888896942138671875 -0.008670418523252010345458984375 -0.00229408941231667995452880859375 -0.008250783197581768035888671875 -0.0100574977695941925048828125 -0.008405745029449462890625 0.0059293364174664020538330078125 0.009540139697492122650146484375 -0.02013809978961944580078125 0.008959390223026275634765625 0.005610206164419651031494140625 0.0001205284279421903192996978759765625 0.01588104106485843658447265625 -0.01381454430520534515380859375 -0.008839492686092853546142578125 -0.010005219839513301849365234375 2.1961403035675175487995147705078125e-05 0.01689750514924526214599609375 
0.0052582635544240474700927734375 -0.0163370706140995025634765625 0.0036366316489875316619873046875 -0.010052789933979511260986328125 0.033076636493206024169921875 -0.022257380187511444091796875 0.01031691022217273712158203125 -0.021383821964263916015625 0.009038052521646022796630859375 -0.01501791179180145263671875 -0.011245630681514739990234375 -0.0054783034138381481170654296875 -0.0132106579840183258056640625 0.01313683949410915374755859375 -0.012409451417624950408935546875 -0.0006948235095478594303131103515625 0.01343873329460620880126953125 0.015041691251099109649658203125 0.01230206154286861419677734375 0.0234505236148834228515625 -0.007818031124770641326904296875 0.0205312632024288177490234375 0.000489005935378372669219970703125 -6.3966101151891052722930908203125e-05 0.0200636722147464752197265625 0.009324117563664913177490234375 -0.0047444733791053295135498046875 -0.009195529855787754058837890625 0.01636814139783382415771484375 0.009364469908177852630615234375 
-0.008117653429508209228515625 -0.01383136771619319915771484375 -0.0042280801571905612945556640625 -0.0061792992055416107177734375 0.02049775980412960052490234375 -0.004106012172996997833251953125 -0.0063289715908467769622802734375 -0.01751550100743770599365234375 0.02363366819918155670166015625 0.007548467256128787994384765625 -0.016733646392822265625 -0.015038558281958103179931640625 -0.002249936573207378387451171875 -0.013902162201702594757080078125 0.0062759709544479846954345703125 -0.0210067294538021087646484375 0.02086150646209716796875 0.0195267759263515472412109375 0.02211624197661876678466796875 -0.008056337945163249969482421875 -0.0070816315710544586181640625 0.014933712780475616455078125 0.0007746430928818881511688232421875 0.011345191858708858489990234375 -0.001178765087388455867767333984375 0.0049781990237534046173095703125 -0.012623726390302181243896484375 -0.01731611229479312896728515625 -0.014889265410602092742919921875 -0.01190000586211681365966796875 
0.0255605690181255340576171875 0.01236182264983654022216796875 0.010457937605679035186767578125 -0.000829053111374378204345703125 -0.010027342475950717926025390625 0.001556462259031832218170166015625 -0.0053902310319244861602783203125 -0.0055549615062773227691650390625 -0.00960859842598438262939453125 -0.00670610554516315460205078125 0.0007521226070821285247802734375 -0.00329611892811954021453857421875 -0.0141448192298412322998046875 -0.004680368117988109588623046875 -0.00875303335487842559814453125 -0.013612960465252399444580078125 0.0067473747767508029937744140625 0.0070848502218723297119140625 0.010439787991344928741455078125 -0.014684128575026988983154296875 0.00998537428677082061767578125 -0.013634162954986095428466796875 0.0131509602069854736328125 0.01489605940878391265869140625 0.0173529125750064849853515625 0.0098446309566497802734375 7.298984564840793609619140625e-05 0.0035814349539577960968017578125 0.012784386985003948211669921875 0.00170098268426954746246337890625 
0.01636214740574359893798828125 -0.00352919078432023525238037109375 -0.00388405774720013141632080078125 -0.01902394182980060577392578125 0.01738028414547443389892578125 -0.00306062237359583377838134765625 -0.0124134309589862823486328125 0.005640686489641666412353515625 -0.00103895552456378936767578125 -0.0018598851747810840606689453125 -0.0034050424583256244659423828125 -0.001511219074018299579620361328125 0.012661120854318141937255859375 -0.000204296768060885369777679443359375 0.0165388099849224090576171875 0.00130660994909703731536865234375 -0.0017397888004779815673828125 0.02051031403243541717529296875 -0.008738636039197444915771484375 -0.01468511112034320831298828125 0.0178539492189884185791015625 0.0061677335761487483978271484375 -0.014009208418428897857666015625 -0.00809575617313385009765625 -0.00014998912229202687740325927734375 0.00140159390866756439208984375 0.0060834256000816822052001953125 -0.00204820162616670131683349609375 -0.0177409686148166656494140625 -0.02062420360743999481201171875 
0.014678818173706531524658203125 -0.00507010333240032196044921875 -0.0041863485239446163177490234375 -0.001273005153052508831024169921875 0.01570192538201808929443359375 0.012084287591278553009033203125 0.018725447356700897216796875 -0.0178201906383037567138671875 0.0259619653224945068359375 0.0216270424425601959228515625 -0.0090245902538299560546875 -0.006980600766837596893310546875 0.00758718885481357574462890625 0.00357171078212559223175048828125 0.001667025382630527019500732421875 0.0055279494263231754302978515625 0.0026799463666975498199462890625 0.0165244825184345245361328125 0.009895198047161102294921875 -0.012058992870151996612548828125 0.0180082507431507110595703125 -0.010955370962619781494140625 0.010431878268718719482421875 -0.000410188920795917510986328125 0.00235907849855720996856689453125 0.0158748887479305267333984375 0.001890391693450510501861572265625 -0.01680404134094715118408203125 -0.011273848824203014373779296875 -0.0068337619304656982421875 
0.015174304135143756866455078125 0.01214344985783100128173828125 -0.0175299756228923797607421875 -0.02711558155715465545654296875 0.0110014118254184722900390625 0.0225017480552196502685546875 -0.008965610526502132415771484375 -0.005818195641040802001953125 -0.00179673428647220134735107421875 0.006043129600584506988525390625 -0.0256846360862255096435546875 -0.001416596584022045135498046875 -0.034363903105258941650390625 -0.014419279992580413818359375 -0.0065271556377410888671875 0.005917717702686786651611328125 -0.00860931165516376495361328125 -0.00832800008356571197509765625 0.00332798087038099765777587890625 -0.00195308937691152095794677734375 -0.00068421172909438610076904296875 0.02020199783146381378173828125 -0.00950773246586322784423828125 0.00646469555795192718505859375 -0.01929294131696224212646484375 0.01585106551647186279296875 -0.0070508099161088466644287109375 0.012001939117908477783203125 -0.00371104665100574493408203125 -0.015354922972619533538818359375 
0.02200810052454471588134765625 -0.014661555178463459014892578125 -0.00236019468866288661956787109375 -0.01660920120775699615478515625 0.00035829367698170244693756103515625 -0.001563649973832070827484130859375 -0.00251319375820457935333251953125 0.00435746274888515472412109375 0.02610783465206623077392578125 0.02242253161966800689697265625 -0.0228808857500553131103515625 -0.00230401824228465557098388671875 -0.029256641864776611328125 -0.0231251977384090423583984375 0.01698471046984195709228515625 0.01616277359426021575927734375 -0.022560514509677886962890625 0.00918922387063503265380859375 0.0018554516136646270751953125 -0.0231147445738315582275390625 0.01027099974453449249267578125 0.02250814624130725860595703125 -0.012086518108844757080078125 0.012418308295309543609619140625 0.0025142454542219638824462890625 -0.0077023808844387531280517578125 -0.02483582310378551483154296875 0.0175511948764324188232421875 -0.007275514304637908935546875 -0.02760634012520313262939453125 
0.00331041007302701473236083984375 0.01487171091139316558837890625 0.002618390135467052459716796875 -0.0018342025578022003173828125 -0.0300895608961582183837890625 0.0319424383342266082763671875 -0.016125261783599853515625 0.013400926254689693450927734375 0.0062150396406650543212890625 0.001118359039537608623504638671875 0.0112639851868152618408203125 -0.0008146199979819357395172119140625 -0.0167404003441333770751953125 -0.0142687857151031494140625 0.007886342704296112060546875 0.0322025828063488006591796875 -0.03009077720344066619873046875 -0.00941646285355091094970703125 -0.006125249899923801422119140625 -0.014204734005033969879150390625 -0.000684927799738943576812744140625 0.01704932563006877899169921875 -0.006643191911280155181884765625 0.008783784694969654083251953125 -0.0061377189122140407562255859375 0.00777166523039340972900390625 0.006810977123677730560302734375 0.005900581367313861846923828125 0.010422780178487300872802734375 1.30425260067568160593509674072265625e-05 
0.0082323811948299407958984375 0.01546862535178661346435546875 -0.0052085914649069309234619140625 -0.01738683879375457763671875 0.0057370238937437534332275390625 -0.0053441985510289669036865234375 0.0150217525660991668701171875 0.00329139758832752704620361328125 0.02595842070877552032470703125 0.0184468366205692291259765625 -0.0067564197815954685211181640625 -0.002143078483641147613525390625 -0.01850776560604572296142578125 0.009854941628873348236083984375 -0.01750533841550350189208984375 -0.012850700877606868743896484375 -0.0002178163849748671054840087890625 0.00527266226708889007568359375 0.004128207452595233917236328125 -0.00111780851148068904876708984375 0.0094252638518810272216796875 0.0070242476649582386016845703125 -0.0063599832355976104736328125 -0.01153156720101833343505859375 -0.013139307498931884765625 0.0201522223651409149169921875 -0.0005847082356922328472137451171875 -0.0220148228108882904052734375 -0.011414684355258941650390625 0.0119517408311367034912109375 
0.008336961269378662109375 0.001645820797421038150787353515625 0.0006645831163041293621063232421875 -0.0046102409251034259796142578125 -0.02336883731186389923095703125 0.001876029069535434246063232421875 0.00037224523839540779590606689453125 0.00788749568164348602294921875 0.003958038054406642913818359375 -0.014353827573359012603759765625 -9.2995687737129628658294677734375e-05 -0.008127258159220218658447265625 0.0123473964631557464599609375 -0.00365032441914081573486328125 -0.016999565064907073974609375 -0.0098095722496509552001953125 -0.00091097853146493434906005859375 -0.001037917449139058589935302734375 0.00424183905124664306640625 0.0069645415060222148895263671875 -0.01713134348392486572265625 0.001600071671418845653533935546875 -0.01913689076900482177734375 -0.0051337634213268756866455078125 -0.00128816184587776660919189453125 0.0074179996736347675323486328125 -0.01689279079437255859375 -0.008019308559596538543701171875 -0.01587751694023609161376953125 0.0248536132276058197021484375 
-0.00062004593200981616973876953125 -0.003820487298071384429931640625 -0.0031777326948940753936767578125 0.010508574545383453369140625 0.01554791629314422607421875 -0.0230033583939075469970703125 0.0048803766258060932159423828125 0.013933700509369373321533203125 0.01357124745845794677734375 0.0215065665543079376220703125 0.01815980486571788787841796875 -0.0151988379657268524169921875 0.0035564876161515712738037109375 -0.01432277448475360870361328125 -0.0088979266583919525146484375 -0.01810318045318126678466796875 0.0114660561084747314453125 0.00528998672962188720703125 0.0074698147363960742950439453125 0.00828961841762065887451171875 0.014086001552641391754150390625 0.007581901736557483673095703125 0.01328862644731998443603515625 -0.01915917731821537017822265625 0.00301232165656983852386474609375 -0.001475687953643500804901123046875 -0.000112387133412994444370269775390625 -0.008975435979664325714111328125 0.01573982648551464080810546875 -0.02212617360055446624755859375 
-0.002713762223720550537109375 -0.014412469230592250823974609375 0.0170399248600006103515625 -0.00926716439425945281982421875 0.0234426073729991912841796875 0.00281038717366755008697509765625 -0.011292305774986743927001953125 -0.017678797245025634765625 0.010788750834763050079345703125 0.01930177398025989532470703125 -0.01984333060681819915771484375 -0.02485912106931209564208984375 0.0068457643501460552215576171875 -0.019183062016963958740234375 -0.0047923945821821689605712890625 -0.01235230267047882080078125 0.0041415714658796787261962890625 0.0029980726540088653564453125 0.0069648711942136287689208984375 0.02174436859786510467529296875 -0.01526155136525630950927734375 -0.001636882196180522441864013671875 -0.02324164099991321563720703125 -0.0208722911775112152099609375 -0.012720515020191669464111328125 -0.01037574373185634613037109375 0.01812667585909366607666015625 -0.0262065827846527099609375 -0.004104848019778728485107421875 0.018795408308506011962890625 
-0.010246201418340206146240234375 0.00490828789770603179931640625 0.0013688611797988414764404296875 -0.015347001142799854278564453125 0.00132162612862884998321533203125 -0.012402200140058994293212890625 -0.00764398835599422454833984375 -0.0039841360412538051605224609375 0.0071863955818116664886474609375 -0.0028333547525107860565185546875 0.012557811103761196136474609375 -0.015563149936497211456298828125 -0.00062540522776544094085693359375 -0.02112595736980438232421875 -0.00852645374834537506103515625 0.004393734969198703765869140625 -0.009471566416323184967041015625 -0.01280988566577434539794921875 -0.00059903343208134174346923828125 0.008571823127567768096923828125 -0.0040847701020538806915283203125 -0.0108697302639484405517578125 -0.0030673067085444927215576171875 0.001865595928393304347991943359375 0.010287963785231113433837890625 0.0023336461745202541351318359375 -0.0050052888691425323486328125 -0.00259307143278419971466064453125 -0.00530933775007724761962890625 0.007960828952491283416748046875 
-0.014692743308842182159423828125 0.00354641466401517391204833984375 0.00898928940296173095703125 0.004616015590727329254150390625 -0.000644965446554124355316162109375 -0.02864154241979122161865234375 0.0022339629940688610076904296875 -0.01219506561756134033203125 -0.0313328690826892852783203125 -0.0059726540930569171905517578125 0.0174357928335666656494140625 0.01789154671132564544677734375 0.0133960284292697906494140625 0.02211729623377323150634765625 -0.009817852638661861419677734375 -0.00225368584506213665008544921875 -0.0011609443463385105133056640625 -0.007753026671707630157470703125 -0.00194388930685818195343017578125 0.002490430139005184173583984375 0.0008736326708458364009857177734375 0.0191092677414417266845703125 0.000915758311748504638671875 -0.01213044859468936920166015625 0.0085106827318668365478515625 -0.0230934880673885345458984375 0.0004775283741764724254608154296875 -0.0059489249251782894134521484375 -0.0071815545670688152313232421875 -0.00041703018359839916229248046875 
0.011091463267803192138671875 0.00045873920316807925701141357421875 0.01335299015045166015625 0.004471237771213054656982421875 0.0187745429575443267822265625 -0.02434691227972507476806640625 -0.0107161663472652435302734375 -0.0058451308868825435638427734375 0.01174524985253810882568359375 0.012716391123831272125244140625 0.0239342339336872100830078125 -0.002954892814159393310546875 0.00035856079193763434886932373046875 -0.01034869067370891571044921875 0.01852641813457012176513671875 -0.0076175988651812076568603515625 0.0005644912016578018665313720703125 0.001049366779625415802001953125 -0.00414707325398921966552734375 0.0030312682501971721649169921875 0.011284946464002132415771484375 0.02058512903749942779541015625 -0.007193396799266338348388671875 -0.01216495037078857421875 -0.00028816619305871427059173583984375 -0.01833616755902767181396484375 0.01471959240734577178955078125 0.02094380743801593780517578125 -0.019754968583583831787109375 -0.0135100372135639190673828125 
0.01637637056410312652587890625 -0.006634849123656749725341796875 -0.0070329359732568264007568359375 -0.0134576000273227691650390625 0.0073070414364337921142578125 -0.02013233117759227752685546875 -0.01621367037296295166015625 0.005358965136110782623291015625 -0.00251506711356341838836669921875 0.005059063434600830078125 -0.001019161543808877468109130859375 0.0093527734279632568359375 0.0075631327927112579345703125 -0.0042718234471976757049560546875 0.01546283252537250518798828125 -0.00047537242062389850616455078125 0.02126620151102542877197265625 -0.00218083406798541545867919921875 0.0119253434240818023681640625 0.02094114385545253753662109375 -0.0049806176684796810150146484375 -0.01210065372288227081298828125 0.0058413813821971416473388671875 0.0075984294526278972625732421875 -0.0024354555644094944000244140625 -0.004966008476912975311279296875 -0.0063086650334298610687255859375 0.0070822234265506267547607421875 0.00156786083243787288665771484375 -0.00896972604095935821533203125 
-0.0081733502447605133056640625 -0.007857151329517364501953125 0.00332274776883423328399658203125 0.021549709141254425048828125 0.01903676800429821014404296875 -0.015560417436063289642333984375 0.008063101209700107574462890625 0.0044866683892905712127685546875 0.00103126582689583301544189453125 -0.01723208092153072357177734375 -0.01765459962189197540283203125 -0.009340576827526092529296875 0.010061702691018581390380859375 0.0068896128796041011810302734375 0.004537728615105152130126953125 -0.0007150736055336892604827880859375 0.02470568008720874786376953125 0.01907646097242832183837890625 0.005917551927268505096435546875 0.0043234587647020816802978515625 0.010136897675693035125732421875 -0.02246171049773693084716796875 -0.0007184383575804531574249267578125 -0.004344309680163860321044921875 -0.0046523599885404109954833984375 0.00678115151822566986083984375 -0.01016615517437458038330078125 -0.0007633165805600583553314208984375 -0.014956672675907611846923828125 0.02051342092454433441162109375 
0.034134231507778167724609375 0.007815264165401458740234375 0.009614097885787487030029296875 -0.009632430970668792724609375 0.001876560389064252376556396484375 0.01036732085049152374267578125 0.0138773880898952484130859375 0.01706294529139995574951171875 0.02308170497417449951171875 0.01702435500919818878173828125 0.008820074610412120819091796875 0.00608354248106479644775390625 0.00857893563807010650634765625 -0.02339964918792247772216796875 0.0070078731514513492584228515625 -0.0115757286548614501953125 0.0002680030302144587039947509765625 -0.01377814821898937225341796875 -0.001836265088059008121490478515625 0.010237225331366062164306640625 0.007311894558370113372802734375 0.00040372062358073890209197998046875 -0.012659336440265178680419921875 -0.013009627349674701690673828125 0.008487847633659839630126953125 0.013292216695845127105712890625 0.0048201070167124271392822265625 0.0040870518423616886138916015625 0.010223180986940860748291015625 0.00266760378144681453704833984375 
0.0066107730381190776824951171875 -0.01191523857414722442626953125 -0.02012910507619380950927734375 0.008359618484973907470703125 -0.0053260684944689273834228515625 -0.0088010244071483612060546875 0.009177627973258495330810546875 0.01843188144266605377197265625 -0.0018290169537067413330078125 0.010672497563064098358154296875 0.001798223354853689670562744140625 -0.0214617438614368438720703125 -0.00196713744662702083587646484375 -0.0327632129192352294921875 0.0040147243998944759368896484375 -0.004114880226552486419677734375 0.0064544421620666980743408203125 -0.0050652432255446910858154296875 0.0200069658458232879638671875 -0.013843290507793426513671875 0.0053486195392906665802001953125 -0.010552608408033847808837890625 0.00151624926365911960601806640625 0.011466987431049346923828125 -0.0072440854273736476898193359375 0.006523764692246913909912109375 0.01182503066956996917724609375 -0.01970994658768177032470703125 0.009716420434415340423583984375 0.02271535061299800872802734375 
