Dimensions:
400 30 10
Weights Input To Hidden:
0.034000000000000002442490654175344388931989669799805 0.037000000000000005107025913275720085948705673217773 0.028000000000000010991207943789049750193953514099121 -0.034000000000000002442490654175344388931989669799805 0.043999999999999997446487043362139957025647163391113 -0.014000000000000005495603971894524875096976757049561 0.037000000000000005107025913275720085948705673217773 0.043000000000000010436096431476471479982137680053711 0 -0.028000000000000000582867087928207183722406625747681 0.012999999999999997668531648287171265110373497009277 -0.021999999999999998723243521681069978512823581695557 0.041000000000000008659739592076221015304327011108398 0.0099999999999999950039963891867955680936574935913086 0.013999999999999998556710067987296497449278831481934 -0.022999999999999999611421941381195210851728916168213 -0.0090000000000000010547118733938987134024500846862793 -0.022999999999999999611421941381195210851728916168213 0.022999999999999992672528037473966833204030990600586 -0.013000000000000004607425552194399642758071422576904 -0.03800000000000000599520433297584531828761100769043 0.018999999999999989119814358673465903848409652709961 0.018000000000000002109423746787797426804900169372559 -0.020000000000000003885780586188047891482710838317871 0.033000000000000001554312234475219156593084335327148 -0.019000000000000002997602166487922659143805503845215 0.012999999999999997668531648287171265110373497009277 -0.026000000000000002275957200481570907868444919586182 0.018000000000000002109423746787797426804900169372559 -0.014000000000000005495603971894524875096976757049561 
-0.020000000000000003885780586188047891482710838317871 -0.047000000000000000111022302462515654042363166809082 -0.026999999999999999694688668228081951383501291275024 0.0089999999999999941158179694866703357547521591186523 0.019999999999999990007992778373591136187314987182617 0.018000000000000002109423746787797426804900169372559 0.043999999999999997446487043362139957025647163391113 0.0069999999999999923394611300864198710769414901733398 -0.03800000000000000599520433297584531828761100769043 -0.0069999999999999992783550339936482487246394157409668 -0.020000000000000003885780586188047891482710838317871 0.023999999999999993560706457174092065542936325073242 -0.028000000000000000582867087928207183722406625747681 -0.02999999999999999888977697537484345957636833190918 0.035000000000000003330669073875469621270895004272461 -0.011999999999999996780353228587046032771468162536621 0.049000000000000001887379141862766118720173835754395 -0.025000000000000001387778780781445675529539585113525 -0.034000000000000002442490654175344388931989669799805 0.020999999999999990896171198073716368526220321655273 -0.036000000000000004218847493575594853609800338745117 -0.022999999999999999611421941381195210851728916168213 0.042000000000000009547918011776346247643232345581055 0.03100000000000001365574320288942544721066951751709 0.0069999999999999923394611300864198710769414901733398 0.023999999999999993560706457174092065542936325073242 0.012999999999999997668531648287171265110373497009277 0.020999999999999990896171198073716368526220321655273 0.047000000000000000111022302462515654042363166809082 0.032000000000000000666133814775093924254179000854492 
-0.04400000000000000438538094726936833467334508895874 -0.024000000000000000499600361081320443190634250640869 0.035000000000000003330669073875469621270895004272461 -0.021999999999999998723243521681069978512823581695557 -0.013000000000000004607425552194399642758071422576904 -0.04400000000000000438538094726936833467334508895874 -0.0030000000000000026645352591003756970167160034179688 -0.020000000000000003885780586188047891482710838317871 -0.036000000000000004218847493575594853609800338745117 0.0079999999999999932276395497865451034158468246459961 -0.025000000000000001387778780781445675529539585113525 0.045999999999999999222843882762390421703457832336426 0.033000000000000001554312234475219156593084335327148 -0.003999999999999996613819774893272551707923412322998 -0.035000000000000003330669073875469621270895004272461 0.018000000000000002109423746787797426804900169372559 -0.015000000000000006383782391594650107435882091522217 0.01499999999999999944488848768742172978818416595459 -0.0059999999999999983901766142935230163857340812683105 0.0010000000000000008881784197001252323389053344726562 0.03800000000000000599520433297584531828761100769043 -0.041000000000000001720845688168992637656629085540771 0.027000000000000010103029524088924517855048179626465 0.029000000000000011879386363489174982532858848571777 0.039000000000000006883382752675970550626516342163086 0.035000000000000003330669073875469621270895004272461 -0.045999999999999999222843882762390421703457832336426 0.0020000000000000017763568394002504646778106689453125 0.0050000000000000044408920985006261616945266723632812 0.050000000000000002775557561562891351059079170227051 
-0.017006714605364743608806321617521462030708789825439 0.011000533667921799305111640876475576078519225120544 0.02698277646382328878726930554421414854004979133606 0.018998874037290280902823269570944830775260925292969 -0.010003478357170024135025521161423966987058520317078 -0.036989290881392300480712265198235400021076202392578 -0.022999412242351541940665882179928303230553865432739 0.037004674398951366287580100333798327483236789703369 0.045000853133800040872802838975985650904476642608643 -0.01004650965124863348787442873799591325223445892334 0.046000657837565663010881422678721719421446323394775 0.021000319571230156856511683827193337492644786834717 -0.015007526330273317574648395122949295910075306892395 0.028977123001434280241683794088203285355120897293091 0.017978317657305183108196189323280123062431812286377 -0.048031529394312787173415557617772719822824001312256 0.047995753091607855356226508547479170374572277069092 -0.047000060385548318719894922423918615095317363739014 -0.032000541626822115448547378946386743336915969848633 0.042988203454663365121746210206765681505203247070312 0.0029995170301413240539212257118606430594809353351593 0.0069994702978461893760897538641074788756668567657471 -0.048009222509411621226949051788324140943586826324463 0.030999900789775866605246790186356520280241966247559 0.036999885442489624520767677040566923096776008605957 -0.0079959167833442250372666393332110601477324962615967 0.01599829911194536324892112588713644072413444519043 0.039999767162106382445418972793049761094152927398682 -0.0050058334858436156697414354255215584998950362205505 -0.029988820607499869219658705787878716364502906799316 
-0.0089962627072445004727807571498487959615886211395264 -0.020011423883982398103098532260446518193930387496948 -0.018059171575353624716875344802247127518057823181152 -0.03200237082636306351624000399169744923710823059082 0.048227337075544995936837722183554433286190032958984 0.022012904204626572435277154227151186205446720123291 0.032003237002059571614243083104156539775431156158447 0.0259997693485613176611614960620499914512038230896 -0.040037807344282271004853868134887306950986385345459 -0.021994669759369679662430741018397384323179721832275 0.017993630984881457679502858582054614089429378509521 0.0069928691234898672848818712566298927413299679756165 0.047994243425726612617410182792809791862964630126953 0.0040850101312815082638119079661009891424328088760376 0.036969920036154249598503440665808739140629768371582 0.015963802930170790245201217771864321548491716384888 -0.042998692444200244111573994132413645274937152862549 0.033999999714156320385072262979520019143819808959961 -0.029991455059924579384933451819961192086338996887207 -0.024785318342929553436793099763235659338533878326416 -0.02099922342680215006649468989508022787049412727356 0.022040018754474907658469362559117143973708152770996 -0.016995338413444985303790701891557546332478523254395 -0.019999957529693215135813133542797004338353872299194 -0.046002364503703187248451200730414711870253086090088 -0.030074755645138936954730013439984759315848350524902 0.021002014961331982173531329749494034331291913986206 0.018999715193469646906665460051044647116214036941528 -0.04089461068372395730063928454001143109053373336792 -0.034197441200214478973506970760354306548833847045898 
-0.0077273362190988627642984631904710113303735852241516 0.00024599582763052909748988095195443293050630018115044 0.050237140977917316142509207566035911440849304199219 -0.025931937417190124850474575168846058659255504608154 -0.032399785376575687689815197245479794219136238098145 -0.0063978579046795151785698152480108547024428844451904 -0.0034345631912297731880290285744194989092648029327393 0.004358856033512235883531360514098196290433406829834 -0.02872157383897261037630777025242423405870795249939 0.015270646116494129146401448338110640179365873336792 0.029299670904958840383924822958761069457978010177612 0.039594573756350386062319302027390222065150737762451 0.01667688609837564631122042158040130743756890296936 -0.021954181888230107216886111132225778419524431228638 -0.003173414250037956754746382159737549955025315284729 0.0028800015798999844575389861489611575962044298648834 0.044944198321468377399501292757122428156435489654541 -0.04687901810789837225845744228536204900592565536499 -0.015791451160640550960279071546210616361349821090698 0.013930679949466607397967621295720164198428392410278 -0.024935656574809967472861060855393589008599519729614 -0.03521465348242317633387088449126167688518762588501 0.039947500885763008449114153108894242905080318450928 0.0070126037220180365699961910763704509008675813674927 -0.005384530857862367299315753399469031137414276599884 0.043587424464799087719946157903905259445309638977051 -0.021695208872151941492667504007840761914849281311035 0.016873130224284736689011054977527237497270107269287 0.0098411665125906801210309282623711624182760715484619 -0.01320421345783862922262930084116305806674063205719 
-0.014269403243019364996291287184249085839837789535522 -0.00066048392171668638545023455321825167629867792129517 0.0051137629739931239961081566036682488629594445228577 -0.018579408818429298672070260067812341731041669845581 0.018343708980142526404621960978147399146109819412231 -0.04432986960385935926165501541618141345679759979248 0.028059694532257282995058034202884300611913204193115 -0.067600775970226928412998290696123149245977401733398 0.020778234570816324355835291726180003024637699127197 0.062245165048447299860345793831584160216152667999268 -0.012662770643431194017569652032761950977146625518799 -0.018756904306424772299610737036346108652651309967041 -0.01264717619752877414418534840478969272226095199585 0.10551698900687794813180175879097077995538711547852 -0.025579668869472851205904007088065554853528738021851 0.045060612438289508741018352111495914869010448455811 -0.0057278853126554131122705193490673991618677973747253 -0.062037417688245867497531804701793589629232883453369 -0.011792599533233603936732691863653599284589290618896 -0.0076660840603175375157496418410119076725095510482788 0.027430368139586151776665445822800393216311931610107 -0.045685575070138199904601350453958730213344097137451 -0.0044628166540659633745868895005060039693489670753479 0.014097509463846788491103723117703339084982872009277 -0.041772031767964581949748037459357874467968940734863 -0.029128776883894428456622804901599010918289422988892 -0.042245003674129893989075412719103042036294937133789 -0.018263449851112563415700407176700537092983722686768 -0.043467362722888751302985355096097919158637523651123 -0.029798372006303790876513559737759351264685392379761 
-0.018372562934279849933272288353691692464053630828857 0.038171834595789412569732945712530636228621006011963 0.0076746491479039039354526074987461470300331711769104 -0.029881780396190209259099646033064345829188823699951 -0.033695951184793876409528934345871675759553909301758 0.045766021234162054809324615689547499641776084899902 -0.02453746758977173175741981481223774608224630355835 -0.013865782404891259516066526202848763205111026763916 0.030844592566097360497590074146501137875020503997803 0.035972249688308879922438165976927848532795906066895 0.047784920515884815594986889664141926914453506469727 0.054902632894931822915562946718637249432504177093506 0.021789247906249500225106530137964000459760427474976 0.017431396472692921306713031981416861526668071746826 0.0060378546766177891916282938211679720552638173103333 0.06394677068926199470233484589698491618037223815918 -0.043039939747694891392093552440201165154576301574707 -0.021082914689095233473636881171842105686664581298828 0.018166632488270634260274505322740878909826278686523 0.04995235775797206984050191636015370022505521774292 0.020221329187707047514432900925385183654725551605225 0.03536464941785918969507918063754914328455924987793 -0.0099412264308922273364776955872912367340177297592163 0.015388298166517188833579687923247547587379813194275 0.010839507988512131486658063295180909335613250732422 -0.049822083898737282159352446342381881549954414367676 0.0069036162193501816874974252868923940695822238922119 -0.053600483600667082895174786472125560976564884185791 0.029391241744713150763068654214293928816914558410645 -0.040031288943145879044571699978405376896262168884277 
-0.027601963803459660107275652762837125919759273529053 -0.018607567869123698561795166028787207324057817459106 0.038956918599205352105041555432762834243476390838623 -0.004916892759811980657957963813942114938981831073761 -0.0041066267692580369838561971107537829084321856498718 0.018867965761292671694748790400808502454310655593872 -0.011470589999481762763511305536212603328749537467957 -0.012234345762094632828476115093963016988709568977356 -0.037533364560583759583778373780660331249237060546875 -0.040736638918024634103964842779532773420214653015137 -0.044000413304902646904892549173382576555013656616211 -0.043129812189862740123835749272984685376286506652832 0.012027810848303925259084046217594732297584414482117 -0.02182306700267480983890244772283040219917893409729 0.033386210551252841483016453594245831482112407684326 -0.053225199227026391557426876488534617237746715545654 -0.031247330601042795639177285238474723882973194122314 -0.01134157570155299409042637392985852784477174282074 -0.0051464029046420925808669188938893057638779282569885 -0.019711445407365479204342406660543929319828748703003 -0.026918811264278041245345818310852337162941694259644 0.016266625059107552020432052586329518817365169525146 -0.040042981584238676595610684216808294877409934997559 -0.032621401878456260381433651218685554340481758117676 0.017134814598711838734557133534508466254919767379761 0.01043228973568678316641289427479932783171534538269 -0.0242402129071232590173945453670967253856360912323 -0.012672089802921417817094251745402289088815450668335 0.029839797250267956901792487656166485976427793502808 -0.023872307567058381749802720150910317897796630859375 
-0.056815464817082828030692098764120601117610931396484 -0.011469288806359636406773105932188627775758504867554 0.003773199637706987127211410992799756058957427740097 0.049495239603556569207842841251476784236729145050049 0.030957487707092994078106329425281728617846965789795 0.00093247670687649874925184700913405322353355586528778 0.0077618531624713748770516552610843064030632376670837 0.026538312393320551141329133315593935549259185791016 0.020589196882340812105871563630898890551179647445679 -0.017950015595450338062866180166565754916518926620483 0.030651445915859977520145918106209137476980686187744 -0.018877186794443636536078301446650584693998098373413 -0.016315819904374244397882165458213421516120433807373 0.044900472504746595514557583328496548347175121307373 0.010539873332031626101956689467442629393190145492554 0.015272709322240443294282918884618993615731596946716 0.038857262619511535872707241878742934204638004302979 0.032276847402768003847395306138423620723187923431396 0.047398795973563258299154909991557360626757144927979 0.049814750309531696803588829425279982388019561767578 0.0064469859915888619306123530350305372849106788635254 0.023768769628026074208770879181429336313158273696899 -0.036150824776616963251996139661059714853763580322266 0.021942834899595954623041649256265372969210147857666 0.036587395214027963741276749942699098028242588043213 0.046217212471310234467303246219671564176678657531738 -0.023659172735731200803988016900802904274314641952515 0.017274749542666379548139232724679459352046251296997 0.051424002129956548901024149245131411589682102203369 -0.0087479767772342901382964797107888443861156702041626 
0.038463325799294394158334142730382154695689678192139 0.035474904127333575787339725593483308330178260803223 0.027045756812145643060985022998465865384787321090698 -0.0072228309460168468522645035534424096113070845603943 -0.012561251655325357187709123252261633751913905143738 -0.042028873507102250395295328644351684488356113433838 -0.0077342830983085060839177238278807635651901364326477 0.0087175585736743339826393395242121187038719654083252 0.028825518961067744111437249898699519690126180648804 -0.030986677000877437676562564661253418307751417160034 0.03747976047080239792030909029563190415501594543457 -0.037058716915929941493335064706116099841892719268799 -0.0010882638854732965862093241327102077775634825229645 0.023007699578624862812858964389306493103504180908203 0.0099728619370083124856529721569131652358919382095337 -0.0398759237648772732476309954563475912436842918396 -0.01664940628659302909730932640286482637748122215271 -0.039010626968371445166816613436822080984711647033691 -0.007963406016515272786704393581658223411068320274353 0.038619363825295377479207559190399479120969772338867 -0.044245617733323042153337212312180781736969947814941 -0.048130508650710210338807826246920740231871604919434 -0.036072575439920019635398062973763444460928440093994 0.023301829383966733005850713311701838392764329910278 -0.029598576597475341476428667419895646162331104278564 0.0059844606698009729719989202578744880156591534614563 -0.030317538395534648215656758907243784051388502120972 0.049995628074724150768926023147287196479737758636475 -0.022472576722374234398094117182154150214046239852905 -0.045028853214740351129652395911762141622602939605713 
-0.0093921724509722446377901761138673464301973581314087 -0.037926424246910610260652418901372584514319896697998 -0.0096042265630347234406372081139124929904937744140625 0.017965898279710068585757198889041319489479064941406 -0.044093347752503335434948184001768822781741619110107 -0.020974403815691211594440801491145975887775421142578 -0.021013299615116474289289172361350210849195718765259 0.0012971865901295249762920080982553372450638562440872 0.035287784106152748908602490018893149681389331817627 0.0089288732201115491443621507983152696397155523300171 -0.02876674490843859205435606440914853010326623916626 -0.024710716246480992491774131281090376432985067367554 -0.027034333536452355428725269348433357663452625274658 0.019965912850222491958795956179528729990124702453613 0.04727976978221740123053962179255904629826545715332 0.031574440216603862074951081240214989520609378814697 -0.018066584057156255538334477250828058458864688873291 0.034970834148464649548948557367111789062619209289551 0.043262349393410066966669802468459238298237323760986 0.022850331768876415428071169344548252411186695098877 0.023184713098664697095152575911924941465258598327637 0.0010348928107862909002434559369021371821872889995575 -0.024140055042225754683427041413779079448431730270386 0.03597357092112865584176972788554849103093147277832 -0.027618236341333691347132983651135873515158891677856 0.050042969700845471581196477472985861822962760925293 -0.0090396166362184220133269008101706276647746562957764 -0.0070424386339242445176367368731007445603609085083008 0.048354994134365648916773494647713960148394107818604 -0.035830636610642563333328780572628602385520935058594 
0.048671220890783753465491656697849975898861885070801 0.039721794638977736546792129956884309649467468261719 -0.025568403467855400218455841354625590611249208450317 0.040433808035829105209657541308843065053224563598633 -0.039919274493444088791616053413235931657254695892334 0.032553978803345907933053382521393359638750553131104 -0.033713607877992067540784404400255880318582057952881 -0.011540698751425961660066477065811341162770986557007 -0.01706878556080946435224987567380594555288553237915 0.006297556074743549184291602216489991405978798866272 0.045476731910206055764511745564959710463881492614746 -0.04462072458615093384359795436466811224818229675293 0.029833362428937706956055819773609982803463935852051 0.019862559310498555803503606398408010136336088180542 0.024480957042158985742519305972564325202256441116333 0.026679657350128772180797298574361775536090135574341 0.00068864564849154962129784696145406996947713196277618 0.005865362233798746688373526581017358694225549697876 0.01184978210341824933493626303970813751220703125 -0.00077035547882688723119598561694942873145919293165207 0.029185748550914474702677736672740138601511716842651 0.035306625719753549630386402213844121433794498443604 0.043366863943335387521216262030065990984439849853516 -0.044070101559900348719978069311764556914567947387695 -0.031035895459569522170095723367921891622245311737061 0.018710102691462605212224801221054804045706987380981 -0.045663479502038459290069738472084281966090202331543 -0.035910772578162483692487683129002107307314872741699 0.015930687599933230497173397566257335711270570755005 0.0058287431158925784649427193073734088102355599403381 
-0.023037166825422936144995844642835436388850212097168 0.0069390998957362826776718023324974637944251298904419 -0.017764127537754439284389817998999205883592367172241 -0.04569945995658022258600894360824895557016134262085 -0.046705458525514276235668376102694310247898101806641 -0.046850049138368758672168468137897434644401073455811 0.030655899172041849859438045200477063190191984176636 -0.015474793377453296625012590936876222258433699607849 -0.0067291905729740105965297480850040301447734236717224 0.014303227035460611832329291814858152065426111221313 -0.020686897638375834063140246144030243158340454101562 0.043722625589271674195757100278569851070642471313477 0.019524313797556109434383486700426146853715181350708 -0.042911315027541953315282086123261251486837863922119 0.01294452797788143115498282753605963080190122127533 0.037248871095662827723771215460146777331829071044922 -0.012598035172659628397329178994823450921103358268738 -0.041170443240341206281307506742450641468167304992676 0.0064723353516369557317244876060158276231959462165833 0.0091431260892196556527844464312693162355571985244751 -0.045525795303079590048422886638945783488452434539795 -0.019679504269844664415822776959430484566837549209595 -0.015652052704938041599591613817210600245743989944458 -0.00096618485653350680460171862051765856449492275714874 0.023955399648978414894884281238773837685585021972656 0.0009614622626413897067687575059835580759681761264801 0.017807628979688436970940657033679599408060312271118 -0.0045706134806636298378856864133013004902750253677368 0.03552852768021660251340776426332013215869665145874 -0.022932813376555578194215812004586041439324617385864 
-0.04885574788596807466189986257631971966475248336792 -0.0044000465106812337509611943175968917785212397575378 0.029855331023428889614113046491183922626078128814697 0.048855051473532223882401126502372790127992630004883 0.00011673315739751317682455777902106319743325002491474 0.032934468567127450633336138707818463444709777832031 -0.046556316051513640941195149025588762015104293823242 -0.011429409941191983474118032404476252850145101547241 0.014860957723292154628036421115666598780080676078796 0.040618929410097155685566150395970907993614673614502 0.0057461587452727353603210147525715001393109560012817 0.044044916244458949539097858405511942692101001739502 0.030519504151640911016052370996476383879780769348145 -0.024961749366981568487577902715202071703970432281494 0.0040237968903453560920446818727214122191071510314941 0.036713083334011964442566977595561183989048004150391 0.026723764425670447353322600747560500167310237884521 0.038596273050646223712334403899149037897586822509766 0.010780484477946843460682835313946270616725087165833 -0.019237263937937103958075724108311987947672605514526 -0.011595179547961624588747753250572714023292064666748 0.0046393026906530413638884979832255339715629816055298 -0.034629408692220156607000092208181740716099739074707 -0.027918455462292022378756328748750092927366495132446 0.0051004380547144704746709287235262308968231081962585 -0.054150294212340112365300370811382890678942203521729 -0.020836822789800920480152157665543199982494115829468 -0.023217346318517531611469451036100508645176887512207 0.0059949604702425269078802649858062068233266472816467 -0.0073463653916203434587894882668024365557357668876648 
0.0069666496141406854605837573046756006078794598579407 -0.047066536628378598250410647096941829659044742584229 0.045211714028211329174933297281313571147620677947998 0.046714103569757851885935195923593710176646709442139 0.050085083924897230711614781739626778289675712585449 -0.0063742469224636307337239493620018038200214505195618 -0.011258555959378083871635922719178779516369104385376 -0.047572700575240448039870955199148738756775856018066 -0.020166737267698936486581828830821905285120010375977 -0.046226597377638824204471035272945300675928592681885 -0.047204798492351207617190311793820001184940338134766 0.03182674343584292186992712458959431387484073638916 -0.0026050437616778822531860004829695753869600594043732 -0.010913289986488279581511307014807243831455707550049 0.0097815223611631748473760339379623474087566137313843 0.0020921013875005159063369397642873082077130675315857 -0.014870104712478156641641824364796775626018643379211 -0.014998996258106800372189582049031741917133331298828 -0.008220717503237716036745830194831796688959002494812 0.04303580900254990598829962777926994021981954574585 -0.0342493730304180843404537881724536418914794921875 -0.020804271751123405709282820907901623286306858062744 -0.046014392968841279218938922213055775500833988189697 -0.019964556495513489237092485950597620103508234024048 0.0006519312256170559788381879684493469540029764175415 0.01453184165732008745197667565207666484639048576355 0.03587873486959931856876693245794740505516529083252 -0.020001311468102678930991444872233842033892869949341 -0.0061317345856638644230329759921005461364984512329102 -0.01247860134862246485332182288630065158940851688385 
0.027866155574439575859369000454535125754773616790771 -0.048989361941618979334744921061428613029420375823975 -0.010962443314952587114508020249559194780886173248291 0.021472869267048833030742116534383967518806457519531 0.00034762283736164032669352375037874480767641216516495 0.040072113151861751823012980366911506280303001403809 0.01818857524036176717685542314484337111935019493103 0.038998562612039593122670311231559026055037975311279 0.043054713923937296127242291277070762589573860168457 0.04605082854750193466220054006043937988579273223877 -0.006738877607891715151855471788167051272466778755188 -0.0049927920857045348518310490248950372915714979171753 -0.019976666744632512462409579256927827373147010803223 0.041002783655553667885307334017852554097771644592285 0.033004457662195431366658482374987215735018253326416 -0.0089434342092117365824455177403251582290977239608765 -0.0082593255857297247918280547196445695590227842330933 0.020005555108638495287465275396243669092655181884766 -0.022943278619709257110104161370145448017865419387817 -0.016972459344859230218061085793124220799654722213745 0.011302133813982562574040890979176765540614724159241 -0.0065897012032377234175273272853701200801879167556763 0.010918239989823533622748108484756812686100602149963 -0.031995952267968162663347442276062793098390102386475 -0.026002118958949698573901443410250067245215177536011 0.0120656144051482609735881368351329001598060131073 0.031762447215547891243847544728851062245666980743408 -0.040020186503574868563948285782316816039383411407471 0.041042975214530624805675529387372080236673355102539 -0.02379738417982063883315824170949781546369194984436 
0.046982249166888222224880422572823590599000453948975 0.017999947980338371761321880626383062917739152908325 0.027999890578831423265659950061490235384553670883179 -0.01504580843188950411981608112910180352628231048584 0.041046623383601155143907135425251908600330352783203 -0.0229983922193403682310286484380412730388343334198 -0.024936171327546812620523652981319173704832792282104 0.0079997667224822356646374288402512320317327976226807 -0.035019349550248497771054445593108539469540119171143 0.018999738756015408652766396357947087381035089492798 -0.044145470647214080095466215425403788685798645019531 0.0089993889834247449421855691298333113081753253936768 -0.036995416729831469282441247514725546352565288543701 0.036999189368688734091961123340297490358352661132812 -0.0490000966161784554109281941691733663901686668396 -0.0030010047775954180014623684513708212762139737606049 -0.023015649348001147866948912223961087875068187713623 0.044999572720789790536422003697225591167807579040527 -0.033017450646334815800297945997954229824244976043701 0.002999240752685163134000356777164597588125616312027 0.028908113635572954547292567895055981352925300598145 -0.020046703352590775071284667774307308718562126159668 -0.0029725441993603352389130556332474952796474099159241 0.040999407560394239558032580816870904527604579925537 -0.0020000176493609233066561792213633452774956822395325 0.020999749467610091119285087302159809041768312454224 0.001969447072010176939121928185727483651135116815567 0.031002707960020636779319147535716183483600616455078 -0.01800848243589278641074713505076942965388298034668 0.043969373203168703179155585303305997513234615325928 
0.0080025905991843171438659965133410878479480743408203 -0.02199999748140780628236079508042166708037257194519 -0.036999999846319603369337869480659719556570053100586 0.03700872768661882944440932874385907780379056930542 -0.035006788545423342395856991515756817534565925598145 0.0059997152989601267025765451990082510747015476226807 -0.037006218427932190129237000064676976762712001800537 0.041000031819214001471696207090644747950136661529541 -0.036999277584335785173941246739559574052691459655762 0.029999967593674833898909071194793796166777610778809 -0.038982729049934598808402341774126398377120494842529 0.019999999449053205285986578587653639260679483413696 0.039999930693901473988116634927791892550885677337646 0.02500005079126343607298643689773598453029990196228 0.0060000000129849422395023061937990860315039753913879 -0.0080000078168170341008647028502309694886207580566406 -0.028996170912938205865838625641117687337100505828857 -0.015999998417444614984272988067459664307534694671631 0.038000047464453790002636424105730839073657989501953 0.038999741727929006229746988765327841974794864654541 -0.010986537362248680049781057732616318389773368835449 0.017000077882818178526269647932167572434991598129272 0.020998877373092861287062760311528109014034271240234 0.034999995427265784275761006938409991562366485595703 0.0070000591374566756980302173474228766281157732009888 -0.03199999991779661073776352964159741532057523727417 -0.04299544854615351685556134953003493137657642364502 0.011000000171813538452081360219381167553365230560303 1.0203825689778056297303743997842429003242159524234e-07 -0.011999656787531891299902753189599025063216686248779 
-0.04400000000000000438538094726936833467334508895874 0.0099999999999999950039963891867955680936574935913086 -0.032000000000000000666133814775093924254179000854492 -0.030999999999999999777955395074968691915273666381836 -0.003999999999999996613819774893272551707923412322998 0.034000000000000002442490654175344388931989669799805 0.023999999999999993560706457174092065542936325073242 0.0089999999999999941158179694866703357547521591186523 0.023999999999999993560706457174092065542936325073242 -0.011999999999999996780353228587046032771468162536621 0.040000000000000007771561172376095782965421676635742 0.034000000000000002442490654175344388931989669799805 -0.042000000000000002609024107869117869995534420013428 0.029000000000000011879386363489174982532858848571777 0.0079999999999999932276395497865451034158468246459961 -0.035000000000000003330669073875469621270895004272461 0.02199999999999999178434961777384160086512565612793 -0.020000000000000003885780586188047891482710838317871 -0.049000000000000001887379141862766118720173835754395 0.0099999999999999950039963891867955680936574935913086 -0.030999999999999999777955395074968691915273666381836 -0.010999999999999995892174808886920800432562828063965 -0.024000000000000000499600361081320443190634250640869 0.039000000000000006883382752675970550626516342163086 0.025000000000000008326672684688674053177237510681152 -0.016000000000000000333066907387546962127089500427246 0.0079999999999999932276395497865451034158468246459961 0.032000000000000000666133814775093924254179000854492 0.043999999999999997446487043362139957025647163391113 0.0089999999999999941158179694866703357547521591186523 
0.020999999232457284420449994399859861005097627639771 0.050000001801640839294016416261001722887158393859863 -0.031999750824279617200662784171072416938841342926025 -0.0099999999965168420018590822451187705155462026596069 0.020000000149732730103657729614496929571032524108887 0.014000022116857108178678004151151981204748153686523 -0.026999999999721160243160156255726178642362356185913 0.045000000641547084623272922954129171557724475860596 0.023999922938678697192926847492344677448272705078125 -0.0020000000022872134290696788383456805604510009288788 -0.018000448479842456189770061314447957556694746017456 0.013000000376229841822506294590766628971323370933533 0.033000059819200094901603392827382776886224746704102 0.040999999999847616671821981526591116562485694885254 0.043000000196968500565386506195864058099687099456787 0.042000041181664143907781294728920329362154006958008 0.0080000000000134564165366057864048343617469072341919 -0.033999999920567125499815119837876409292221069335938 -0.028000000299368565243041118151268165092915296554565 0.0079999974604358266294656942818619427271187305450439 0.025000000002425748490963997028302401304244995117188 0.041999999145064942362992610469518695026636123657227 -0.001999939835238073206069575604715282679535448551178 0.002000000001661924545898196825532977527473121881485 -0.017999998251684488914658999192397459410130977630615 -0.027999975156506224510666314131412946153432130813599 -0.01200000000798405117019562737823434872552752494812 -0.0089999943032842612961053063713734445627778768539429 0.004999999562240028602722041739525593584403395652771 -0.018999992680419765939126008902348985429853200912476 
0.049001335742587116828250515254694619216024875640869 -0.024000599161450714841281595113287039566785097122192 0.031996358373682490250367038697731913998723030090332 -0.032990384407783249209877851626515621319413185119629 -0.033001350165501423805647362996751326136291027069092 -0.047005872855686851863321606970202992670238018035889 -0.017999917597401583757577014921480440534651279449463 -0.010002559446196348375002216357643192168325185775757 0.046989978606233002988989966297594946809113025665283 -0.045002558406620096764783056642045266926288604736328 -0.011008613108854118853296988334022898925468325614929 0.031001179775137274047258628684176073875278234481812 -0.031006079106284063773291137522392091341316699981689 -0.028001637586023111342603542084361833985894918441772 0.020989973611534210734541616716342105064541101455688 0.012998907879718043720251863248904555803164839744568 -0.0369925615723324177630537690220080548897385597229 0.030002752988503276349030457481603662017732858657837 0.028001246212186910872210532374992908444255590438843 0.035999685697207593759738841754369786940515041351318 -0.012989457460988630341236493848100508330389857292175 -0.045005662964857091890014118007457000203430652618408 0.026999214672948964460763576767021731939166784286499 0.033999815148596637670586062540678540244698524475098 -0.04199823784302820356417740299548313487321138381958 0.0099989763181415319132083752151629596482962369918823 0.0080070382320958088939732988364994525909423828125 -0.0050001570445451851143481292183423647657036781311035 0.049991555995887795860177504891908029094338417053223 -0.037996640781968078759422979828741517849266529083252 
-0.021988005667285235450458813488694431725889444351196 0.00097011162995043801436645392044511027052067220211029 -0.013001220372604975483721290174798923544585704803467 0.010692645526764488553284060401438182452693581581116 -0.030978652878687003985325176813603320624679327011108 -0.043963548542231507820776670314444345422089099884033 0.013628335776337343471231733360582438763231039047241 -6.130403981572341576560154774444555414447677321732e-06 -0.0046926960989389652004200037538339529419317841529846 -0.037642307124797651229908268533108639530837535858154 -0.043702330418709398052179437854647403582930564880371 -0.015011920529301911106379030513835459714755415916443 0.041944840893399358561222101116072735749185085296631 0.026049628455770419688253269896449637599289417266846 0.0059142526421668154337774048201481491560116410255432 -0.034964049783388261027905485889277770183980464935303 0.039812260302537483269702534016687422990798950195312 0.018981148637892783503922089494153624400496482849121 0.043888481225363346061030256350932177156209945678711 -0.030990137194953675664477188433920673560351133346558 -0.044205966619053245481030245400688727386295795440674 0.033599487803704121413606031865128898061811923980713 -0.027010208238739803060513011701004870701581239700317 0.033000450258483179921675798595970263704657554626465 -0.032092929306999626315466400683362735435366630554199 -0.019001954230205390927732622685653041116893291473389 0.044087047199116047302425158704863861203193664550781 0.025004829499589906888212809121796453837305307388306 -0.022987739734286798121143391426812740974128246307373 0.043973365453268145608411998637166107073426246643066 
0.036959215979022387588148745862781652249395847320557 0.0040705598520047164140533979548308707308024168014526 -0.0059266399281042237215388901461210480192676186561584 0.026732756458854232267663419975178840104490518569946 -0.034923082081787244768111833082002704031765460968018 -0.035654027561042210547892494787447503767907619476318 0.033144749970217358969737375673503265716135501861572 0.027558075874477051120381432269823562819510698318481 0.011283905248612093041860049424940370954573154449463 0.023361899781824339850100358262352528981864452362061 0.037927786404377786255714966046070912852883338928223 -0.030035040425459597068780226436501834541559219360352 -0.038494655672209145136353214411428780294954776763916 -0.01712159280452255072368927812931360676884651184082 0.046800395197424030091504221218201564624905586242676 -0.032260658034819950090721363267221022397279739379883 -0.0020559678121174016635075432191115396562963724136353 -0.014135074792794573989018758197744318749755620956421 -0.011473047306040720649811248676996910944581031799316 0.04206529431077729586085922619531629607081413269043 0.0047024221905179290625920174306884291581809520721436 -0.010311712729789295622806477581434592138975858688354 0.024324487337919625112858668103399395477026700973511 -0.021025421021476659727555968970591493416577577590942 -0.023371725026349127185554266361577901989221572875977 0.041948171601175553158125097752417786978185176849365 -0.040072253303977407867808580022028763778507709503174 -0.030989757282949587091636090008250903338193893432617 -0.031195251086525741662791588737491110805422067642212 -0.013360707279166194813568857568952807923778891563416 
0.010524331689114249654970478786708554252982139587402 0.01008078025389412026024960056247437023557722568512 0.041283964677005118015795659403011086396872997283936 0.011747396595290011955814435395950567908585071563721 -0.021578345726401437776331704299082048237323760986328 -0.045378152060084199492795420383117743767797946929932 0.030874887599379820246614514189786859788000583648682 0.025308474236314680572146329495808458887040615081787 -0.016329426473219121190849634217556740622967481613159 0.024435344079875014056124626904420438222587108612061 0.036307841385716382864856655032781418412923812866211 0.024173532105250042367750040739338146522641181945801 -0.035445934512252599835058219923666911199688911437988 -0.0017014524512858010454191548532776323554571717977524 -0.039840898872887671455789160290805739350616931915283 -0.00084539527110424634442908953246842429507523775100708 0.021177137738540140893261920496115635614842176437378 -0.046178547997133320701657055451505584642291069030762 0.043335092009232537013652120094775455072522163391113 -0.04556960013079953270009880839097604621201753616333 0.047275630318969301402187710436919587664306163787842 -0.025942853717504404942317819404706824570894241333008 -0.0034265538372570472636091665208368794992566108703613 -0.028984544934514386987922662797245720867067575454712 0.019226375270977789228021848089156264904886484146118 -0.020314557421673273135409587553112942259758710861206 0.0043405320501032351732106917552300728857517242431641 0.027235841303364521220897742637134797405451536178589 0.048458598328274496425116524278564611449837684631348 0.035102655137174414157197332997384364716708660125732 
0.0074249105679552885456162769628463138360530138015747 0.027509717096115687828827844896295573562383651733398 -0.027099155427126618567168492290875292383134365081787 0.0021627599992698914345423677474400392384268343448639 0.01739741529161529381974915509090351406484842300415 -0.034065218481195681798912033855231129564344882965088 -0.042390793898833836750306147678202250972390174865723 0.025791124132557904230500511744139657821506261825562 0.0042036415431636678374793802959175081923604011535645 0.052445287046201001512901740397865069098770618438721 0.034605299494289532002966325308079831302165985107422 -0.025333284288922282984080069923038536217063665390015 0.056039352624168245475821947820804780349135398864746 0.014536263092078345604551969927342724986374378204346 0.024055735735558313875825930949758912902325391769409 -0.017872851757280115714277002325616194866597652435303 -0.04196126531579851687281390582029416691511869430542 -0.0055740909556610844163837548137507837964221835136414 0.04773043047711432451674085086779086850583553314209 0.026502333291257285097231033432763069868087768554688 0.04828522315907699674619735219494032207876443862915 -0.027633399884493030362886401007926906459033489227295 0.0086163516917210532242155096582791884429752826690674 0.0071053127373596203231187473647878505289554595947266 -0.0018482529860497024908755347993860596034210175275803 -0.013383643700332167880695521944289794191718101501465 0.0030519549295980135349137807310171410790644586086273 -0.035580926910743250479729482549373642541468143463135 0.015922734287583312218217201916559133678674697875977 -0.014443428615043951007690381516113120596855878829956 
-0.026946678634344214259277450196350400801748037338257 -0.025958086337201258242401991083170287311077117919922 0.18351868445508406901822695544979069381952285766602 -0.021225848532646737765183786450506886467337608337402 0.079944697155063901283789107310440158471465110778809 -0.047751171464092037610704721828369656577706336975098 0.058612436242463102076261094453002442605793476104736 -0.11712506000593082833294289457626291550695896148682 -0.096764015461092145464760960749117657542228698730469 0.12841771155767137124747989673778647556900978088379 -0.020807027154897128617960788687923923134803771972656 0.0051059841455429926318498878856644296320155262947083 0.037664517209655766494247330911093740724027156829834 0.26576831571638109830146845524723175913095474243164 0.015304541483942141200103037590452004224061965942383 0.19366216613321701744965253055852372199296951293945 -0.013168194562995307744790451920380291994661092758179 -0.037344436350432212712302515456030960194766521453857 -0.12312892364133820599647606286453083157539367675781 -0.015076938679578925917024179170766728930175304412842 0.0044682013460223390238779117566991772036999464035034 -0.0054705188529802504029952991970731090987101197242737 -0.011938415133158351497111304695408762199804186820984 -0.0078154902571969230712367604496648709755390882492065 0.0029348820254154698444759574726958817336708307266235 -0.019043246289891447436959381889209907967597246170044 -0.0074529699743395129776790675180109246866777539253235 -0.015103244974096950714592679787529050372540950775146 -0.025038059865689916982933738154315506108105182647705 -0.00081874479206881249550992185604059159231837838888168 
-0.013739904359679113582393128467629139777272939682007 -0.091758381571660635467324595992977265268564224243164 0.35743079953494993894480558083159849047660827636719 -0.075718746351761706536720453186717350035905838012695 0.17363152018110797336625239495333516970276832580566 -0.015016590025500141727943237413001043023541569709778 0.059969567827289391170886290183261735364794731140137 -0.39255640343150849380648992337228264659643173217773 -0.25886474231461586992253387506934814155101776123047 0.036234070851594205042722762755147414281964302062988 0.006677254280005470721270910416933475062251091003418 -0.14651763571601933433541375961794983595609664916992 0.033750055654584179554156264657649444416165351867676 0.20349532437995790368212567500449949875473976135254 -0.10219941598261368664868342648333054967224597930908 0.32417600478871272384751023309945594519376754760742 0.067779051441359011720422245161898899823427200317383 -0.0019760025833117839978714247450852781184948980808258 -0.099931844598646762944937904649123083800077438354492 -0.11792429211295868407560760715568903833627700805664 -0.029605252207922930912653569635040184948593378067017 0.019509520184482889715305020672531099990010261535645 0.0066776422429944901071330320974084315821528434753418 0.00084624459346821013280143253254550472775008529424667 0.32783841430092119928474403423024341464042663574219 -0.0614724971425201424657380755434132879599928855896 -0.06222584244175651674302329752208606805652379989624 -0.0083690919872584038780027881898604391608387231826782 -0.40321986567475642804225799409323371946811676025391 -0.089242693434727793366789683204842731356620788574219 
-0.068050408003824502944922869573929347097873687744141 0.00024792697539354098534847281598558765836060047149658 0.084506857222206632762606659525772556662559509277344 -0.0034297628079357502482726882675478918827138841152191 0.051460024484273857170446575537425815127789974212646 -0.035347190762060179403114545948483282700181007385254 -0.014854771892752234238588293635530135361477732658386 -0.089753658503538308321978433923504780977964401245117 -0.051368054822447870022550375779246678575873374938965 0.035760206204586045264370852692081825807690620422363 -0.0063979138116046661496905123556189209921285510063171 -0.078395446888396919105090887569531332701444625854492 0.026350218130280513711971579482451488729566335678101 0.013428369648710148862025270943831856129691004753113 -0.063498838846858876583389985626126872375607490539551 0.04318065255315611111752716055889322888106107711792 0.016950222867076442795353230508226261008530855178833 0.017720217345192561947397891231048561166971921920776 0.0045768941816883967205198402439236815553158521652222 -0.0078028148555637716690669414276726456591859459877014 0.028894391149231337528879848264296015258878469467163 0.011863112099413351124832516347851196769624948501587 -0.01542293110194620751884908571582855074666440486908 -0.022692915469951120688296697380792465992271900177002 0.11094470459438357523573870366817573085427284240723 0.0055052762153851133100634918093874148325994610786438 0.033980711204195615526835183572984533384442329406738 0.042446435990673707372433653972620959393680095672607 -0.09093392383306905801809705280902562662959098815918 -0.059337946919033809911603327691409504041075706481934 
-0.051989647801797163328973994111947831697762012481689 -0.032377933590810814568072828478761948645114898681641 0.03208419917327349352165200002673373091965913772583 0.031332450499166671076256562855633092112839221954346 0.03146501137160161165606808708616881631314754486084 -0.035469469685554450011366611761332023888826370239258 0.0053950882573820507087658526756968058180063962936401 0.0054726228625220554174779508116444048937410116195679 -0.067151912958290052579890527795214438810944557189941 -0.020696278508151314673435550162139406893402338027954 0.042791795080959336983195129278101376257836818695068 -0.0039584125781730403886848890238070453051477670669556 0.038552561631380606599339699869233299978077411651611 -0.0071955233540549907306216326219328038860112428665161 -0.016965519897207702315622412925222306512296199798584 0.0277817538497538325803493108878683415241539478302 -0.086804531369748319513668377567228162661194801330566 -0.037310395476118862756464977792347781360149383544922 0.0220609237214279829686347511596977710723876953125 -0.049100280202254625860902592648926656693220138549805 0.030855759833878792369743493395617406349629163742065 0.053191980902781113571542448426043847575783729553223 0.012727445772790025105281053185990458587184548377991 0.015984293688883533662847824530217621941119432449341 0.016601647965611334573088342381197435315698385238647 0.031122912476192473446579001006284670438617467880249 0.0023287363934362580522585695064208266558125615119934 0.024618339151087069438528232012686203233897686004639 0.024517667447002806230260674169585399795323610305786 0.041388469422909045236647074261782108806073665618896 
-0.04701406920882069545575276947602105792611837387085 0.017207671096276650618550618787594430614262819290161 -0.018710304455694205111315753242706705350428819656372 0.013353338724095357645249571021395240677520632743835 0.01826926155039322943740565108328155474737286567688 0.0099918749667518690776857326341087173204869031906128 0.011263105239412932873088735163946694228798151016235 -0.023737001295514884025017465773998992517590522766113 0.0074644972230430107693055497009027021704241633415222 0.04484858802092027418861874821232049725949764251709 0.038965635027249728716824961338716093450784683227539 -0.020895630380355634247990792573546059429645538330078 0.032811536443611774571671446665277471765875816345215 0.036421279229646982833479285091016208752989768981934 -0.037889197083039685698402365687798010185360908508301 0.052111950627564740390340602971264161169528961181641 -0.067741582754776444308397742588567780330777168273926 -0.029338897631392673454042707703592895995825529098511 0.054474636104176868411919087975547881796956062316895 -0.024107938959082926555499426513051730580627918243408 -0.031027721734417722243559722983263782225549221038818 -0.0083138809349840234186324039455939782783389091491699 -0.023201714747335077521084301110931846778839826583862 0.042898110148448825862388389396073762327432632446289 -0.011755770245175430760431467547277861740440130233765 0.014281342948001450599004868990959948860108852386475 -0.036703477926520358676221178484411211684346199035645 -0.0055995413812864672231661700152471894398331642150879 0.02898788185933025285390129965890082530677318572998 -0.014732796300751672957662918861387879587709903717041 
0.011864018202414026992297380047602928243577480316162 -0.047023610749321730073457814569337642751634120941162 -0.022875164859510611903292698343648226000368595123291 0.0070543219892973555232296156702886946732178330421448 0.048575710369262461996164859101554611697793006896973 -0.026185753287077340178967688189004547894001007080078 -0.023072291709590249386696569899868336506187915802002 0.02922346987805976570307109341229079291224479675293 -0.031483281711076512021652007433658582158386707305908 0.0017312825996865903194904534601050727360416203737259 -0.050939321114736230144970363653555978089570999145508 -0.036294106304578147015327260760386707261204719543457 0.03011824141432501225623674656617367872968316078186 0.00010895118589324415136771612155897059892595279961824 0.0054682162132132505760750973422545939683914184570312 0.060958258862047184911681085850432282313704490661621 -0.022571277283515701200800052106387738604098558425903 -0.02259813221292629112357808196520636556670069694519 0.011745853337809503136313082904962357133626937866211 0.0053697595339060426311572626900670002214610576629639 0.015661004031613728199046065014954365324229001998901 0.0016829483486391024794903703565296382294036448001862 -0.028117567488509163237120347389463859144598245620728 -0.023064570298902117850836646084644598886370658874512 0.0067467912179890896992584536917547666234895586967468 0.055176216659096118111182960319638368673622608184814 0.039393505124146702134346753609861480072140693664551 -0.037510230669138555636976661844528280198574066162109 0.037326656768080390680353275456582196056842803955078 0.028324017608696940018209176059826859273016452789307 
0.020982098829748208751455607057323504704982042312622 0.054591860448105600234214307420188561081886291503906 0.063249943867695501698023008430027402937412261962891 0.0015405446185391936334690976551087260304484516382217 0.0050560339799157116499883635185597086092457175254822 0.029989960834407865253314895426228758879005908966064 0.077514980860484847258184970542060909792780876159668 0.064124898773098987225793621291813906282186508178711 -0.00041711989698700537194941961871563762542791664600372 0.011476050960965641922761903970240382477641105651855 -0.022940242166409961777073789335190667770802974700928 -0.040924459542615462814829641047253971919417381286621 -0.0021646451108290579341819626080223315511830151081085 -0.011627593900098289608768808989225362893193960189819 0.015751389540092079755151388553713331930339336395264 0.038130486715765257721422187842108542099595069885254 0.037581024702199906928345995993367978371679782867432 0.049094872489265459214458076075970893725752830505371 -0.0057312257872462581478889553920907928841188549995422 -0.13741708737800015227570327169814845547080039978027 0.044322424584406161507388333120616152882575988769531 -0.01675188266916461873878851918107102392241358757019 0.013839097531949473909862469156450970331206917762756 -0.019824226143293557922397951642778934910893440246582 -0.011953616725436424714223981879968050634488463401794 0.042080509785538781908353911376252654008567333221436 0.035832083933395139641042703715356765314936637878418 0.0494604039156971708734999992884695529937744140625 -0.031150458158552905840732449860297492705285549163818 0.010873844265694394134458278244892426300793886184692 
-0.012913315607737649998165707643238420132547616958618 0.043476012283758934395816453388761146925389766693115 0.10220039899244617864759732128732139244675636291504 -0.071423860575691985874691170010919449850916862487793 0.096384996348249235564864534353546332567930221557617 0.078927478744542742261636192324658622965216636657715 0.0070657150089059664321844422829599352553486824035645 -0.13448811749041233998269717631046660244464874267578 0.018926927010204337015197850746517360676079988479614 0.039312615797608363443771395395742729306221008300781 0.023505755524178988113970234508087742142379283905029 -0.056231871983604291009850584259766037575900554656982 0.046797396370941171661606006182410055771470069885254 0.014472729198883366522054849667711096117272973060608 -0.047488527783826617323370555823203176259994506835938 0.14105798644516831519268862393801100552082061767578 0.0024372793971024538789427182905455993022769689559937 0.011274700076187617325818024482941837050020694732666 -0.060565264161765851314012110151452361606061458587646 -0.11691099963163657793341343449355917982757091522217 0.012196400557071813627874057317512779263779520988464 0.079632705107250040255095768770843278616666793823242 -0.030229995931334335129703205780060670804232358932495 -0.025254156187999879379368906029412755742669105529785 0.20216944159037730788242015478317625820636749267578 0.049257476007059444733648945202730828896164894104004 0.00010189572674348093192769199033520521879836451262236 0.057712150910307277729138775157480267807841300964355 -0.13080273330418473731739936738449614495038986206055 0.0021536566373026402344825758206070531741715967655182 
-0.012212446294809737451503295346810773480683565139771 0.029749537759094307753926500481611583381891250610352 0.073340938382212228496825900947442278265953063964844 -0.077799619012640763848764891008613631129264831542969 0.038140508232171396740817215231800219044089317321777 0.10826349320746664339765175100183114409446716308594 0.024487461123763831077893016185953456442803144454956 -0.021948426103042494722528132911065767984837293624878 0.032222305047178996517676097255389322526752948760986 0.11256107549013077973043550628062803298234939575195 -0.048307817526933201357497438266364042647182941436768 -0.020350896889926105293167069021365023218095302581787 0.082090072704613520349070654447132255882024765014648 -0.0085122531996763822065288351836898073088377714157104 0.034726220255725200047880463216642965562641620635986 0.15231811162347855259646678405260900035500526428223 0.013554215584986990805749229593857307918369770050049 0.011171643600602782983588490139936766354367136955261 -0.025117807766660813634240767555638740304857492446899 -0.022716205879284662172423736592463683336973190307617 0.0075050010113476995493586585439516056794673204421997 0.087712016459125588530021389033208834007382392883301 -0.012483096084631188291136361101507645798847079277039 -0.027486895725234886805887768446154950652271509170532 0.10393534027263905128446452863499871455132961273193 0.071848439198321054077744918231474002823233604431152 -0.0059482858716001707141685095336924860021099448204041 0.058243247572534469214122765379215707071125507354736 -0.054360779638506939726028122095158323645591735839844 0.036176796136527571146057624673630925826728343963623 
-0.059930976464304126782867143674593535251915454864502 -0.042934106349425849025180923490552231669425964355469 -0.0099772544069185384318920739588065771386027336120605 0.018915702018009739049375639297068119049072265625 0.033693627071272359840836685407339246012270450592041 0.045891744639478745937388737274886807426810264587402 -0.018561054351980986465431300302952877245843410491943 0.014762860364729927728499880856816162122413516044617 -0.05176481524514296023165016435996221844106912612915 0.034055818015728996084323654258696478791534900665283 -0.012918122004319819440265604271189658902585506439209 -0.0024734362447575517635067754440569842699915170669556 -0.02197735808354189454560945193861698498949408531189 -0.010761802869811293303925481268379371613264083862305 0.041392031043648074006835457794295507483184337615967 -0.017436502411418062369330428396096976939588785171509 0.0045756574701941495758594768972216115798801183700562 0.0089968908702884597961002555166487582027912139892578 -0.035478155333641847590797624434344470500946044921875 0.0054529570788948598589196414820889913244172930717468 -0.010626389824617258131334018855795875424519181251526 -0.044731375685152292842605703526714933104813098907471 0.0069917973210188383639818177073266269871965050697327 -0.039035771476139465019361551867405069060623645782471 -0.011383932749279027096811489627725677564740180969238 0.045491795198109169495737091892806347459554672241211 0.026297931043042704901679940121539402753114700317383 0.0035769117400646513807438431342689000302925705909729 0.020826188878605930016041369867707544472068548202515 -0.029872593452784076961670223226974485442042350769043 
-0.008063634267817415893220278633179987082257866859436 -0.02298511096309568610407403355111455311998724937439 0.045789621707004735107204851374262943863868713378906 0.027937652695163992661031571174135024193674325942993 0.051602185168562193784413949515510466881096363067627 -0.03954212740669024728212832542340038344264030456543 -0.028314322040846117561896377878838393371552228927612 0.024322725812173370124602556074933090712875127792358 0.0044855169804771458097469860604178393259644508361816 -0.0072404038993056658163327554689203680027276277542114 -0.010054515000832157239907260759537166450172662734985 0.046066993159387885359290493170192348770797252655029 0.036459122392109348520516931557722273282706737518311 -0.03313079136363640542217723350404412485659122467041 0.0029962321354288540438404186971865783561952412128448 0.046087629090061581205173268926955643109977245330811 -0.011317811295508651073249417606803035596385598182678 0.0087987303591687271442367546114837750792503356933594 0.0039845537866087946468618419260110385948792099952698 0.038832725357339677174639547274637152440845966339111 0.018048004270319807640365894485512399114668369293213 0.00013299446353102730355652538740685031370958313345909 -0.011211334594451170462714451048213959438726305961609 -0.022664848268017536575547055122115125413984060287476 -0.015050377673322130889221881488992949016392230987549 0.038870722787028570699430218837733264081180095672607 0.022668627232978195984447467026257072575390338897705 0.017584079762359209470057308521973027382045984268188 0.02582465339323501696267015859120874665677547454834 -0.009885833509164651533573930919374106451869010925293 
-0.0071376132858032214842380902553031774004921317100525 0.035499522904563186875837033085190341807901859283447 0.012222709426244983757503526078380673425272107124329 0.023673869625770008889853457390017865691334009170532 -0.0082294766134766612897255555481024202890694141387939 0.0011738063964247106608917992076612790697254240512848 -0.058606382776467486062088596554531250149011611938477 0.0049522828170821585683225585228228737832978367805481 0.019230103914214653759717776893012342043220996856689 0.022437517201741405403758733427821425721049308776855 -0.01121001236886068168352448282121258671395480632782 -0.024824838905482152912052029591905011329799890518188 0.012763238656097819836987561359364917734637856483459 -0.02553813335779970064565169707293534884229302406311 0.043323457788149589975379427642110385932028293609619 -0.0028472465449882896314226510270373182720504701137543 0.011022979712166111262994228070510871475562453269958 -0.010585488359550325812574733674864546628668904304504 0.001959763678428825487559672424708878679666668176651 0.030080460284478104104888274150653160177171230316162 0.031727380078749319036734988230818998999893665313721 -0.020185817944251425309909464544944057706743478775024 -0.031850930196780084802110621922111022286117076873779 0.0028805593497367686095511629673637798987329006195068 -0.042477522147595307699941002965715597383677959442139 0.0067759920483501856133812246696379588684067130088806 0.031608802188857781922948220199032220989465713500977 0.032121061876817964819696982203822699375450611114502 0.017075615986439841853528065485079423524439334869385 -0.035828871833798001111937026053055888041853904724121 
0.018303158769357535939903414146101567894220352172852 -0.037069716473566341474743524031509878113865852355957 0.042970943569820715945972722238366259261965751647949 -0.021536554746517486136347940828272840008139610290527 -0.044284967925470541949550806748447939753532409667969 0.018993450669974466793465950331665226258337497711182 -0.020437931037626769215087563225097255781292915344238 -0.046158574811822970784813691125236800871789455413818 0.02499481351246094634754868479831202421337366104126 -0.042502370870404315716939436242682859301567077636719 -0.032450725982647983525186674569340539164841175079346 -0.033011087430030443268247353216793271712958812713623 0.033907226150624865390614814941727672703564167022705 0.027445198814327283198810647490972769446671009063721 0.037652949947192856927635773445217637345194816589355 0.022845448662327075967093392705464793834835290908813 0.023252561885861000590125513554085046052932739257812 0.0079480877902760177500240956760535482317209243774414 0.013162920522242996940187609311578853521496057510376 -0.022196456304536114900738397182067274115979671478271 -0.01674772098875366641013151536299119470641016960144 0.049187337204597947337703089942806400358676910400391 0.043356847634837179794597972204428515397012233734131 -0.028164770650108986171922254015953512862324714660645 -0.0076294624748051240864521460594005475286394357681274 0.0039943487884940816548540176711412641452625393867493 -0.023076516718980338849220856900501530617475509643555 0.027002795615193926626051990069754538126289844512939 0.031091803847369609697937065106998488772660493850708 0.044529857226955682492075538903009146451950073242188 
0.035991431621440354848839859869258361868560314178467 -0.0010030721456282705450480108311239746399223804473877 -0.043999675793478347507470260779882664792239665985107 -0.018840180502733294004569231105961080174893140792847 -0.02025776472227221181032774666164186783134937286377 0.0099998701173705135947233912929732468910515308380127 0.049235875921353450257456074723450001329183578491211 0.0109267019682884672371336876040004426613450050354 0.013020636014632110122324348822075990028679370880127 -0.024969587605787452871952680766298726666718721389771 -0.029869132995111138950683482562453718855977058410645 0.031001239529975091469005121780355693772435188293457 -0.0080001041432058665053839163761040254030376672744751 -0.046956983788298635451585738564972416497766971588135 -0.038997795013626164462028356183509458787739276885986 0.031014283679069810928385919623906374908983707427979 -0.022922767868352730141756623538640269543975591659546 0.033999867215006279730360461144300643354654312133789 0.039991740066082102911249052112907520495355129241943 -0.00915058632920295877966054831631481647491455078125 -0.040937484949319674631951215815206523984670639038086 -0.026108060930434860008597652836215274874120950698853 -0.010638804669871722297092020426134695298969745635986 0.0077639682904935992252548615510931995231658220291138 0.043953034699406451357717173777928110212087631225586 -0.018000000347380036569422401271367562003433704376221 -0.038998817351213632687034760238020680844783782958984 -0.029186912172260146003388570079550845548510551452637 -0.0440060263439993257228444178963400190696120262146 0.040950677506851572429180663448278210125863552093506 
-0.036000117254683772216594661585986614227294921875 0.042000138786905415189121271168914972804486751556396 -0.010998185712162718286055707039849949069321155548096 0.020999999968536863653723045786136935930699110031128 -0.028000001352564234807784870895375206600874662399292 0.017999800237268492875131187247461639344692230224609 -0.020000000002537914739475510828015103470534086227417 0.021999994271003197460201405988300393801182508468628 0.03100069723481730168956893578524613985791802406311 -0.0059999999849215408104230462527084455359727144241333 0.046003929084574020358378021455791895277798175811768 0.049999996624915180043480233962327474728226661682129 -0.025000540344078687332585175795429677236825227737427 0.0390000000012999947784919640980660915374755859375 0.0050000298649824680488618078300078195752575993537903 0.036999628009774611359095075613367953337728977203369 0.019999999999877865475284011154144536703824996948242 -0.017000000725238238741265917042255750857293605804443 0.019999982892611678497729599257581867277622222900391 -0.039008161363699993262610377087185042910277843475342 0.023999999978089010116422130636237852741032838821411 -0.019009901661879456680193101192344329319894313812256 -0.016000544413121240566733050059156084898859262466431 0.013999999984344145206871523612335295183584094047546 0.038000047119221287694745825547215645201504230499268 0.029999865098587059214496619574674696195870637893677 0.044995307583456024824730690170326852239668369293213 -5.1502450706216014092005210092337086358327269408619e-08 0.049999799347547863037632964733347762376070022583008 0.0019999429243322854043984904137687408365309238433838 
-0.0099082511127499429265386154952466313261538743972778 0.014952416759942830509766409363692218903452157974243 -0.0070293758846783705243610462787273718276992440223694 -0.01942535080659100327205024427712487522512674331665 0.036661172463459006098940307083466905169188976287842 -0.033953814777039438566053064505467773415148258209229 -0.00012578819998380373688766364903557359866681508719921 -0.033974396711250604008469622385746333748102188110352 0.037582027567792608557795119850197806954383850097656 0.032250459209124150705694233920439728535711765289307 -0.037620155753992558234077847600929089821875095367432 -0.015013032047746111691255421760615718085318803787231 -0.015999546075816478002407095004855364095419645309448 0.038038998423033952567262616639709449373185634613037 -0.026851096682849358299183251119757187552750110626221 0.037994390596230658008192193619834142737090587615967 0.023791566958524062308510949037554382812231779098511 -0.0060417360095418280729884230595416738651692867279053 -0.029675877708688326583885697118603275157511234283447 -0.006982241090077679832037738094641099451109766960144 0.0046875885726538994713319397078521433286368846893311 -0.0047609463795663491125775834689193288795650005340576 -0.024997903904898921556565483115264214575290679931641 -0.010013059982604179815046663293287565466016530990601 0.01015544717353560055794758909541997127234935760498 0.014307965428987951678196921534436114598065614700317 -0.03107571266025347528350053494250460062175989151001 0.0040503244299819199727985541414909675950184464454651 -0.036859288071991805346705461943201953545212745666504 0.019985121238515396457913197991729248315095901489258 
-0.044100183388281304075473343573321471922099590301514 -0.045242590746451545602457855466127512045204639434814 -0.016605412941169257062812292247144796419888734817505 0.05496586033780978541862793917971430346369743347168 -0.01395809792457060674597535410157433943822979927063 -0.029792012465124757814027844915472087450325489044189 -0.031283831978150170027852539078594418242573738098145 -0.014017750953426640417309734232276241527870297431946 0.033695589945552509303361432557721855118870735168457 0.00053811420931053203283583874494411247724201530218124 0.017091114031830688391178085794308572076261043548584 0.00089106448196690248280543711345558222092222422361374 0.037740457484115981501293646260819514282047748565674 -0.047529722247707684168460673390654847025871276855469 -0.011826972423951509147399541177492210408672690391541 0.012948068120957492363465313189863081788644194602966 0.041997421573694536378607011783969937823712825775146 -0.038809689282954813738246713228363660164177417755127 -0.045224321181904274247198571856642956845462322235107 0.013226957190389913160410984005466161761432886123657 -0.042220248963323499247213277385526453144848346710205 -0.039939504782921096681658212901311344467103481292725 0.0082808109612928816611887583576390170492231845855713 -0.019969044559968302660069028320322104264050722122192 -0.045963279942540069544776315524359233677387237548828 -0.034491626573273800882013517821178538724780082702637 0.044322051653711697083437570654496084898710250854492 -0.028249358588380943380080623228423064574599266052246 -0.027771736701828562271510136838514881674200296401978 -0.04402860196511513418693439803064393345266580581665 
-0.018671897191144929545325581443648843560367822647095 0.038466079320331081348172119760420173406600952148438 0.009934708981441104161391741911302233347669243812561 -0.02274374498120426690839224193041445687413215637207 0.058402678872432070567022321938566165044903755187988 -0.0068521482550702077565785153012711816700175404548645 -0.062359787458658673398037564084006589837372303009033 0.0073115819512042014988173477263444510754197835922241 0.010506036918874420843517114576570747885853052139282 0.03666045838843043358501461170817492529749870300293 0.033688683310878049514958121335439500398933887481689 0.0043687593795770467142158821616249042563140392303467 0.04817263622707743803141866578698682133108377456665 0.03227267792993256112499267374005285091698169708252 -0.014255683181081023336300717119229375384747982025146 -0.02336027394821888619746985682468221057206392288208 -0.0045633257982833118696075480613671970786526799201965 0.047723238788651305142263225889109889976680278778076 -0.025511095662328588801193163249081408139318227767944 -0.039525507026604435323324793216670514084398746490479 -0.0348357202045601610507219447754323482513427734375 0.062836526246630511338686631006567040458321571350098 -0.037694145516617351410193492711186991073191165924072 0.016929445040193634441916259447680204175412654876709 -0.044190683575495395829513256558129796758294105529785 -0.047536395097160337452901757160361739806830883026123 0.035918121424817574249832574651009053923189640045166 0.013757510934372751618126606842906767269596457481384 0.040148408571695853863658953741833101958036422729492 0.0090673129918593924764236291480301588308066129684448 
-0.037095752082512853387008533445623470470309257507324 -0.0084210461938335808701472373627439083065837621688843 -0.019033007477016944397618658513238187879323959350586 0.10128362852755516676506175599570269696414470672607 0.0049166095956881513198699629185739468084648251533508 -0.031015229928103155154772707646770868450403213500977 -0.012117843092238919297520816087398998206481337547302 -0.24046869047496535753971613758039893582463264465332 -0.20681849633230181551013515672821085900068283081055 0.08717312419518734312173791067834827117621898651123 -0.069057139200712422399952572504844283685088157653809 -0.035802168079896223851221748191164806485176086425781 -0.01851742111659422651559481209915247745811939239502 0.038496917898764436427594404221963486634194850921631 0.013614411585459243458906541945907520130276679992676 -0.0099329826427466405558419637600309215486049652099609 0.13046273164984378833963774013682268559932708740234 0.050309439611705225603444091575511265546083450317383 -0.21186184467025684363683524225052678957581520080566 0.010016605245902469867314010798509116284549236297607 0.0071974051373199232628508070774842053651809692382812 0.08111045118522731967036776268287212587893009185791 0.049051614902914091043140132342159631662070751190186 0.037923857100348866422390159414135268889367580413818 -0.034465267753780372272931487032110453583300113677979 -0.078676200842461407880534807190997526049613952636719 0.075053442308061574239630431293335277587175369262695 0.021354364047944201371320716020818508695811033248901 -0.048909459741364853802014778239026782102882862091064 0.039604281551013247042458687019461649470031261444092 
0.057549094401333149295663105249332147650420665740967 -0.1898101284722361614676344743202207610011100769043 0.29180948539646567319039149879245087504386901855469 0.21670667506953600334185239262296818196773529052734 -0.35302412683596806619590324771706946194171905517578 0.059964418051055283498396164532096008770167827606201 0.32548260201431172822239545894262846559286117553711 -0.76724625131837476121887675617472268640995025634766 -0.79440624696701334084281143077532760798931121826172 0.11002069555046661841757327238155994564294815063477 -0.080393868360173967313464515882515115663409233093262 0.0092119138991437633096071024851880792994052171707153 -0.41779523656601696979251414632017258554697036743164 0.55917904367727844228141975690959952771663665771484 0.077463300275967608699012600936839589849114418029785 -0.109948260364391522947435930745996301993727684021 0.84907818538071111458265249893884174525737762451172 -0.0084954266063578288969981855416335747577250003814697 -0.41519993249581238492496026992739643901586532592773 -0.070444602363543759593333959401206811890006065368652 0.27788402884966828532142812946403864771127700805664 0.23074449684173101160489238736772676929831504821777 0.21650393497694811473230913634324679151177406311035 -0.18376943598114212075067541718453867360949516296387 -0.041936677343920022997814101017866050824522972106934 -0.14733763556410559014686612044897628948092460632324 0.37827218209356688882749608637823257595300674438477 0.0013154492349755589775811559505314107809681445360184 -0.13288545970421042352604956704453798010945320129395 -0.16550944833800090849607045129232574254274368286133 
0.032227505461981616197153499570049461908638477325439 -0.29410702921065534631850368896266445517539978027344 0.4937323027344593384668769431300461292266845703125 0.14420552001069794623155928547930670902132987976074 0.41054335911267469949592623379430733621120452880859 -0.06571781662511792798664345127690467052161693572998 0.2697764251699393267536208895762683823704719543457 -0.22825127939856426628750796226086094975471496582031 -0.83638090812291443487680453472421504557132720947266 0.20641232690663538495989826060394989326596260070801 -0.2611811630431610242730755544471321627497673034668 -0.045679209066148182549760292658902471885085105895996 -0.61601634677670424888873412783141247928142547607422 0.71822748776310685325796612232807092368602752685547 0.079757885675962425509055719885509461164474487304688 0.038667000843833593259901704186631832271814346313477 0.63405388910431137450274263756000436842441558837891 -0.015333510282421795867247027445046114735305309295654 -0.55741662405599134988420928493724204599857330322266 -0.20315742289242319507103218256816035136580467224121 0.12341203696421004787353581377828959375619888305664 0.015401211624643910969023608004135894589126110076904 0.11684110886065669776545661306954571045935153961182 -0.34292999133754220597580797402770258486270904541016 -0.02512405825767448364072009781011729501187801361084 -0.035528457205040220312497467602952383458614349365234 0.43293560126106095387044092603900935500860214233398 -0.042049023992278652950282946676452411338686943054199 -0.044566409334660099517133602375906775705516338348389 -0.28787501576433754957307087352091912180185317993164 
-0.092967232831431989570347695917007513344287872314453 -0.17192556838182135314774257039971416816115379333496 0.94648384941311003437647286773426458239555358886719 -0.0016689391674512249041234523971866110514383763074875 0.85093538444444638546571013648645021021366119384766 0.00069660062383847221826466133975941374956164509057999 0.13289964357793423999076765085192164406180381774902 -0.91709696611016566780705261408002115786075592041016 -0.86238060483129852507033774600131437182426452636719 0.48597653061018858400288422672019805759191513061523 -0.26128778588806350624551555483776610344648361206055 -0.16856131807637272923550142422755016013979911804199 0.0016395643858510952541734928544769900327082723379135 0.71898339553129775314488369986065663397312164306641 -0.0042572342405093038103514047065800696145743131637573 1.1362859396712676751661774687818251550197601318359 0.017914534977431152695803717733724624849855899810791 -0.041751747463936693394170873716575442813336849212646 -0.57113460062937071448629922088002786040306091308594 -0.10254269110497915562518755905330181121826171875 0.063223660764908221065816462669317843392491340637207 -0.17882903507269079512731480008369544520974159240723 0.061929388705027392514335105033751460723578929901123 -0.10082839893717419899044074327321141026914119720459 0.92593496097904659514199465775163844227790832519531 -0.19709550500511366366573895447800168767571449279785 0.11098085404431841383132706368996878154575824737549 -0.027130684744660300833363208994342130608856678009033 -0.72884014562600785147594706359086558222770690917969 -0.51744364485761784600015289470320567488670349121094 
-0.1068887652703651158780928653868613764643669128418 -0.061679186501986317525680902917883940972387790679932 0.54398679008216632713157423495431430637836456298828 -0.14135422961015983722710132042266195639967918395996 0.55529563687654381887170984555268660187721252441406 -0.037163878033214282903262670743060880340635776519775 -0.26771511778765583189354515525337774306535720825195 -0.71437371514588221543817780911922454833984375 -0.03266299398905005146875879518120200373232364654541 0.12616752823855248433204678804031573235988616943359 -0.35539623447198320782547398266615346074104309082031 -0.19115177529602925265983515146217541769146919250488 0.14546527660167735129803645577339921146631240844727 0.12670868687219505321905899108969606459140777587891 0.087098865292636051815833297951030544936656951904297 1.1298637373340392198173276483430527150630950927734 -0.02273450942016855963467847345782502088695764541626 -0.057806735378068622999148118424272979609668254852295 -0.47494512071702044142540444227051921188831329345703 -0.030628689633315001744628958135763241443783044815063 -0.058090833648094294949792981697100913152098655700684 -0.1410356222498002354281965153859346173703670501709 0.099395268582779652821734828194166766479611396789551 -0.023478663622030309515720247759418271016329526901245 0.83787404462294190476967514769057743251323699951172 -0.28844346502860623848718546469171997159719467163086 0.0045528548328696060235043496788875927450135350227356 0.01407459580152398657959533778694094507955014705658 -0.43851760028145558845125151492538861930370330810547 -0.53103301332326990902288343932013958692550659179688 
0.10914566037000954235036687123283627443015575408936 0.23980735726827395737359438498970121145248413085938 -0.174101820326715284181773313321173191070556640625 0.059694714584579269822661728994717122986912727355957 0.3371372168971554228456000146252335980534553527832 0.022881119769717531142738664584612706676125526428223 -0.20772088242551398074020596595801180228590965270996 0.18857796484299038652920899039600044488906860351562 0.39225728035626050704820499959168955683708190917969 -0.20943801677091244961559368675807490944862365722656 -0.122126295390398972862122661808825796470046043396 0.056722037833588812016927249715081416070461273193359 0.035876476053038702795916492505057249218225479125977 -0.27113071425841178685445242990681435912847518920898 0.034717712787957676068284484927062294445931911468506 -0.29111271984277037327970560909307096153497695922852 -0.0079600785969756605170433161333676252979785203933716 0.0085970107679920002713425120077772589866071939468384 -0.51660153928511332033224334736587479710578918457031 -0.067748758226935615334163287570845568552613258361816 0.071461738931986124034878571364970412105321884155273 -0.070958657480236650427762867821002146229147911071777 0.053173620638091258217006185304853715933859348297119 0.015659433023253937350416364893135323654860258102417 0.14046570080647574618737394303025212138891220092773 -0.21617732721438870369112805747136007994413375854492 0.11561516924526082927826564628048799932003021240234 0.0034584186342768957582449740328911502729170024394989 0.39145347425146936881645842731813900172710418701172 -0.32520872823302721110749757826852146536111831665039 
0.11298238021174490663955936042839311994612216949463 0.33821722834602985230390004289802163839340209960938 -0.19107588575584757983882866483327234163880348205566 0.047057997803521607604881893394122016616165637969971 0.17279704232807530095428205640928354114294052124023 0.023532511577534723917759507116898021195083856582642 -0.2533405736293207755061018815467832610011100769043 0.28094423874141921659841614200558979064226150512695 0.36406515305263004167457552284759003669023513793945 -0.11861366829838516923079083653647103346884250640869 0.034630247336354461062946086258307332172989845275879 -0.0054019384057374846344612429049902857514098286628723 -0.025126823463940357872292707952510681934654712677002 -0.20372318978923284471527210826025111600756645202637 -0.1759778036173479109915973594979732297360897064209 -0.75553614475891262003415249637328088283538818359375 -0.038744132116428291190413091271693701855838298797607 0.014026716289317897601307549848570488393306732177734 -0.39535810609434973716957983924658037722110748291016 -0.035099158519772175046647078033856814727187156677246 0.0014636749233428159294029269332781950652133673429489 -0.0049058069863533049909110062003492203075438737869263 -0.00018788265717935664325839717481159141243551857769489 -0.12980584307798542775813643856963608413934707641602 -0.14379741099447604368855024858930846676230430603027 -0.16219577036551738324909877064783358946442604064941 0.044639357871383331111125869483657879754900932312012 0.049977843526570024657029733816671068780124187469482 0.48462166581237453577557516837259754538536071777344 -0.18031784393606931082842947944300249218940734863281 
0.24036816187711712577979028537811245769262313842773 0.005114908374743935143280637589668913278728723526001 -0.070692707331481363652869731595274060964584350585938 0.082050122734172586946854721645649988204240798950195 -0.26894559149318258972627404546074103564023971557617 -0.0053631720270668047784168308567132044117897748947144 -0.34440870370828169377830363373504951596260070800781 -0.3612759047689426128435741247812984511256217956543 0.34527694371303946363482850756554398685693740844727 0.24150264956671185778702692914521321654319763183594 0.069201050981719261501190487706480780616402626037598 0.10168402676292305486516198698154767043888568878174 0.025510313001078994271653144210176833439618349075317 -0.062643294530899507055465846860897727310657501220703 -0.33121772051088116395334282060503028333187103271484 -0.11454079502123504230581829688162542879581451416016 -0.24020184772463420985744164681818801909685134887695 -0.026764506855242686106377547616830270271748304367065 0.27671089230371886946713289034960325807332992553711 0.060136570372199750489361491645468049682676792144775 -0.14580818378663318313215313537511974573135375976562 0.11785215768678136694092017933144234120845794677734 -0.13354885368564797798462961964105488732457160949707 -0.051569832485416793044219474495548638515174388885498 0.042312022564619848619127395750183495692908763885498 -0.12464596992256941898613575858689728192985057830811 -0.11192025987760637062429225352389039471745491027832 -0.0025007886283118785364365521672880277037620544433594 0.20905306715095578473651016793155577033758163452148 -0.17811156774249686796096625585050787776708602905273 
0.53006768815680671558254744013538584113121032714844 -0.18732829576722956343992620986682595685124397277832 0.061656412931255746845415899315412389114499092102051 0.28129542850121702635135534364962950348854064941406 -1.0688461813232079666846630061627365648746490478516 0.046243796686756696856512860449583968147635459899902 -0.28413760790960085333978213384398259222507476806641 -0.76840713488234557715372829989064484834671020507812 0.41221596184278053165428445936413481831550598144531 -0.099041925823353388347314307793567422777414321899414 0.19749855213436739997945323921157978475093841552734 0.046985773304874411948617307643871754407882690429688 -0.082789816966801571540557347361755091696977615356445 -0.034654246097075978860768685763105168007314205169678 -0.54506965726247513792657173326006159186363220214844 0.12803423676625511062887596835935255512595176696777 0.087832406662383635809199233790423022583127021789551 -0.031223330101418592802398066510249918792396783828735 0.7161636368530110985375358723104000091552734375 0.11932085666795048950472590831850538961589336395264 -0.15199508659886756811729924265819136053323745727539 0.029878104463074348778883759791824559215456247329712 -0.0502028793453907148935932980293728178367018699646 -0.10577825628901896259925763388309860602021217346191 0.029922961952815622932444483694780501537024974822998 -0.0051011595758040546855216490484963287599384784698486 -0.004235832165820184978810569731422219774685800075531 -0.04458926394128948089701225399039685726165771484375 -0.2453554796639451640594131731631932780146598815918 -0.026319793148854495751232107636496948543936014175415 
1.0428668963787379730945303890621289610862731933594 -0.05811570423531724899346428969693079125136137008667 0.11498992913524208603348597534932196140289306640625 0.76211970379686166943145053664920851588249206542969 -1.1179047954802860953549270561779849231243133544922 0.03129106984609489328086340265144826844334602355957 0.30083536474847838437796099242405034601688385009766 -0.63794609766532517358683662678231485188007354736328 0.25414202298558880022127937081677373498678207397461 -0.3465234190201950670306985102797625586390495300293 0.046395285133917878173104298866746830753982067108154 -0.18112544082815223989157971118402201682329177856445 -0.11299874322294635453634015220814035274088382720947 -0.19039807133708935849014665109280031174421310424805 -0.63151756521626689622195272022509016096591949462891 0.1586351747317167049100561371233197860419750213623 0.69499696542804845211804831706103868782520294189453 0.066389222551903076530166458724124822765588760375977 0.52356414059855049814018457254860550165176391601562 0.066034484324487413564597204640449490398168563842773 0.10107178196240158840613077018133481033146381378174 -0.36726242693440536157822862151078879833221435546875 0.24271885109032492744418618713098112493753433227539 -0.28662574032818571856395806207729037851095199584961 0.0090272069185131920132647564969374798238277435302734 0.11505182531367921794362985110637964680790901184082 0.33128143912611524024569575885834638029336929321289 -0.15348726671853343828111349012033315375447273254395 -0.29720221715794975514413067685381975024938583374023 0.05630369230416583381515494011182454414665699005127 
0.69530000662811797251805501218768768012523651123047 0.09467932147022541100600534491604776121675968170166 0.091309315340256796966755814537464175373315811157227 0.63459636444955713763249605108285322785377502441406 -0.40337875552340463070066789441625587642192840576172 0.094573691372276252886663883145956788212060928344727 0.48670065378809951317506943269108887761831283569336 -0.23572087166907473854138288515969179570674896240234 0.055033294898309444154183012187786516733467578887939 0.012884288282066802891479007087127683917060494422913 0.20160388404246287752386024294537492096424102783203 -0.1066449680574164532442793529298796784132719039917 -0.069323916577246971759684868175099836662411689758301 0.060769996220407969389487590206044842489063739776611 -0.60555443795542529539233100877027027308940887451172 0.098042867349650522634796345755603397265076637268066 0.48376413096524106816076482573407702147960662841797 0.088358752797354070396274039467243710532784461975098 0.2147596788210389406881262175375013612210750579834 0.027264319266394276830567378056002780795097351074219 0.17552013934531623950974221770593430846929550170898 -0.19204674794817708227689934119553072378039360046387 0.31735144622128752533996021156781353056430816650391 -0.2310117548725301728218539665249409154057502746582 -0.45143356772916504171533347289368975907564163208008 0.2308817291370669211314492486053495667874813079834 0.54837349213640496081723085808334872126579284667969 -0.19310080367166873593909315331984544172883033752441 -0.10224067789145646623083507620322052389383316040039 0.11151329542294320662509932162720360793173313140869 
0.34344203155651104042433985341631341725587844848633 -0.066112310540563698491034472226601792499423027038574 0.0038656113694937421602915161855662518064491450786591 0.14489063053018205740052337660017656162381172180176 -0.09950814412846373246956943603436229750514030456543 -0.024401821313641026967022895632908330298960208892822 0.20157579376117248926014724474953254684805870056152 0.021426145945626643568582281318413151893764734268188 -0.005209940233675255071010834484468432492576539516449 0.0087155279972925998877020248301050742156803607940674 0.70176778438448228492063662997679784893989562988281 -0.04037948791902595119251984101538255345076322555542 -0.52503731539400522176919139383244328200817108154297 0.10822323037900691278245801640878198668360710144043 -0.44974651754207489728898394787393044680356979370117 0.073608344416410731447797388682374730706214904785156 0.39467280544968946776052121094835456460714340209961 -0.019378910016354600892585224869435478467494249343872 0.072066918052516554249464775239175651222467422485352 0.020563730884413711219593778878333978354930877685547 0.18914945237718616688482597965048626065254211425781 -0.037699366876665682535296753030706895515322685241699 0.13927693124430870486030187294090865179896354675293 -0.16269069369816896442060283334285486489534378051758 -0.59340130171750782306361315932008437812328338623047 -0.029133187344971077370470169398686266504228115081787 0.32929254093347204435104913500254042446613311767578 -0.11192140644920785252924844144217786379158496856689 0.025712005464402630516840275731738074682652950286865 -0.068797479761439364609465485500550130382180213928223 
0.20800082348468909576588714571698801591992378234863 -0.075154559981054955275503459688479779288172721862793 0.022103402296915992952808238669604179449379444122314 0.14464708995051026030331797755934530869126319885254 -0.12651967710236736164297610685025574639439582824707 0.00058197265348224557456047190129311275086365640163422 0.086997440091458336230978432013216661289334297180176 -0.028561738990713642777352632151632860768586397171021 0.18213630089176863213751289549691136926412582397461 -0.060216300147456131020007319420983549207448959350586 0.23995642882794335215557168794475728645920753479004 0.01850047461713775695524297759675391716882586479187 -0.11186987963199784834600336580479051917791366577148 0.016590850085651549089549305904256470967084169387817 -0.21968633454152350359400713841750985011458396911621 0.020442537401609731789742241403473599348217248916626 0.16556811450583147626858249168435577303171157836914 -0.024704132718535914969848477085179183632135391235352 -0.0051423910424756025250303537177387624979019165039062 0.099756908122891674306487175272195599973201751708984 0.082922306374496226877290894208272220566868782043457 -0.024137450884494288105841519609384704381227493286133 0.12850192948482155874678767304430948570370674133301 -0.087462730535049701408034650285117095336318016052246 -0.19745956382421181452002656442346051335334777832031 0.041902228608240721374755821670987643301486968994141 0.10255490238726377993927485476888250559568405151367 -0.070078805133412885863819496989890467375516891479492 0.0082145264248540753038163586552400374785065650939941 -0.031222591632786733661930611560819670557975769042969 
0.04784138519569063746628145850081637036055326461792 -0.065486706934653554634806482681597117334604263305664 -0.025356078839707581890072773944666550960391759872437 0.34446616031128152179974222235614433884620666503906 -0.23453844266466367107781820777745451778173446655273 -0.0015256587083647607776953902813943386718165129423141 0.088025357929982520066580775619513588026165962219238 0.016327585256744516634119790410295536275953054428101 0.083577273526059772668084235647256718948483467102051 -0.14266889789896378126776710359990829601883888244629 0.046377387553784323037664449884687201119959354400635 0.021965135560256525415478989771145279519259929656982 -0.018251106953463571563878176107209583278745412826538 -0.13187511217416744702113362563977716490626335144043 -0.043870594539007067014235730084692477248609066009521 -0.10119197251245791446816468805991462431848049163818 0.15705882067124074530362065615918254479765892028809 0.041415887257054945225220876636740285903215408325195 -0.0055509145656096820289904236744860099861398339271545 -0.034601455110011995752739011322773876599967479705811 -0.0046066305371816390276662467329060746124014258384705 -0.16574662827352154570448306003527250140905380249023 0.079194253042589049518262811488966690376400947570801 -0.10788143642290064228017598679798538796603679656982 -0.01288686758536117422935252108118220348842442035675 -0.015355277898418397478086383500794909195974469184875 0.027288781037342439705906116387268411926925182342529 -0.040167981140320399568999221173726255074143409729004 -0.0073644864271559017446233674775157851399853825569153 0.034754399067671352951958141375143895857036113739014 
-0.023574526695253884139846789480543520767241716384888 0.015766422915110590158294101570390921551734209060669 -0.03725147307817239933358521852824196685105562210083 0.020137189494527283489810898231553437653928995132446 -0.0033874633047837822592829315482276797411032021045685 -0.033551407769530680602620975605532294139266014099121 0.029474722070578524002470999221259262412786483764648 -0.024181662421263579176855529340173234231770038604736 0.04333343728854439219633221114236221183091402053833 0.038008168084581080148343090741036576218903064727783 -0.027715473836219289144322530660247139167040586471558 -0.019021462841632218176979307600049651227891445159912 0.0041338135381797716516594221047853352501988410949707 0.00032610058225268265773288955955422352417372167110443 -0.045923259651527235936097071089534438215196132659912 0.003765311888721648275052400478557501628529280424118 0.014922344641734683334810540600301465019583702087402 0.046224504742389378730837989905921858735382556915283 0.055064957279858779692904846569945220835506916046143 0.0066040450064179020278620768635846616234630346298218 0.016627118289010957286055969461813219822943210601807 0.022449878284455021537624475058692041784524917602539 -0.017958674807816103063951018725674657616764307022095 0.0083939143788487394215458436974586220458149909973145 -0.048309667671846953651559886111499508842825889587402 0.038666821129832197601050580715309479273855686187744 0.0071450736571396639140729689643194433301687240600586 0.0098481033984888222132525470442487858235836029052734 0.012746653326221631455372751418053667293861508369446 0.031688560729748356525892205581840244121849536895752 
-0.026669594653853861271342040595300204586237668991089 -0.020074224596000344450485997072064492385834455490112 0.047549170911455065913209239170100772753357887268066 -0.0061089271151699214498775880599623633315786719322205 -0.0035698253179591026180983437399163449299521744251251 0.030998721992631664279294056996150175109505653381348 -0.037670575678913208184095395836266106925904750823975 -0.038478757347601963423322501967049902305006980895996 0.0048774236106585953931524812787756673060357570648193 -0.0018881428822141324650601967860552576894406229257584 0.0039343605626564817634438497861992800608277320861816 0.01741403695694256070769512234619469381868839263916 -0.014990430961267094470135141648370336042717099189758 0.0093366046704155877117292661182545998599380254745483 0.032595693727713717646743418754340382292866706848145 -0.0079820382096688520523475318668715772219002246856689 0.024201509966709586901822959248420374933630228042603 -0.047997855624494302484439600675614201463758945465088 -0.011597507913836027637621839403436752036213874816895 0.022703705712125130805612016615668835584074258804321 -0.035839334496920567663114098877485957928001880645752 0.009556363834392468323275515729164908407256007194519 0.047638085073311263462070286323069012723863124847412 -0.025643610756437635461724156016316555906087160110474 0.03517228720609086312087754322419641539454460144043 0.0059478459679408353377727536326347035355865955352783 0.011891791405561858915862494256998616037890315055847 0.042365017820896674893837996478396235033869743347168 0.030503588021308595396030582946877984795719385147095 0.022048701258129719399159185400094429496675729751587 
-0.026002527256351201656592309063853463158011436462402 -0.046013633984731391879385853371786652132868766784668 -0.049034815456812132217212507612202898599207401275635 -0.029000420655031208805318954091490013524889945983887 -0.049023862988701968901317229665437480434775352478027 -0.0069938662014222170715260773476984468288719654083252 0.0029992746719475211862604435708590244757942855358124 -0.03700507892781182417429874931258382275700569152832 -0.044989904198693010661802560434807674027979373931885 -0.042001691879999747403218179897521622478961944580078 0.010027488417851143642778311004803981631994247436523 0.0089984090626898365766761500594839162658900022506714 -0.023991480688066481319342670985861332155764102935791 0.045001849569209988188855930957288364879786968231201 -0.032005205890929221135277060739099397324025630950928 0.0089944648034122123836375806149590061977505683898926 -0.013001280604702826482199640167891629971563816070557 0.040997621383741571221559496507325093261897563934326 0.010993468722585586147544312041191005846485495567322 -0.022964163410230411382917381502011267002671957015991 -0.034999985682868085812291525371620082296431064605713 0.024064980011511079988073547042404243256896734237671 -0.011993178063898157770239549790858291089534759521484 0.015998773414703050532725825405577779747545719146729 -0.00099831348295694767591701435094364569522440433502197 -0.02800447662265880335863421635167469503358006477356 -0.028968237873843095953052539925920427776873111724854 -0.040001912756754624822530530536823789589107036590576 0.014001663162491463990311224563356518046930432319641 -0.049020505327128954808912908447382505983114242553711 
