Dimensions:
2500 30 7
Weights Input To Hidden:
0.012395791709423065185546875 0.011958251707255840301513671875 -0.0059457770548760890960693359375 -0.007958938367664813995361328125 0.0169862397015094757080078125 -0.0293933488428592681884765625 0.0181034840643405914306640625 0.0201549045741558074951171875 0.00165496557019650936126708984375 -0.0106996484100818634033203125 -0.01008147560060024261474609375 -0.005677618086338043212890625 0.0349487327039241790771484375 0.015997059643268585205078125 0.00322197447530925273895263671875 -0.01020205020904541015625 -0.023049779236316680908203125 -0.0007148574222810566425323486328125 0.0194537155330181121826171875 0.00192645168863236904144287109375 -0.01358925364911556243896484375 0.0002337020705454051494598388671875 0.0191312097012996673583984375 -0.012043558992445468902587890625 0.01196728646755218505859375 -0.0062144598923623561859130859375 0.008230236358940601348876953125 -0.0164146125316619873046875 0.00191805395297706127166748046875 -0.008059442043304443359375 
-0.015584520995616912841796875 -0.02290474437177181243896484375 -0.0368033908307552337646484375 -0.0008180853910744190216064453125 -0.009955801069736480712890625 -0.0039295279420912265777587890625 0.02130880765616893768310546875 0.0053059495985507965087890625 -0.01392721571028232574462890625 -0.011351506225764751434326171875 -0.0290813855826854705810546875 0.01804138720035552978515625 0.01565377600491046905517578125 0.00238928641192615032196044921875 0.0222280658781528472900390625 -0.004613767378032207489013671875 -0.008765780366957187652587890625 0.005144723691046237945556640625 -0.00972007028758525848388671875 0.015608732588589191436767578125 -0.012370859272778034210205078125 -0.001649960060603916645050048828125 0.02509924210608005523681640625 0.007156520150601863861083984375 0.0005662725307047367095947265625 0.025235451757907867431640625 0.00781429372727870941162109375 -0.000422600540332496166229248046875 0.009081331081688404083251953125 0.010690086521208286285400390625 
-0.0256020538508892059326171875 -0.013956584036350250244140625 -0.0060083209536969661712646484375 -0.02924451790750026702880859375 -0.02392552234232425689697265625 -0.0352476574480533599853515625 0.00251487665809690952301025390625 -0.00336112990044057369232177734375 -0.012839633040130138397216796875 -0.002922405488789081573486328125 -0.034061431884765625 0.0377750732004642486572265625 0.039045631885528564453125 0.00636853091418743133544921875 -0.00732893310487270355224609375 0.006439992226660251617431640625 -0.0331626273691654205322265625 0.01180410571396350860595703125 0.0162179172039031982421875 0.00854643620550632476806640625 0.0172494463622570037841796875 0.00252417218871414661407470703125 0.02198827266693115234375 0.0068383286707103252410888671875 0.0153981335461139678955078125 0.0301566459238529205322265625 -0.0157444588840007781982421875 -0.005603097379207611083984375 -0.0156781375408172607421875 0.01785385422408580780029296875 
-0.0151746980845928192138671875 0.000162741998792625963687896728515625 -0.00475238263607025146484375 -0.012237966060638427734375 -0.02082797326147556304931640625 -0.025233201682567596435546875 -0.0054596173577010631561279296875 0.01897831447422504425048828125 0.01938253082334995269775390625 -0.008561463095247745513916015625 -0.000585009693168103694915771484375 0.02733292989432811737060546875 0.01816780678927898406982421875 0.01181929372251033782958984375 0.012202329933643341064453125 -0.02087470702826976776123046875 -0.0008617675048299133777618408203125 -0.0171525441110134124755859375 -6.474243127740919589996337890625e-05 0.02373234927654266357421875 0.00359712750650942325592041015625 0.0161375291645526885986328125 -0.007659624330699443817138671875 0.008238221518695354461669921875 0.0139111988246440887451171875 0.011298497207462787628173828125 0.008950286544859409332275390625 0.010247238911688327789306640625 -0.02532863616943359375 -0.0143275298178195953369140625 
-0.009605837054550647735595703125 -0.01135941781103610992431640625 -0.010140911675989627838134765625 -0.0281630493700504302978515625 0.0118216685950756072998046875 0.005140733905136585235595703125 0.01608691923320293426513671875 0.010916688479483127593994140625 -0.014641615562140941619873046875 -0.01366734690964221954345703125 -0.007825269363820552825927734375 0.01258318684995174407958984375 0.0271429233253002166748046875 -0.00183793739415705204010009765625 0.01959264092147350311279296875 0.00844553299248218536376953125 -0.022482931613922119140625 0.01285826973617076873779296875 -0.0158311910927295684814453125 -0.00638021528720855712890625 -0.006215584464371204376220703125 0.01748004741966724395751953125 -0.00410992838442325592041015625 -0.0111715495586395263671875 -0.01945205591619014739990234375 0.0038930051960051059722900390625 0.010921816341578960418701171875 0.0048914956860244274139404296875 -0.028759814798831939697265625 -0.01578608341515064239501953125 
-0.00693936832249164581298828125 -0.00334453186951577663421630859375 0.0166134200990200042724609375 -0.01725479029119014739990234375 -0.014242045581340789794921875 -0.011611877940595149993896484375 0.001753223245032131671905517578125 0.000585174071602523326873779296875 -0.00997318327426910400390625 -0.004955398850142955780029296875 -0.00056492723524570465087890625 0.02063737809658050537109375 0.00628858990967273712158203125 0.00226777233183383941650390625 0.003379605710506439208984375 0.00869640894234180450439453125 0.012570788152515888214111328125 -0.0103751234710216522216796875 -0.00591321103274822235107421875 0.0073735206387937068939208984375 -0.008148162625730037689208984375 -0.008586312644183635711669921875 0.015169528312981128692626953125 -0.0002659223973751068115234375 -0.0038749524392187595367431640625 0.0329830758273601531982421875 -0.0059247477911412715911865234375 0.00324794719927012920379638671875 0.0005642872420139610767364501953125 -0.0075702480971813201904296875 
-0.0055838893167674541473388671875 -0.00269680656492710113525390625 -0.009419742040336132049560546875 -0.010133050382137298583984375 0.013207520358264446258544921875 -0.0375426746904850006103515625 0.012968479655683040618896484375 -0.0096246115863323211669921875 0.0055287792347371578216552734375 0.01684287376701831817626953125 -0.01940379478037357330322265625 0.001854267087765038013458251953125 -0.0058201509527862071990966796875 0.0316484905779361724853515625 -0.012359869666397571563720703125 0.001677515567280352115631103515625 -0.0102473460137844085693359375 -0.0038009923882782459259033203125 0.00312847434543073177337646484375 -0.00749615021049976348876953125 0.01227404363453388214111328125 -0.01672484911978244781494140625 0.0050042173825204372406005859375 0.0024700085632503032684326171875 -0.0129381008446216583251953125 0.0048322346992790699005126953125 -0.013860830105841159820556640625 -0.0030006519518792629241943359375 -0.02306514047086238861083984375 -0.015421574003994464874267578125 
-0.0102758146822452545166015625 0.011977714486420154571533203125 0.009490814991295337677001953125 -0.02004757709801197052001953125 -0.012307361699640750885009765625 -0.00286665163002908229827880859375 -0.0070119486190378665924072265625 0.00053736125119030475616455078125 0.009851523675024509429931640625 0.011428198777139186859130859375 0.0058243162930011749267578125 0.0297428630292415618896484375 0.012761757709085941314697265625 -0.007962479256093502044677734375 0.0003277811338193714618682861328125 0.021270133554935455322265625 -0.02021157927811145782470703125 0.00172441382892429828643798828125 0.01099376939237117767333984375 0.01726313121616840362548828125 0.009902925230562686920166015625 0.01029093563556671142578125 0.007661231793463230133056640625 0.00340484990738332271575927734375 0.01973050273954868316650390625 -0.001818095217458903789520263671875 0.0054503590799868106842041015625 -0.01799774728715419769287109375 -0.01629814319312572479248046875 -0.01776103675365447998046875 
-0.013723888434469699859619140625 -0.01197407580912113189697265625 0.0261850841343402862548828125 -0.010716532357037067413330078125 -0.006710619665682315826416015625 -0.02945185266435146331787109375 -0.00053067528642714023590087890625 -0.0044404719956219196319580078125 -0.013435684144496917724609375 -0.0167608000338077545166015625 -0.02518520317971706390380859375 -0.00206580129452049732208251953125 0.010632957331836223602294921875 0.00016547579434700310230255126953125 0.0212160386145114898681640625 -0.008523927070200443267822265625 -0.01236511766910552978515625 -0.00098641379736363887786865234375 0.0141224376857280731201171875 -0.0029309238307178020477294921875 -0.008845426142215728759765625 0.00749742798507213592529296875 0.00284045864827930927276611328125 -0.0162556208670139312744140625 0.0153617821633815765380859375 0.02081401087343692779541015625 -0.0067731481976807117462158203125 -0.005968802608549594879150390625 -0.02167290635406970977783203125 -0.0125547461211681365966796875 
-0.02455453760921955108642578125 -0.008766650222241878509521484375 4.15571921621449291706085205078125e-05 0.0109415389597415924072265625 0.0044156904332339763641357421875 -0.02307165227830410003662109375 0.010719931684434413909912109375 0.01159489713609218597412109375 0.010775950737297534942626953125 -0.012839554809033870697021484375 0.00136980600655078887939453125 0.0067961639724671840667724609375 -0.0016578487120568752288818359375 0.02508372999727725982666015625 0.014722566120326519012451171875 0.0132961459457874298095703125 0.01903601549565792083740234375 0.0197967104613780975341796875 0.02957451902329921722412109375 0.02368666045367717742919921875 0.0060578142292797565460205078125 0.015905462205410003662109375 -0.0031423233449459075927734375 0.004832990467548370361328125 0.01558135636150836944580078125 0.037406004965305328369140625 -0.0065535861067473888397216796875 0.0028803418390452861785888671875 -0.0047488179989159107208251953125 -0.0053643123246729373931884765625 
0.0163954012095928192138671875 0.01285308413207530975341796875 0.04752750694751739501953125 -0.02672975696623325347900390625 0.0253109000623226165771484375 -0.007343499921262264251708984375 0.00338989007286727428436279296875 0.010273621417582035064697265625 0.01562721468508243560791015625 -0.0020277313888072967529296875 0.01495405100286006927490234375 0.008232829160988330841064453125 -0.01780750788748264312744140625 -0.00139635964296758174896240234375 -0.003963745199143886566162109375 -0.0216879285871982574462890625 0.0385504253208637237548828125 -0.0339335761964321136474609375 -0.024271614849567413330078125 0.034060917794704437255859375 -0.013120315037667751312255859375 -0.02784041501581668853759765625 -0.000692660920321941375732421875 0.006165993399918079376220703125 -0.00706642307341098785400390625 0.0318372957408428192138671875 -0.008721348829567432403564453125 0.01855581440031528472900390625 -0.0394216366112232208251953125 -0.02033839561045169830322265625 
-0.009630021639168262481689453125 -0.0182921849191188812255859375 0.002555361948907375335693359375 0.001443273271434009075164794921875 -0.02316545508801937103271484375 0.00854710303246974945068359375 -0.0059906165115535259246826171875 0.00438471324741840362548828125 0.015279469080269336700439453125 -0.00237677735276520252227783203125 -0.008299021981656551361083984375 -0.0055798781104385852813720703125 -0.02334277890622615814208984375 0.011442818678915500640869140625 0.0345186851918697357177734375 0.02630772255361080169677734375 -0.000314941280521452426910400390625 0.02902974747121334075927734375 0.0137238614261150360107421875 0.00794348679482936859130859375 0.011014745570719242095947265625 0.01105211861431598663330078125 -0.0080389790236949920654296875 0.0116784386336803436279296875 -0.010549859143793582916259765625 0.02516363002359867095947265625 -0.0006739333621226251125335693359375 0.00043353092041797935962677001953125 0.0157868452370166778564453125 -0.01641569845378398895263671875 
0.011104083620011806488037109375 0.014090935699641704559326171875 -0.01920391432940959930419921875 0.03006202541291713714599609375 -0.02447132207453250885009765625 0.0759511291980743408203125 -0.0091308467090129852294921875 0.00244628079235553741455078125 -0.0055842143483459949493408203125 0.01150131784379482269287109375 0.04695315659046173095703125 -0.01164831034839153289794921875 0.024300180375576019287109375 -0.01838253252208232879638671875 0.01867514662444591522216796875 0.009256293065845966339111328125 0.01939503662288188934326171875 0.02064519561827182769775390625 0.0042296326719224452972412109375 -0.0063590998761355876922607421875 0.013892001472413539886474609375 0.0058561004698276519775390625 0.0288017094135284423828125 -0.0202287100255489349365234375 -0.00894209556281566619873046875 -0.02831287682056427001953125 -0.015406665392220020294189453125 0.00369132100604474544525146484375 -0.014073749072849750518798828125 0.0009918366558849811553955078125 
-0.01645672321319580078125 0.000872120610438287258148193359375 -0.012694236822426319122314453125 -0.01463040523231029510498046875 -0.0279097855091094970703125 -0.033955655992031097412109375 0.017066299915313720703125 -0.00490023754537105560302734375 -0.001602519885636866092681884765625 0.015165689401328563690185546875 -0.006338455714285373687744140625 0.034795336425304412841796875 0.0345535539090633392333984375 -0.0327799022197723388671875 0.005385314114391803741455078125 0.0124765895307064056396484375 -0.0044882646761834621429443359375 -0.01803437061607837677001953125 0.0224767625331878662109375 0.005358047783374786376953125 -0.01639182679355144500732421875 -0.0157708264887332916259765625 0.01912806928157806396484375 -0.0027022329159080982208251953125 0.0167577825486660003662109375 -0.011272725649178028106689453125 0.009418721310794353485107421875 0.0005784477107226848602294921875 -0.02120894752442836761474609375 -0.008904500864446163177490234375 
-0.0306857712566852569580078125 -0.004556558094918727874755859375 -0.009082220494747161865234375 0.0245753042399883270263671875 -0.0239395685493946075439453125 0.0344421602785587310791015625 -0.0153371728956699371337890625 -0.001665181480348110198974609375 0.006360047496855258941650390625 0.02061414532363414764404296875 0.010609068907797336578369140625 0.02837956137955188751220703125 0.0393067114055156707763671875 -0.02844846062362194061279296875 0.01230066828429698944091796875 0.01751311682164669036865234375 0.009228765033185482025146484375 0.0327885039150714874267578125 0.0118175484240055084228515625 -0.009407945908606052398681640625 -0.003389582969248294830322265625 0.0047650001943111419677734375 0.00204044696874916553497314453125 -0.013843360356986522674560546875 0.00331547227688133716583251953125 -0.0383670888841152191162109375 -0.00635443069040775299072265625 -0.001373190316371619701385498046875 -0.02199272811412811279296875 -0.001154859550297260284423828125 
-0.0055353916250169277191162109375 -0.02220584452152252197265625 0.001623625867068767547607421875 0.01104753278195858001708984375 0.0118315331637859344482421875 0.01679272390902042388916015625 -0.001026117126457393169403076171875 -0.0216929726302623748779296875 -0.00756279937922954559326171875 -0.02566118352115154266357421875 -0.0302209444344043731689453125 0.012012370862066745758056640625 0.00285453745163977146148681640625 -0.010926893912255764007568359375 0.0078396610915660858154296875 0.0021421867422759532928466796875 -0.008203388191759586334228515625 0.0053836111910641193389892578125 -0.012378518469631671905517578125 0.01642204634845256805419921875 -0.011994533240795135498046875 -0.004177592694759368896484375 -0.0204136557877063751220703125 -0.010415264405310153961181640625 -0.00325220008380711078643798828125 0.010801474563777446746826171875 0.016605250537395477294921875 -0.00819444470107555389404296875 -0.004680848680436611175537109375 -0.0073220841586589813232421875 
0.005113155581057071685791015625 -0.02191170491278171539306640625 -0.00681266374886035919189453125 0.00232068845070898532867431640625 0.00242788414470851421356201171875 0.00956594757735729217529296875 0.010090635158121585845947265625 0.016580879688262939453125 0.01832476817071437835693359375 0.01857359521090984344482421875 -0.012273959815502166748046875 0.00739628635346889495849609375 0.001502320519648492336273193359375 0.0092867873609066009521484375 0.010004852898418903350830078125 -0.0079803168773651123046875 -0.00079340301454067230224609375 0.00729906372725963592529296875 -0.0073187840171158313751220703125 0.0005982542061246931552886962890625 0.0065964679233729839324951171875 -0.008657385595142841339111328125 0.014724768698215484619140625 -0.01482363231480121612548828125 -0.012035145424306392669677734375 0.013538070023059844970703125 0.01485325209796428680419921875 -0.01874477975070476531982421875 0.00146718067117035388946533203125 -0.01096080057322978973388671875 
0.01364158652722835540771484375 0.0049686157144606113433837890625 -0.00355689413845539093017578125 -0.0047213328070938587188720703125 0.0091008581221103668212890625 -0.02814020216464996337890625 -0.0073329578153789043426513671875 0.0046522873453795909881591796875 -0.0129903741180896759033203125 0.0060461307875812053680419921875 -0.0244582593441009521484375 0.012112674303352832794189453125 -0.00044109908048994839191436767578125 0.0165049768984317779541015625 -0.0194114483892917633056640625 -0.000777787179686129093170166015625 -0.012382817454636096954345703125 0.02828059159219264984130859375 -0.00380391464568674564361572265625 0.003945465199649333953857421875 0.013116075657308101654052734375 -0.011042986996471881866455078125 0.010712341405451297760009765625 0.01435119099915027618408203125 -0.00253691035322844982147216796875 0.01363758742809295654296875 0.00288078910671174526214599609375 0.009303673170506954193115234375 -0.01982501707971096038818359375 0.01597051508724689483642578125 
-0.001855024951510131359100341796875 -0.010782010853290557861328125 -0.0243318043649196624755859375 0.0179347209632396697998046875 -0.01822814904153347015380859375 -0.0020721289329230785369873046875 -0.012454337440431118011474609375 0.0155788362026214599609375 -0.013635315932333469390869140625 0.007250838913023471832275390625 -0.023007147014141082763671875 0.010126805864274501800537109375 0.02196368761360645294189453125 0.015464934520423412322998046875 0.006927783600986003875732421875 0.00039243357605300843715667724609375 -0.012950517237186431884765625 0.0026555159129202365875244140625 0.013177410699427127838134765625 0.0165496729314327239990234375 -0.00321840704418718814849853515625 0.007998914457857608795166015625 0.0143595673143863677978515625 0.011924616061151027679443359375 0.001580903190188109874725341796875 -0.0044250213541090488433837890625 -0.015029898844659328460693359375 0.00194901064969599246978759765625 -0.003934004344046115875244140625 -0.006224705837666988372802734375 
-0.02114436589181423187255859375 0.0017688535153865814208984375 -0.02700751461088657379150390625 0.000964285223744809627532958984375 -0.0047229644842445850372314453125 -0.001922629773616790771484375 0.01206326298415660858154296875 0.0022055176086723804473876953125 0.01085043512284755706787109375 -0.008891589008271694183349609375 0.007828779518604278564453125 0.011635423637926578521728515625 -0.009853352792561054229736328125 0.025499291718006134033203125 0.004309230484068393707275390625 -0.007334747351706027984619140625 0.001846157014369964599609375 0.0049756313674151897430419921875 -0.02066790126264095306396484375 0.005105561576783657073974609375 -0.0112976990640163421630859375 -0.010545189492404460906982421875 0.00070299743674695491790771484375 0.013218793086707592010498046875 0.00863122381269931793212890625 0.00154351699165999889373779296875 0.0055377758108079433441162109375 0.009180157445371150970458984375 0.013865022920072078704833984375 0.001757143996655941009521484375 
0.01034053228795528411865234375 0.0183574743568897247314453125 -0.018703170120716094970703125 0.017482094466686248779296875 0.02235304750502109527587890625 -0.009643726050853729248046875 -0.0082469396293163299560546875 0.01761640608310699462890625 0.01107075251638889312744140625 0.0011132652871310710906982421875 -0.014750339090824127197265625 -0.0052410080097615718841552734375 0.005845307372510433197021484375 0.02938303910195827484130859375 0.008692555129528045654296875 0.0203601606190204620361328125 0.005770801566541194915771484375 -0.0048861349932849407196044921875 -0.013528533279895782470703125 0.0066313068382441997528076171875 0.011104635894298553466796875 -0.00301579316146671772003173828125 0.0070814457722008228302001953125 -0.00137526425532996654510498046875 -0.0077052409760653972625732421875 -0.011824014596641063690185546875 -0.0023718005977571010589599609375 -0.0054882802069187164306640625 0.009316702373325824737548828125 -0.009621429257094860076904296875 
0.01667843200266361236572265625 -0.011459129862487316131591796875 0.00925509072840213775634765625 -0.0067411572672426700592041015625 -0.010432195849716663360595703125 -0.02042881585657596588134765625 -0.0049251546151936054229736328125 -0.00690704770386219024658203125 0.01998215354979038238525390625 -0.0236437879502773284912109375 -0.012868986465036869049072265625 0.005421138368546962738037109375 -0.02112835831940174102783203125 -0.001858421019278466701507568359375 0.010889430530369281768798828125 0.01077105104923248291015625 -0.011186853982508182525634765625 0.01972207240760326385498046875 0.00295657548122107982635498046875 0.0161136500537395477294921875 -0.0040815058164298534393310546875 -0.019483506679534912109375 0.011128020472824573516845703125 0.0115432105958461761474609375 -0.01834827475249767303466796875 0.01355185173451900482177734375 0.0055054347030818462371826171875 -0.00493545271456241607666015625 0.02580933086574077606201171875 -0.01685254089534282684326171875 
-0.0067847385071218013763427734375 -0.00133702554740011692047119140625 -0.00627574883401393890380859375 0.01695749349892139434814453125 0.0001169832321465946733951568603515625 -0.00940682180225849151611328125 0.007931723259389400482177734375 -0.0031127105467021465301513671875 -0.0008235351997427642345428466796875 -0.01720784604549407958984375 -0.0256370790302753448486328125 -0.02161576040089130401611328125 0.0005880427197553217411041259765625 0.0168333984911441802978515625 -0.0043432898819446563720703125 -0.0087662599980831146240234375 0.02297073043882846832275390625 0.015277217142283916473388671875 0.004693047143518924713134765625 -0.012041446752846240997314453125 -0.0165355093777179718017578125 0.00249060266651213169097900390625 -0.015417343936860561370849609375 0.011195932514965534210205078125 -0.01426483504474163055419921875 -0.00353957223705947399139404296875 0.02006938494741916656494140625 0.0097797699272632598876953125 0.004872077144682407379150390625 0.015050254762172698974609375 
0.0164487659931182861328125 -5.241247708909213542938232421875e-05 -0.0035493709146976470947265625 0.023682557046413421630859375 -0.0081567727029323577880859375 0.00811492092907428741455078125 0.01414553634822368621826171875 0.0067113502882421016693115234375 0.0064114802516996860504150390625 0.00470609031617641448974609375 0.009661811403930187225341796875 -0.0344187803566455841064453125 -0.035783469676971435546875 -0.00367711600847542285919189453125 0.01831890456378459930419921875 -0.00711452774703502655029296875 0.006203071214258670806884765625 0.00258700619451701641082763671875 -0.0301583521068096160888671875 0.013365867547690868377685546875 0.00260102353058755397796630859375 -0.007758942432701587677001953125 -0.00376876234076917171478271484375 -0.010274879634380340576171875 -0.0108401663601398468017578125 0.0199683792889118194580078125 -0.013188452459871768951416015625 -0.009970442391932010650634765625 0.00999630801379680633544921875 -0.007466428913176059722900390625 
0.008091014809906482696533203125 0.000769890262745320796966552734375 0.014344052411615848541259765625 0.0187893770635128021240234375 -0.000699654105119407176971435546875 0.00296465284191071987152099609375 0.010999162681400775909423828125 0.000628203037194907665252685546875 -0.0051764063537120819091796875 0.010365269146859645843505859375 0.01031951420009136199951171875 -0.013001603074371814727783203125 -0.0365544594824314117431640625 0.00297510926611721515655517578125 -0.0196284838020801544189453125 0.0061674076132476329803466796875 0.01578746177256107330322265625 -0.010435021482408046722412109375 -0.01015980355441570281982421875 -0.02029640972614288330078125 0.01943615637719631195068359375 -0.01175284199416637420654296875 -0.011912248097360134124755859375 -0.013510954566299915313720703125 0.005967187695205211639404296875 -0.0076392269693315029144287109375 0.008062261156737804412841796875 0.0140013135969638824462890625 0.040004789829254150390625 0.01027577556669712066650390625 
0.0093051753938198089599609375 0.0028382218442857265472412109375 -0.00580556131899356842041015625 0.0201603285968303680419921875 0.0151682309806346893310546875 0.014918633736670017242431640625 -0.013091333210468292236328125 -0.0077157914638519287109375 -0.0055294870398938655853271484375 0.014422495849430561065673828125 0.00771712325513362884521484375 -0.0388622619211673736572265625 -0.013747391290962696075439453125 0.0134342946112155914306640625 0.008098381571471691131591796875 -0.0028383727185428142547607421875 0.0049410746432840824127197265625 0.00339451222680509090423583984375 -0.0185033269226551055908203125 0.0044533298350870609283447265625 0.0205745697021484375 -0.01662972010672092437744140625 -0.009177229367196559906005859375 -0.00258561014197766780853271484375 -0.0006263034301809966564178466796875 -0.00739152729511260986328125 0.0120881982147693634033203125 -0.009076555259525775909423828125 0.02881349064409732818603515625 -0.0133916027843952178955078125 
0.0010827933438122272491455078125 -0.0115301646292209625244140625 0.014267586171627044677734375 0.008711558766663074493408203125 -0.00213864841498434543609619140625 0.012755413539707660675048828125 0.004066345281898975372314453125 -0.00737216882407665252685546875 0.02088183350861072540283203125 0.009970180690288543701171875 -0.0073968581855297088623046875 -0.01405126787722110748291015625 -0.0172933600842952728271484375 0.00219296314753592014312744140625 0.0071288770996034145355224609375 0.01882661879062652587890625 0.010296837426722049713134765625 0.004685600288212299346923828125 -0.043856523931026458740234375 -0.014291343279182910919189453125 0.0102017857134342193603515625 -0.01625544764101505279541015625 -0.012762579135596752166748046875 -0.007334006018936634063720703125 -0.01204916276037693023681640625 0.005229827947914600372314453125 0.008825209923088550567626953125 0.004175203852355480194091796875 0.03107744641602039337158203125 0.008415223099291324615478515625 
0.012526847422122955322265625 -0.013782389461994171142578125 -0.015560713596642017364501953125 -0.001140111475251615047454833984375 0.0173622705042362213134765625 0.0263266824185848236083984375 -0.0146952569484710693359375 -0.001253680908121168613433837890625 -0.0069471732713282108306884765625 -0.01949224434792995452880859375 0.0147038884460926055908203125 -0.04110275208950042724609375 -0.012125837616622447967529296875 -0.0182396508753299713134765625 -0.009209430776536464691162109375 0.0233669392764568328857421875 0.032385550439357757568359375 0.015384994447231292724609375 -0.015759646892547607421875 -0.01749739237129688262939453125 0.00204513897188007831573486328125 -0.00283126346766948699951171875 7.6826618169434368610382080078125e-05 0.002261980436742305755615234375 -0.01752553693950176239013671875 -0.0150011591613292694091796875 -0.0107033215463161468505859375 -0.004739284515380859375 0.01113422401249408721923828125 -0.00661903806030750274658203125 
-0.0162435360252857208251953125 0.010165675543248653411865234375 -0.012359940446913242340087890625 0.015496469102799892425537109375 0.02482771687209606170654296875 0.01686910353600978851318359375 -0.0022814613766968250274658203125 0.01169109158217906951904296875 -0.007845073007047176361083984375 0.0052001960575580596923828125 -0.004421375691890716552734375 -0.0349837355315685272216796875 -0.0064948895014822483062744140625 -0.0111881010234355926513671875 -0.009385372512042522430419921875 -0.00805073790252208709716796875 0.02782118879258632659912109375 0.013202934525907039642333984375 -0.03088070638477802276611328125 0.00859883613884449005126953125 0.017423771321773529052734375 -0.0072602736763656139373779296875 -0.01338716782629489898681640625 -0.008864431641995906829833984375 -0.01479628123342990875244140625 0.00394754111766815185546875 0.02042035944759845733642578125 0.01785506308078765869140625 0.0351419188082218170166015625 -0.0209200344979763031005859375 
-0.015570654533803462982177734375 -0.0080291591584682464599609375 0.0053175054490566253662109375 0.0225871615111827850341796875 0.0160727612674236297607421875 0.000236914886045269668102264404296875 0.02115949057042598724365234375 -0.011169620789587497711181640625 -0.01670931093394756317138671875 -0.013274467550218105316162109375 0.011825227178633213043212890625 -0.009713462553918361663818359375 0.02717237733304500579833984375 -0.009700036607682704925537109375 -0.0058004367165267467498779296875 0.012540019117295742034912109375 -0.0172726623713970184326171875 -0.00935917161405086517333984375 -0.01938037760555744171142578125 -0.015530225820839405059814453125 0.01969462074339389801025390625 0.010302857495844364166259765625 0.0066818199120461940765380859375 0.01705524511635303497314453125 0.01225427724421024322509765625 0.0199580304324626922607421875 0.0043056295253336429595947265625 0.011206044815480709075927734375 -0.0163434855639934539794921875 0.013119451701641082763671875 
-0.011735157109797000885009765625 0.011419246904551982879638671875 -0.01892139576375484466552734375 0.010358505882322788238525390625 0.010645157657563686370849609375 0.000761382165364921092987060546875 0.01571124978363513946533203125 -0.0157749988138675689697265625 0.0157184116542339324951171875 0.01281510107219219207763671875 0.0049755242653191089630126953125 -0.0069718346931040287017822265625 0.02552478015422821044921875 0.01904837787151336669921875 -0.01779936440289020538330078125 0.00998560152947902679443359375 -0.01653288491070270538330078125 -0.0063199470750987529754638671875 0.011698008514940738677978515625 -0.0047933948226273059844970703125 -0.0070501365698873996734619140625 -0.01177465729415416717529296875 -0.00226901820860803127288818359375 0.014077396132051944732666015625 -0.0066747660748660564422607421875 0.01747510023415088653564453125 -0.01010908745229244232177734375 -0.0067792586050927639007568359375 -0.010049007833003997802734375 -0.010304500348865985870361328125 
0.01208413206040859222412109375 -0.012860008515417575836181640625 -0.02625139988958835601806640625 0.010799537412822246551513671875 0.02650137245655059814453125 -0.0331086628139019012451171875 -0.01081791706383228302001953125 0.010908576659858226776123046875 -0.00318995374254882335662841796875 0.0061468002386391162872314453125 -0.02407641708850860595703125 -0.0053213047794997692108154296875 0.02499241940677165985107421875 0.00834098272025585174560546875 -0.0084598958492279052734375 0.015376280061900615692138671875 -0.008807458914816379547119140625 -0.00326884468086063861846923828125 0.016284637153148651123046875 0.0158774144947528839111328125 0.00221527158282697200775146484375 -0.014851027168333530426025390625 0.0001660435809753835201263427734375 -0.010755305178463459014892578125 -0.0042394171468913555145263671875 0.02415746636688709259033203125 0.01793783716857433319091796875 -0.01973100565373897552490234375 0.009267367422580718994140625 0.0090195424854755401611328125 
0.015266227535903453826904296875 0.00866129808127880096435546875 0.00667749904096126556396484375 0.01308606006205081939697265625 -0.002477812580764293670654296875 0.0046569737605750560760498046875 0.013657622970640659332275390625 0.02122422866523265838623046875 0.004507918842136859893798828125 0.009303973056375980377197265625 -0.0026251883246004581451416015625 -0.014950781129300594329833984375 0.003354179672896862030029296875 -0.0017736000008881092071533203125 0.001092174206860363483428955078125 0.01784142665565013885498046875 0.013823784887790679931640625 0.0270869918167591094970703125 0.014334298670291900634765625 -0.016381867229938507080078125 0.0079047568142414093017578125 -0.02060805819928646087646484375 0.010810367763042449951171875 -0.0105315633118152618408203125 -0.01700426824390888214111328125 0.01417162083089351654052734375 0.014006259851157665252685546875 0.01778859831392765045166015625 0.002593581564724445343017578125 0.006883534602820873260498046875 
0.008856064639985561370849609375 -0.0045030615292489528656005859375 -0.0347188822925090789794921875 0.00342435925267636775970458984375 0.010595746338367462158203125 0.018089771270751953125 -0.012333554215729236602783203125 -0.0105251371860504150390625 0.01450175233185291290283203125 -0.013931982219219207763671875 0.01506211794912815093994140625 -0.015688203275203704833984375 0.0022960915230214595794677734375 -0.0070704077370464801788330078125 -0.009991160593926906585693359375 0.0042021465487778186798095703125 0.0119203366339206695556640625 0.013452489860355854034423828125 -0.007833444513380527496337890625 0.0015716268680989742279052734375 0.00648355670273303985595703125 0.0040329410694539546966552734375 -0.001895841327495872974395751953125 -0.01528489403426647186279296875 0.00095240329392254352569580078125 -0.00252352817915380001068115234375 0.0075628967024385929107666015625 0.015586909838020801544189453125 0.02159886062145233154296875 -0.01501885987818241119384765625 
0.00031538723851554095745086669921875 0.006964175961911678314208984375 -0.032543838024139404296875 0.009331564418971538543701171875 -0.015254677273333072662353515625 0.014495403505861759185791015625 0.0187967382371425628662109375 0.0059341466985642910003662109375 0.018135495483875274658203125 0.010623154230415821075439453125 0.00150170526467263698577880859375 -0.0192824862897396087646484375 0.01587674207985401153564453125 -0.0184401609003543853759765625 0.009788461960852146148681640625 0.009473116137087345123291015625 0.01679591834545135498046875 0.012494652532041072845458984375 0.0042996485717594623565673828125 -0.0079842023551464080810546875 0.00958893261849880218505859375 -0.013653182424604892730712890625 0.01189071498811244964599609375 -0.01713609136641025543212890625 0.00825186260044574737548828125 -0.02796046622097492218017578125 0.00719535537064075469970703125 0.02002939768135547637939453125 0.0006614372250624001026153564453125 -0.01676424778997898101806640625 
-0.0201418958604335784912109375 -0.019259750843048095703125 -0.00771747343242168426513671875 0.01529639400541782379150390625 0.0168702043592929840087890625 0.02404325269162654876708984375 -0.0043049058876931667327880859375 0.00296722888015210628509521484375 -0.01645962707698345184326171875 0.01372273452579975128173828125 0.00697118975222110748291015625 -0.009320805780589580535888671875 -0.013693034648895263671875 -0.0076734689064323902130126953125 -0.001117205363698303699493408203125 -0.008355573751032352447509765625 0.0152075849473476409912109375 0.0040100463666021823883056640625 -0.008387363515794277191162109375 0.007126159965991973876953125 0.00132837030105292797088623046875 -0.02808535285294055938720703125 0.011814269237220287322998046875 -0.01609891094267368316650390625 -0.008501657284796237945556640625 0.0156520865857601165771484375 0.01611870341002941131591796875 -0.003293012268841266632080078125 0.0110769569873809814453125 -0.0080949477851390838623046875 
-0.0007113762549124658107757568359375 -0.01307393051683902740478515625 0.031322427093982696533203125 0.0048074605874717235565185546875 0.031317524611949920654296875 0.007547485642135143280029296875 -0.0042903455905616283416748046875 0.0098989121615886688232421875 0.00775660574436187744140625 -0.007897698320448398590087890625 -0.009752091951668262481689453125 0.016528077423572540283203125 -0.000667280517518520355224609375 -0.020187012851238250732421875 -0.0112688504159450531005859375 0.01587962545454502105712890625 0.01703458465635776519775390625 -0.0009291805909015238285064697265625 -0.013784914277493953704833984375 0.02671702392399311065673828125 0.009530418552458286285400390625 0.00213130586780607700347900390625 0.001634764135815203189849853515625 -0.008598633110523223876953125 -0.009408240206539630889892578125 0.0331264175474643707275390625 0.0111934840679168701171875 0.00335985398851335048675537109375 0.014569426886737346649169921875 -0.0055875056423246860504150390625 
-0.001624604803510010242462158203125 0.010024541057646274566650390625 0.0110810659825801849365234375 0.012881246395409107208251953125 -0.008975221775472164154052734375 0.010617174208164215087890625 -0.0169048607349395751953125 0.000648129615001380443572998046875 0.01183080114424228668212890625 0.0045741447247564792633056640625 -0.0051850364543497562408447265625 -0.00593473017215728759765625 -0.00126874749548733234405517578125 -0.01733409427106380462646484375 0.012830783613026142120361328125 -0.00462901033461093902587890625 0.01770924590528011322021484375 -0.004422768019139766693115234375 0.00251601194031536579132080078125 0.01474208571016788482666015625 0.015287804417312145233154296875 -0.013591648079454898834228515625 -0.005741794593632221221923828125 -0.00448013842105865478515625 -0.017884768545627593994140625 0.008227513171732425689697265625 0.015394888818264007568359375 0.0099465735256671905517578125 0.0041399295441806316375732421875 -0.01720788888633251190185546875 
0.011547087691724300384521484375 -0.0188733004033565521240234375 0.0466045700013637542724609375 -0.01512310840189456939697265625 0.001872452325187623500823974609375 0.0266015194356441497802734375 -0.004426511935889720916748046875 -0.02617242746055126190185546875 0.0115737505257129669189453125 -0.02570050768554210662841796875 -0.021256066858768463134765625 -0.0230298601090908050537109375 -0.0227411277592182159423828125 0.011522122658789157867431640625 0.01045147143304347991943359375 0.015306255780160427093505859375 0.02917175926268100738525390625 0.00374506437219679355621337890625 -0.0102328844368457794189453125 -0.012481090612709522247314453125 -0.004384833388030529022216796875 0.013999792747199535369873046875 0.001352232065983116626739501953125 -0.014524736441671848297119140625 -0.00349949463270604610443115234375 0.023228846490383148193359375 -0.0052759381942451000213623046875 0.013495855964720249176025390625 0.02816083468496799468994140625 0.014085789211094379425048828125 
0.01569536887109279632568359375 -0.0048589021898806095123291015625 0.02392018400132656097412109375 -0.02202720940113067626953125 0.0349293909966945648193359375 0.0262394063174724578857421875 0.02266391180455684661865234375 -0.0043655224144458770751953125 0.0066555417142808437347412109375 -0.01881897449493408203125 -0.0352644510567188262939453125 0.00292569375596940517425537109375 -0.028633244335651397705078125 -0.0228094570338726043701171875 -0.037005014717578887939453125 0.0063393679447472095489501953125 0.009664616547524929046630859375 0.013951219618320465087890625 -0.00360986194573342800140380859375 0.003019689582288265228271484375 -0.014181145466864109039306640625 -0.036524556577205657958984375 -0.01899134553968906402587890625 0.0008532666251994669437408447265625 0.016137756407260894775390625 0.0308160968124866485595703125 -0.011538344435393810272216796875 -0.0074961190111935138702392578125 -0.0077863014303147792816162109375 0.01322834752500057220458984375 
-0.008582157082855701446533203125 0.0125936828553676605224609375 0.025742881000041961669921875 0.01070024259388446807861328125 -0.00122782937251031398773193359375 0.0048635932616889476776123046875 -0.0050490028224885463714599609375 0.009897575713694095611572265625 0.013810423202812671661376953125 -0.00347222038544714450836181640625 0.01607090793550014495849609375 0.02008657716214656829833984375 -0.01651410199701786041259765625 0.01392737217247486114501953125 0.000447624363005161285400390625 0.011800414882600307464599609375 0.02193861640989780426025390625 -0.008016430772840976715087890625 0.0077146715484559535980224609375 -0.014964641071856021881103515625 0.011860429309308528900146484375 -0.0241807587444782257080078125 -0.003843312151730060577392578125 0.00335478596389293670654296875 0.01566623710095882415771484375 0.01990485750138759613037109375 0.02151650749146938323974609375 0.0034362305887043476104736328125 0.013479637913405895233154296875 -0.00192481582053005695343017578125 
0.0004816741566173732280731201171875 0.001909235143102705478668212890625 -0.00232783774845302104949951171875 0.0182151980698108673095703125 0.01579560525715351104736328125 -0.059209324419498443603515625 0.00347887608222663402557373046875 -0.009053752757608890533447265625 0.0164235420525074005126953125 0.02378989569842815399169921875 -0.0068399156443774700164794921875 0.00276212184689939022064208984375 0.0076040686108171939849853515625 0.0240758359432220458984375 -0.01676072180271148681640625 0.009392860345542430877685546875 0.013852213509380817413330078125 0.00068698148243129253387451171875 0.0161862112581729888916015625 0.000626417226158082485198974609375 0.0043476144783198833465576171875 -0.03202877938747406005859375 0.01888217031955718994140625 -0.00668123550713062286376953125 0.004308751784265041351318359375 -0.012333079241216182708740234375 -0.00878965295851230621337890625 -0.00292471027933061122894287109375 -0.0397460721433162689208984375 0.005470707081258296966552734375 
-0.019575618207454681396484375 -0.02261023782193660736083984375 -0.01599170826375484466552734375 0.022694237530231475830078125 -0.032605089247226715087890625 -0.03056572377681732177734375 -0.010278238914906978607177734375 -0.004075594246387481689453125 0.0164333991706371307373046875 -0.0043343566358089447021484375 0.012912129051983356475830078125 0.012356986291706562042236328125 0.029568068683147430419921875 -0.0077246469445526599884033203125 0.0145019032061100006103515625 0.008523337543010711669921875 0.0164283774793148040771484375 0.004136152565479278564453125 -0.0031994325108826160430908203125 0.00203830958344042301177978515625 -0.0154849402606487274169921875 -0.007847848348319530487060546875 0.01633895002305507659912109375 -0.010691189207136631011962890625 -0.01838936097919940948486328125 -0.011718408204615116119384765625 0.0204502753913402557373046875 -0.013272530399262905120849609375 -0.0330007486045360565185546875 -0.019568212330341339111328125 
-0.0008223874610848724842071533203125 0.0076097655110061168670654296875 -0.00092016835696995258331298828125 -0.006456575356423854827880859375 -0.00247666426002979278564453125 -0.005748943425714969635009765625 -0.01647287793457508087158203125 -0.00321216904558241367340087890625 0.01442808844149112701416015625 0.007830305956304073333740234375 0.015048983506858348846435546875 0.00253619439899921417236328125 0.0183965675532817840576171875 0.02589003928005695343017578125 0.01111087016761302947998046875 -0.001080688671208918094635009765625 -0.001872603199444711208343505859375 0.0347898900508880615234375 -0.001481808605603873729705810546875 -0.022226847708225250244140625 -0.014367501251399517059326171875 0.02536576427519321441650390625 -0.0131304077804088592529296875 0.0035687326453626155853271484375 -0.01117413677275180816650390625 -0.00521077774465084075927734375 0.01574435643851757049560546875 0.007589279673993587493896484375 0.014056763611733913421630859375 -0.0007406097720377147197723388671875 
-0.00460184551775455474853515625 -0.008600668050348758697509765625 0.00352807040326297283172607421875 0.01539291255176067352294921875 -0.02166661061346530914306640625 -0.015500240027904510498046875 -0.003756546415388584136962890625 -0.01005295850336551666259765625 -0.013774444349110126495361328125 0.005249806679785251617431640625 0.0035040429793298244476318359375 -0.01448117755353450775146484375 0.0072464407421648502349853515625 0.001690524630248546600341796875 0.02533916197717189788818359375 -0.006620931439101696014404296875 0.02259243093430995941162109375 0.02345794625580310821533203125 0.00249083689413964748382568359375 0.001925583346746861934661865234375 -0.01635089702904224395751953125 0.012960002757608890533447265625 0.0041528311558067798614501953125 0.0062814210541546344757080078125 -0.00032208100310526788234710693359375 -0.00354158761911094188690185546875 0.00117656402289867401123046875 0.01390361785888671875 0.006823264062404632568359375 0.01289181225001811981201171875 
-0.0056347516365349292755126953125 0.00226058508269488811492919921875 0.006274260580539703369140625 -0.0068986699916422367095947265625 -0.0207550935447216033935546875 0.01428577117621898651123046875 -0.006943068467080593109130859375 -0.0051646181382238864898681640625 -0.0127906538546085357666015625 0.0125397183001041412353515625 0.0267524458467960357666015625 0.011919126845896244049072265625 0.02248419821262359619140625 0.013215187005698680877685546875 -0.001750747789628803730010986328125 0.0021088649518787860870361328125 0.0025417320430278778076171875 0.010176147334277629852294921875 0.0067587480880320072174072265625 -0.001817896147258579730987548828125 0.02192035503685474395751953125 0.02089455537497997283935546875 0.00135980942286550998687744140625 -0.02128504775464534759521484375 -0.0123669467866420745849609375 -0.0140609256923198699951171875 -0.0047178394161164760589599609375 0.00719001702964305877685546875 -0.0275619439780712127685546875 0.0058355215005576610565185546875 
0.010283626616001129150390625 0.009747768752276897430419921875 -0.0006072493852116167545318603515625 0.00267794053070247173309326171875 0.02870036661624908447265625 -0.02915565110743045806884765625 -0.0074764187447726726531982421875 0.01413443498313426971435546875 -0.00696961581707000732421875 -0.00105963484384119510650634765625 -0.005127555690705776214599609375 -0.00780603103339672088623046875 0.00324074900709092617034912109375 0.020039804279804229736328125 -0.0142369829118251800537109375 0.012629360891878604888916015625 0.0007306673214770853519439697265625 0.0075880591757595539093017578125 0.00139142572879791259765625 0.013762376271188259124755859375 -0.01579930447041988372802734375 -0.0097193978726863861083984375 0.00117274955846369266510009765625 -0.0054995720274746417999267578125 -0.010131535120308399200439453125 -0.0045825014822185039520263671875 0.013887039385735988616943359375 0.0014437553472816944122314453125 0.0151146762073040008544921875 -0.01125623472034931182861328125 
0.01809834130108356475830078125 0.014325688593089580535888671875 -0.012326352298259735107421875 0.0189542062580585479736328125 -0.005890102125704288482666015625 -0.015348653309047222137451171875 0.00367559609003365039825439453125 0.0203518010675907135009765625 -0.0044319205917418003082275390625 0.01612243987619876861572265625 0.0077269044704735279083251953125 0.012615405023097991943359375 0.00012399748084135353565216064453125 0.00559835322201251983642578125 0.009905005805194377899169921875 0.02133608423173427581787109375 -0.012736417353153228759765625 0.00309186498634517192840576171875 0.009208337403833866119384765625 0.0057433680631220340728759765625 0.012847931124269962310791015625 -0.016718499362468719482421875 0.020635940134525299072265625 -0.0217064656317234039306640625 0.0171462707221508026123046875 -0.0287141688168048858642578125 0.02108963020145893096923828125 -0.011016692034900188446044921875 0.01978864334523677825927734375 -0.00711257942020893096923828125 
0.005765809677541255950927734375 0.001432823133654892444610595703125 -0.00382374436594545841217041015625 -0.00847314856946468353271484375 0.0108692087233066558837890625 -0.040258593857288360595703125 0.009266386739909648895263671875 -0.00961775146424770355224609375 0.00267949677072465419769287109375 0.001401992398314177989959716796875 -0.006591969169676303863525390625 -0.0061097689904272556304931640625 -0.008869255892932415008544921875 -0.003737322986125946044921875 -0.0001948208664543926715850830078125 0.0197367854416370391845703125 -0.01768527738749980926513671875 -0.00175764667801558971405029296875 0.0322171747684478759765625 0.01370984129607677459716796875 0.001413554768078029155731201171875 -0.02039143256843090057373046875 0.0182420909404754638671875 -0.009635210968554019927978515625 0.0072318948805332183837890625 -0.015288031660020351409912109375 -0.00339772249571979045867919921875 0.0038133072666823863983154296875 -0.0075645265169441699981689453125 -0.012398785911500453948974609375 
0.029160819947719573974609375 -0.01633669994771480560302734375 0.0060199876315891742706298828125 0.01886323653161525726318359375 -0.00263135950081050395965576171875 -0.01061230711638927459716796875 0.01857337914407253265380859375 -0.0067087677307426929473876953125 -0.00014325094525702297687530517578125 -0.0062998416833579540252685546875 0.0050972034223377704620361328125 0.014697249047458171844482421875 -0.03356648981571197509765625 0.0347236283123493194580078125 0.012595861218869686126708984375 0.02614392153918743133544921875 -0.01153490878641605377197265625 0.009257116355001926422119140625 0.014714769087731838226318359375 0.0155759938061237335205078125 0.0204332955181598663330078125 -0.0170111916959285736083984375 -0.01955504156649112701416015625 0.0094608776271343231201171875 -0.000646794098429381847381591796875 0.012886844575405120849609375 0.0236722864210605621337890625 -0.009073504246771335601806640625 0.01765610836446285247802734375 0.0075036757625639438629150390625 
-0.00561992824077606201171875 0.00341171049512922763824462890625 -0.01626761257648468017578125 0.01239023171365261077880859375 -0.02379192411899566650390625 -0.00808475725352764129638671875 -0.0094773136079311370849609375 0.01800907589495182037353515625 -0.01350091397762298583984375 8.9695458882488310337066650390625e-05 0.0006948449299670755863189697265625 -0.02248845808207988739013671875 0.0384569466114044189453125 0.0232877694070339202880859375 0.00726288743317127227783203125 -0.01858122088015079498291015625 -0.02866345085203647613525390625 0.01651420257985591888427734375 -0.02037593163549900054931640625 0.02856061048805713653564453125 0.0020302697084844112396240234375 -0.00271837599575519561767578125 0.019637309014797210693359375 -0.0224055089056491851806640625 -0.00862689875066280364990234375 -0.01904044114053249359130859375 -0.00681533105671405792236328125 0.007533053867518901824951171875 -0.02445213310420513153076171875 0.0172162838280200958251953125 
-0.013462265022099018096923828125 -0.01080723665654659271240234375 -0.0531557612121105194091796875 -0.010151862166821956634521484375 -0.0204597748816013336181640625 -0.0596071444451808929443359375 0.0187847614288330078125 0.02467392385005950927734375 -0.01871856115758419036865234375 0.0068883798085153102874755859375 -0.0411345846951007843017578125 0.02444671094417572021484375 0.0582973621785640716552734375 0.0081606470048427581787109375 0.0310985334217548370361328125 -0.00800044275820255279541015625 -0.04890592396259307861328125 0.0065509290434420108795166015625 0.03491498529911041259765625 0.031400330364704132080078125 0.009102907963097095489501953125 0.02740322239696979522705078125 0.022056162357330322265625 -0.01588471047580242156982421875 0.01226923801004886627197265625 0.01800486631691455841064453125 -0.0056628198362886905670166015625 -0.0124062262475490570068359375 -0.0406618379056453704833984375 -0.01713841967284679412841796875 
-0.0059723220765590667724609375 -0.01795094273984432220458984375 0.00371107761748135089874267578125 -0.0282402522861957550048828125 -0.0253555476665496826171875 -0.01638415269553661346435546875 0.00290423003025352954864501953125 -0.010817773640155792236328125 -0.008291020058095455169677734375 -0.02974491752684116363525390625 -0.01735566370189189910888671875 0.04152198135852813720703125 0.0236196219921112060546875 0.01855239085853099822998046875 -0.0065281926654279232025146484375 -0.01690520159900188446044921875 -0.002161939628422260284423828125 -0.006133102811872959136962890625 0.0279309935867786407470703125 0.02636205591261386871337890625 0.0004791442188434302806854248046875 0.012117044068872928619384765625 0.0062936409376561641693115234375 -0.01391285844147205352783203125 -0.01537935622036457061767578125 0.0348152555525302886962890625 0.02053623832762241363525390625 0.006399319507181644439697265625 -0.037440650165081024169921875 -0.00288842548616230487823486328125 
-0.019750006496906280517578125 -0.00213212636299431324005126953125 0.0082173906266689300537109375 -0.0293180011212825775146484375 0.01667551137506961822509765625 -0.012148878537118434906005859375 -0.00356536102481186389923095703125 -0.00381312076933681964874267578125 -0.01569798402488231658935546875 -0.02013386227190494537353515625 -0.0252119489014148712158203125 0.013004861772060394287109375 0.02444444037973880767822265625 -0.0053413212299346923828125 0.01492628641426563262939453125 0.0204884298145771026611328125 -0.0250137560069561004638671875 0.012923470698297023773193359375 0.0068543921224772930145263671875 0.004365734755992889404296875 -0.011177965439856052398681640625 0.0056064086966216564178466796875 0.0024264934472739696502685546875 -0.007931760512292385101318359375 0.012718833051621913909912109375 0.02012206427752971649169921875 -0.01593069918453693389892578125 0.0072235208936035633087158203125 -0.0052179605700075626373291015625 0.012893445789813995361328125 
0.0159598849713802337646484375 -0.0142177082598209381103515625 0.00794725306332111358642578125 0.01927055604755878448486328125 0.011665739119052886962890625 -0.020636416971683502197265625 -0.0021642115898430347442626953125 -0.01218029297888278961181640625 0.0071137412451207637786865234375 0.00289732892997562885284423828125 -0.005766137503087520599365234375 0.02215425483882427215576171875 0.00575597584247589111328125 0.012240256182849407196044921875 -0.027116037905216217041015625 -0.02084777317941188812255859375 -0.0120156295597553253173828125 0.00738560594618320465087890625 -0.003631138242781162261962890625 0.00046179365017451345920562744140625 0.01834299974143505096435546875 -0.0153478942811489105224609375 0.0286219976842403411865234375 -0.0094969756901264190673828125 -0.0042994995601475238800048828125 0.01975507475435733795166015625 0.0212725885212421417236328125 0.014950984157621860504150390625 -0.02322314865887165069580078125 -0.001166094909422099590301513671875 
0.0131720118224620819091796875 -0.0050145969726145267486572265625 0.01785428635776042938232421875 -0.01711897738277912139892578125 0.011392858810722827911376953125 -0.004485356621444225311279296875 0.004636287689208984375 0.01118947751820087432861328125 -0.013305461965501308441162109375 0.0044192266650497913360595703125 -0.01048011519014835357666015625 0.020722888410091400146484375 -0.011154363863170146942138671875 0.0264491848647594451904296875 0.014029619283974170684814453125 0.012531423009932041168212890625 -0.002513979561626911163330078125 -0.011244731955230236053466796875 0.00034245281131006777286529541015625 0.01792798005044460296630859375 0.001241783727891743183135986328125 -0.02440944127738475799560546875 0.01674462668597698211669921875 0.013435161672532558441162109375 -0.0044893906451761722564697265625 0.0100102685391902923583984375 -0.0072839572094380855560302734375 0.010844915173947811126708984375 -0.011052903719246387481689453125 -0.00781621970236301422119140625 
0.01406016387045383453369140625 -0.007264043204486370086669921875 0.01530932076275348663330078125 -0.01758203469216823577880859375 -0.0048670764081180095672607421875 -0.01934885047376155853271484375 0.011875211261212825775146484375 -0.010404565371572971343994140625 0.0204889476299285888671875 -0.00545809976756572723388671875 -0.0004855605657212436199188232421875 0.01938712783157825469970703125 0.0109336264431476593017578125 0.03184108436107635498046875 -0.0218512304127216339111328125 0.01204882748425006866455078125 0.0050030644051730632781982421875 -0.0061827176250517368316650390625 0.0060825175605714321136474609375 0.023649036884307861328125 0.0049329730682075023651123046875 -0.011046455241739749908447265625 0.0146975181996822357177734375 -0.011075290851294994354248046875 -0.010448268614709377288818359375 0.0330671332776546478271484375 0.02041618525981903076171875 -0.0071243946440517902374267578125 -0.02551789395511150360107421875 -0.00274696084670722484588623046875 
-0.00982644222676753997802734375 -0.01445706374943256378173828125 0.001914200955070555210113525390625 -0.0036981482990086078643798828125 0.00174715160392224788665771484375 -0.0493679940700531005859375 -0.000837373663671314716339111328125 0.012314173392951488494873046875 -0.00819785892963409423828125 -0.0025584776885807514190673828125 -0.0118579156696796417236328125 0.0318521894514560699462890625 0.0144159682095050811767578125 -0.0035970206372439861297607421875 0.00262275501154363155364990234375 -0.01385262794792652130126953125 0.00993569009006023406982421875 0.012064184062182903289794921875 0.02806856296956539154052734375 -0.0007324045873247087001800537109375 -0.0071677751839160919189453125 0.015426121652126312255859375 0.008310726843774318695068359375 -0.011481539346277713775634765625 0.011445979587733745574951171875 0.007127893157303333282470703125 0.010989000089466571807861328125 0.001362609560601413249969482421875 -0.0414822064340114593505859375 0.01756337843835353851318359375 
-0.01756471954286098480224609375 0.001462285057641565799713134765625 -0.010554962791502475738525390625 -0.0069131772033870220184326171875 0.010108045302331447601318359375 -0.0435153059661388397216796875 0.010438882745802402496337890625 -0.0061266436241567134857177734375 0.014215514995157718658447265625 0.013595231808722019195556640625 -0.03093929030001163482666015625 0.014379895292222499847412109375 0.0163924582302570343017578125 0.008407936431467533111572265625 -0.01264136098325252532958984375 0.0064622112549841403961181640625 0.0032479376532137393951416015625 0.02280769683420658111572265625 0.0356642901897430419921875 0.012008565478026866912841796875 0.009848983027040958404541015625 0.01071642898023128509521484375 0.0008561247377656400203704833984375 0.0067958943545818328857421875 -0.0196183361113071441650390625 0.03695331513881683349609375 0.0045975414104759693145751953125 0.005725246854126453399658203125 -0.0216104350984096527099609375 0.011163704097270965576171875 
-0.02330160327255725860595703125 -0.01239359565079212188720703125 0.02272385545074939727783203125 -0.02540117315948009490966796875 -0.0051041580736637115478515625 0.01390690170228481292724609375 -0.01130972802639007568359375 -0.0189659558236598968505859375 0.003078423440456390380859375 -0.01830124296247959136962890625 -0.0164692103862762451171875 0.01909626461565494537353515625 -0.01042980514466762542724609375 0.014737762510776519775390625 0.02983085997402667999267578125 0.009224765002727508544921875 0.011298757977783679962158203125 0.000223904367885552346706390380859375 -0.01123747043311595916748046875 0.01383242197334766387939453125 -0.011797077022492885589599609375 0.01772017963230609893798828125 0.0198541767895221710205078125 -0.01394323445856571197509765625 0.00926809571683406829833984375 0.04247517883777618408203125 0.007916693575680255889892578125 0.010085496120154857635498046875 0.00181849417276680469512939453125 0.0073255118913948535919189453125 
-0.01742649078369140625 -0.02167896740138530731201171875 -0.008723779581487178802490234375 -0.029122702777385711669921875 -0.014334336854517459869384765625 0.0236578620970249176025390625 0.004061992280185222625732421875 -0.0170518867671489715576171875 -0.01692526042461395263671875 -0.03100331686437129974365234375 -0.00994963385164737701416015625 -0.0008013176848180592060089111328125 -0.0339452922344207763671875 0.02142846398055553436279296875 0.0008296516607515513896942138671875 0.01389523409307003021240234375 0.00828916393220424652099609375 0.02756910026073455810546875 -0.02081976272165775299072265625 -0.008734344504773616790771484375 -0.01204518973827362060546875 0.0232590995728969573974609375 -0.01677265577018260955810546875 0.0040404461324214935302734375 -0.00223126146011054515838623046875 0.0207353495061397552490234375 -0.008845104835927486419677734375 -0.01670489646494388580322265625 0.0166400708258152008056640625 -0.02140071801841259002685546875 
-0.01257570274174213409423828125 0.01182095706462860107421875 -0.02496015839278697967529296875 0.001007231068797409534454345703125 0.00368575775064527988433837890625 -0.00156417302787303924560546875 -0.005947072990238666534423828125 -0.0101844184100627899169921875 0.0088200680911540985107421875 -0.003975165076553821563720703125 0.011025237850844860076904296875 0.0040479595772922039031982421875 0.006380223669111728668212890625 -0.001164981513284146785736083984375 0.014225414954125881195068359375 0.0061154733411967754364013671875 -0.01502244733273983001708984375 -0.0046350122429430484771728515625 -0.00225501204840838909149169921875 0.00935850851237773895263671875 0.01766192726790904998779296875 -0.00189363746903836727142333984375 0.0338684208691120147705078125 -0.0118944682180881500244140625 -0.0059006549417972564697265625 -0.011389317922294139862060546875 0.0226012170314788818359375 -0.015136721543967723846435546875 -0.036703206598758697509765625 0.00369136244989931583404541015625 
-0.00196450762450695037841796875 -0.009699846617877483367919921875 -0.01405353285372257232666015625 0.0177734978497028350830078125 -0.010087138973176479339599609375 -0.02579739503562450408935546875 0.010939576663076877593994140625 0.02439017407596111297607421875 0.009174310602247714996337890625 0.0022352091036736965179443359375 -0.007277562282979488372802734375 0.005267445929348468780517578125 0.001660535461269319057464599609375 0.00669362582266330718994140625 0.011374377645552158355712890625 0.01806597411632537841796875 0.011439793743193149566650390625 0.007951744832098484039306640625 0.02113961987197399139404296875 -0.00283304671756923198699951171875 -0.015062727965414524078369140625 -0.01809141598641872406005859375 0.00044861971400678157806396484375 -0.00214074365794658660888671875 -0.010989286005496978759765625 0.00120283104479312896728515625 0.01818797923624515533447265625 -0.009701727889478206634521484375 0.000888581038452684879302978515625 -0.0053059835918247699737548828125 
-0.017790548503398895263671875 -0.004177185706794261932373046875 -0.02887947298586368560791015625 0.0135833807289600372314453125 -0.009755850769579410552978515625 0.0053033865988254547119140625 0.00025198611547239124774932861328125 -0.0039972388185560703277587890625 0.0176280550658702850341796875 0.0039223604835569858551025390625 -0.01600244827568531036376953125 0.00320240552537143230438232421875 0.0269089043140411376953125 -0.00684516318142414093017578125 0.006660274229943752288818359375 0.01646290160715579986572265625 -0.01431811414659023284912109375 0.0018954309634864330291748046875 0.00672255270183086395263671875 0.02051914669573307037353515625 -0.014540371485054492950439453125 0.015243898145854473114013671875 0.0322673134505748748779296875 -0.01901752687990665435791015625 -0.004236645996570587158203125 -0.0204669795930385589599609375 0.0005870451568625867366790771484375 0.01191215403378009796142578125 -0.03608314692974090576171875 0.014523492194712162017822265625 
-0.02132872305810451507568359375 4.315949627198278903961181640625e-05 -0.0229456089437007904052734375 -0.03076525591313838958740234375 0.007838283665478229522705078125 -0.009494251571595668792724609375 0.02183165960013866424560546875 0.012378676794469356536865234375 -0.00676934979856014251708984375 -0.01576182805001735687255859375 -0.01748890988528728485107421875 0.011138989590108394622802734375 -0.008543125353753566741943359375 0.014216491021215915679931640625 0.025921411812305450439453125 0.0108999125659465789794921875 -0.0089658237993717193603515625 0.026512198150157928466796875 -0.003372323699295520782470703125 0.01962842233479022979736328125 0.0047234143130481243133544921875 0.02670204639434814453125 0.01635977439582347869873046875 -0.007840934209525585174560546875 0.015638768672943115234375 0.0060450495220720767974853515625 -0.001782072591595351696014404296875 0.011314979754388332366943359375 -0.0271736271679401397705078125 -0.0151230357587337493896484375 
0.00199543568305671215057373046875 0.010819229297339916229248046875 -0.01794262789189815521240234375 -0.001385050243698060512542724609375 -0.00737984664738178253173828125 -0.05693341791629791259765625 -0.01009778864681720733642578125 0.0165724344551563262939453125 0.002865542657673358917236328125 0.01696745119988918304443359375 -0.02197252772748470306396484375 0.027298033237457275390625 0.0192689001560211181640625 0.0061918161809444427490234375 -0.012172258459031581878662109375 0.0218410007655620574951171875 -0.012457949109375476837158203125 0.010098115541040897369384765625 0.029906652867794036865234375 0.0018735141493380069732666015625 -0.00164793408475816249847412109375 -0.010876401327550411224365234375 0.009198357351124286651611328125 0.005207207985222339630126953125 -0.0168217681348323822021484375 0.02057195268571376800537109375 0.0186510719358921051025390625 -0.02785894460976123809814453125 -0.0246022380888462066650390625 -0.00194114330224692821502685546875 
-0.01718537509441375732421875 0.014002219773828983306884765625 0.01662710495293140411376953125 -0.0070719574578106403350830078125 0.01499067246913909912109375 -0.071981810033321380615234375 -0.014736962504684925079345703125 0.0145657621324062347412109375 -0.01787151210010051727294921875 -0.0105761624872684478759765625 0.000529815093614161014556884765625 0.0355616100132465362548828125 0.015667855739593505859375 0.02047444321215152740478515625 0.0003383566509000957012176513671875 0.01375030539929866790771484375 0.00689598731696605682373046875 0.0036700167693197727203369140625 0.02928535081446170806884765625 0.008090888150036334991455078125 -0.003849468193948268890380859375 -0.01822097599506378173828125 0.010014551691710948944091796875 0.0178291611373424530029296875 0.0194030590355396270751953125 -0.0061721508391201496124267578125 0.00675733573734760284423828125 -0.011608746834099292755126953125 -0.015373341739177703857421875 0.0056094038300216197967529296875 
0.011472590267658233642578125 0.01241060532629489898681640625 -0.013233006000518798828125 -0.00298295984975993633270263671875 0.009475841186940670013427734375 -0.0088443793356418609619140625 -0.0029371655546128749847412109375 -0.008588659577071666717529296875 0.018847398459911346435546875 -0.014946266077458858489990234375 -0.01327004097402095794677734375 -0.0046182270161807537078857421875 -0.0033922414295375347137451171875 -0.002534170635044574737548828125 0.02533917129039764404296875 0.003929003141820430755615234375 -0.0008764139492996037006378173828125 -0.004835915751755237579345703125 0.02423673681914806365966796875 0.01396126486361026763916015625 0.001770267146639525890350341796875 0.0067345802672207355499267578125 -0.01952780224382877349853515625 -0.01842599175870418548583984375 -0.008374794386327266693115234375 0.02066192962229251861572265625 -0.0072798468172550201416015625 -0.007419294677674770355224609375 0.017256446182727813720703125 -0.002418399788439273834228515625 
0.019162334501743316650390625 0.00917909480631351470947265625 0.006068651564419269561767578125 0.02315492741763591766357421875 0.048861600458621978759765625 0.021216832101345062255859375 -0.00332030956633388996124267578125 -0.01134426891803741455078125 0.00281059928238391876220703125 0.01783574931323528289794921875 -0.019033782184123992919921875 -0.00301088462583720684051513671875 -0.05551326274871826171875 0.0225866474211215972900390625 -0.0189778842031955718994140625 0.0255101062357425689697265625 0.02263263426721096038818359375 -0.0202907621860504150390625 -0.0278365053236484527587890625 0.00342914252541959285736083984375 -0.00746524892747402191162109375 -0.02745841257274150848388671875 -0.01359300129115581512451171875 0.011382156051695346832275390625 -0.007786341011524200439453125 0.0077875717543065547943115234375 -0.00342308892868459224700927734375 -0.01399586163461208343505859375 0.0428390204906463623046875 -0.014870419166982173919677734375 
0.004497022368013858795166015625 0.01468733139336109161376953125 0.0042372732423245906829833984375 0.006056015379726886749267578125 0.013884118758141994476318359375 0.0050425990484654903411865234375 0.02189284749329090118408203125 -0.00385280023328959941864013671875 -0.006412480957806110382080078125 -0.0173284374177455902099609375 -0.01201471872627735137939453125 -0.011564805172383785247802734375 0.0052480916492640972137451171875 -0.00533241964876651763916015625 0.0109254084527492523193359375 -0.007698633708059787750244140625 0.014180871658027172088623046875 0.00328758941031992435455322265625 -0.0032635531388223171234130859375 0.01062317751348018646240234375 0.014589144848287105560302734375 0.011373494751751422882080078125 -0.00112495268695056438446044921875 -0.0070706927217543125152587890625 0.0111879222095012664794921875 0.009340927936136722564697265625 0.01149466820061206817626953125 -0.014388936571776866912841796875 0.00991956703364849090576171875 -0.02276964299380779266357421875 
0.0192749164998531341552734375 -0.0064541180618107318878173828125 0.018407262861728668212890625 0.005799007602035999298095703125 0.01810702495276927947998046875 -0.0068935803137719631195068359375 0.014850102365016937255859375 -0.012997732497751712799072265625 0.00199220539070665836334228515625 0.0056121102534234523773193359375 -0.014516471885144710540771484375 0.0068784323520958423614501953125 -0.0014313352294266223907470703125 0.02245893515646457672119140625 -0.005474138073623180389404296875 0.010167573578655719757080078125 -0.009779541753232479095458984375 -0.0059834332205355167388916015625 0.0067251655273139476776123046875 -0.021876029670238494873046875 0.01185231097042560577392578125 -0.0261531956493854522705078125 0.0013901838101446628570556640625 -0.0072491909377276897430419921875 -0.002437989227473735809326171875 -0.0060063586570322513580322265625 0.011934556998312473297119140625 0.006007635034620761871337890625 0.026869408786296844482421875 -0.01915335468947887420654296875 
0.0058672348968684673309326171875 -0.00886110961437225341796875 0.00708868913352489471435546875 -0.01951740495860576629638671875 0.014549038372933864593505859375 0.0188264884054660797119140625 0.0056079397909343242645263671875 -0.02275173552334308624267578125 -0.01733979396522045135498046875 0.00036763501702807843685150146484375 -0.00191686558537185192108154296875 0.01045829243957996368408203125 -0.015805400907993316650390625 -0.0040509426034986972808837890625 -0.01611781306564807891845703125 0.02541440911591053009033203125 -0.0071367961354553699493408203125 0.00148566835559904575347900390625 -0.01883246563374996185302734375 -0.00180787616409361362457275390625 0.008924926631152629852294921875 -0.015488966368138790130615234375 -0.0030263806693255901336669921875 -0.010794865898787975311279296875 0.01821036078035831451416015625 -0.00862474739551544189453125 -0.011854746378958225250244140625 0.00667528621852397918701171875 -0.00325084407813847064971923828125 0.0015341783873736858367919921875 
-0.011332117952406406402587890625 -0.00754335336387157440185546875 0.0159444175660610198974609375 -0.009300864301621913909912109375 0.010901652276515960693359375 -0.0002769035636447370052337646484375 -0.014565975405275821685791015625 -0.0004676756798289716243743896484375 -0.012807178311049938201904296875 -0.00159752718172967433929443359375 -0.02724806033074855804443359375 -0.02144134230911731719970703125 0.00317019154317677021026611328125 0.01255987770855426788330078125 -9.08311994862742722034454345703125e-05 -0.0056889913976192474365234375 0.01902361400425434112548828125 0.00404969789087772369384765625 -0.01685375533998012542724609375 0.009752540849149227142333984375 0.0195081047713756561279296875 0.01688208617269992828369140625 0.008950830437242984771728515625 -0.000508749741129577159881591796875 0.0081189461052417755126953125 0.01611272804439067840576171875 -0.013740650378167629241943359375 0.01357503421604633331298828125 -0.001183592132292687892913818359375 -0.01238530687987804412841796875 
0.013321775011718273162841796875 -0.008945827372372150421142578125 -0.022620283067226409912109375 0.01134371571242809295654296875 0.027555294334888458251953125 0.0285316668450832366943359375 0.00349108153022825717926025390625 -0.014617599546909332275390625 -0.01403470896184444427490234375 -0.00945814512670040130615234375 -0.0268892683088779449462890625 -0.0351052843034267425537109375 -0.011757801286876201629638671875 0.0219589136540889739990234375 -0.010665628127753734588623046875 -0.00228223926387727260589599609375 -0.00800202786922454833984375 0.011703315190970897674560546875 -0.02228381298482418060302734375 0.0016439999453723430633544921875 -0.01570683158934116363525390625 0.0197281204164028167724609375 -0.01300306804478168487548828125 -0.003919254057109355926513671875 0.01735368929803371429443359375 0.0292019061744213104248046875 0.016989700496196746826171875 -0.02096468023955821990966796875 0.039772890508174896240234375 -0.0074476604349911212921142578125 
0.008373706601560115814208984375 -0.00083804805763065814971923828125 0.0050882087089121341705322265625 -0.0076610147953033447265625 0.0334457196295261383056640625 0.0350896455347537994384765625 -0.014699481427669525146484375 -0.00612106360495090484619140625 0.008152634836733341217041015625 -0.010515765286982059478759765625 -0.015931189060211181640625 -0.0362893827259540557861328125 -0.0070922039449214935302734375 0.01174394600093364715576171875 0.02232491783797740936279296875 0.02668675594031810760498046875 -0.001201185397803783416748046875 0.01674059964716434478759765625 -0.01870883442461490631103515625 -0.0040321429260075092315673828125 -0.017225392162799835205078125 0.007930028252303600311279296875 -0.01677666790783405303955078125 -0.018856130540370941162109375 -0.0005129041965119540691375732421875 0.058159291744232177734375 0.0188796631991863250732421875 -0.006828981451690196990966796875 0.02367666922509670257568359375 -0.0043063913471996784210205078125 
0.0041845715604722499847412109375 0.00938140414655208587646484375 0.001635967870242893695831298828125 -0.02921880781650543212890625 -0.0013754894025623798370361328125 0.0068299281410872936248779296875 4.219893526169471442699432373046875e-05 -0.0099512226879596710205078125 0.001311076455749571323394775390625 -0.013102413155138492584228515625 -0.0382702015340328216552734375 -0.001925862510688602924346923828125 -0.0071806102059781551361083984375 0.02469442971050739288330078125 0.02150393463671207427978515625 0.01979334466159343719482421875 -0.02253187634050846099853515625 0.012079716660082340240478515625 -0.029870569705963134765625 -0.00252873240970075130462646484375 -0.001530690933577716350555419921875 0.028330273926258087158203125 -0.0044091283343732357025146484375 -0.0083879046142101287841796875 0.00259104627184569835662841796875 0.02543461136519908905029296875 -0.005175794474780559539794921875 -0.0032440745271742343902587890625 0.02949416451156139373779296875 0.007102965377271175384521484375 
0.011590994894504547119140625 -0.0129476226866245269775390625 4.89009471493773162364959716796875e-06 -0.00841376371681690216064453125 -0.0064868335612118244171142578125 0.01700612716376781463623046875 0.0042116753756999969482421875 -0.01748932339251041412353515625 0.0100975595414638519287109375 -0.009966590441763401031494140625 -0.0022458904422819614410400390625 -0.0135074965655803680419921875 -0.02097708545625209808349609375 0.039158247411251068115234375 0.0135626308619976043701171875 0.00980508513748645782470703125 -0.02726210094988346099853515625 0.0043779052793979644775390625 -0.0282745659351348876953125 -0.0048208483494818210601806640625 0.0164093337953090667724609375 0.01453401707112789154052734375 0.013378576375544071197509765625 -0.0044942386448383331298828125 0.00137192918919026851654052734375 0.0308430008590221405029296875 -0.0133942253887653350830078125 0.01010244898498058319091796875 0.0242563672363758087158203125 -0.020818769931793212890625 
-0.01928119547665119171142578125 -0.0040987706743180751800537109375 -0.0177469365298748016357421875 -0.013501365669071674346923828125 0.0028327410109341144561767578125 -0.02248083613812923431396484375 0.0058674104511737823486328125 -0.0222034268081188201904296875 0.01317950524389743804931640625 -0.012799081392586231231689453125 -0.0273435153067111968994140625 0.0006767963059246540069580078125 0.00374243943952023983001708984375 0.02779264934360980987548828125 -0.01619720645248889923095703125 0.01492450945079326629638671875 -0.00166931189596652984619140625 -0.0068606878630816936492919921875 -0.031557776033878326416015625 -0.01957948692142963409423828125 -0.01540474034845829010009765625 -0.00313334050588309764862060546875 -0.004568903706967830657958984375 -0.021419100463390350341796875 0.01411009766161441802978515625 0.031594268977642059326171875 -0.014635510742664337158203125 -0.0053503704257309436798095703125 -0.01132172904908657073974609375 -0.0207697264850139617919921875 
-0.00386275909841060638427734375 -0.0067560044117271900177001953125 -0.0330026634037494659423828125 -0.007390110753476619720458984375 -0.01470225118100643157958984375 -0.010106063447892665863037109375 0.01946123130619525909423828125 0.00746638514101505279541015625 -0.018014021217823028564453125 0.006374198012053966522216796875 -0.01056382246315479278564453125 -0.0166420377790927886962890625 0.02612893842160701751708984375 0.01785522885620594024658203125 0.013828721828758716583251953125 0.01990236528217792510986328125 -0.0235222615301609039306640625 0.0143015868961811065673828125 -0.0074548977427184581756591796875 0.012765561230480670928955078125 -0.01129248924553394317626953125 0.0039480184204876422882080078125 -0.0009509154479019343852996826171875 -0.0041371397674083709716796875 -0.01416016183793544769287109375 0.0213288627564907073974609375 0.0157222263514995574951171875 0.0064174048602581024169921875 -0.02315268479287624359130859375 0.000459842034615576267242431640625 
-0.0071295485831797122955322265625 -0.0169278346002101898193359375 0.008442078717052936553955078125 -0.0019981344230473041534423828125 0.000609361217357218265533447265625 0.006373208947479724884033203125 0.013677905313670635223388671875 -0.0053445086814463138580322265625 -0.00760606117546558380126953125 0.01159573532640933990478515625 -0.00302858068607747554779052734375 -0.0197124518454074859619140625 0.0166287757456302642822265625 0.0046154488809406757354736328125 0.010369540192186832427978515625 -0.0054445187561213970184326171875 0.0074044070206582546234130859375 0.014327486045658588409423828125 -0.0180621109902858734130859375 -0.01006918586790561676025390625 0.000606781803071498870849609375 0.00251626712270081043243408203125 -0.001020692172460258007049560546875 -0.01259342394769191741943359375 0.00325154326856136322021484375 -0.009581648744642734527587890625 0.01697286404669284820556640625 0.01926168240606784820556640625 0.02012325637042522430419921875 -0.0049667381681501865386962890625 
0.006963380612432956695556640625 -0.01621716655790805816650390625 0.013216958381235599517822265625 0.0300892405211925506591796875 0.011115710251033306121826171875 -0.0023819147609174251556396484375 0.002252907492220401763916015625 -0.013822908513247966766357421875 0.0176930688321590423583984375 -0.0042069968767464160919189453125 0.0009747072472237050533294677734375 -0.01812462508678436279296875 -0.02069636993110179901123046875 -0.00735562480986118316650390625 -0.009890585206449031829833984375 0.0007343091419897973537445068359375 -0.0013565882109105587005615234375 -0.013674945570528507232666015625 -0.012067235074937343597412109375 -0.0036756503395736217498779296875 -0.015253559686243534088134765625 -0.00323352566920220851898193359375 -0.00577619113028049468994140625 0.000344472122378647327423095703125 0.014849438332021236419677734375 -0.02194485999643802642822265625 -0.0104785747826099395751953125 -0.0056662992574274539947509765625 0.02859196253120899200439453125 0.0166441313922405242919921875 
0.010895515792071819305419921875 -0.01861877739429473876953125 0.019359648227691650390625 -0.002663590013980865478515625 0.027232505381107330322265625 0.0059247934259474277496337890625 0.01019763760268688201904296875 -0.02257602103054523468017578125 0.01281770505011081695556640625 -0.0139881484210491180419921875 -0.00223976070992648601531982421875 -0.02692390047013759613037109375 -0.04072104394435882568359375 0.006814728491008281707763671875 -0.01146467030048370361328125 0.0084781087934970855712890625 0.030423343181610107421875 0.009200877510011196136474609375 -0.010842169634997844696044921875 0.010585102252662181854248046875 -0.0040377713739871978759765625 0.013437747955322265625 -0.013695538043975830078125 -8.0034122220240533351898193359375e-05 0.02005812712013721466064453125 0.0048399227671325206756591796875 -0.007332929410040378570556640625 -0.0087543465197086334228515625 0.0393127389252185821533203125 0.01090085320174694061279296875 
-0.00946564972400665283203125 -0.015411860309541225433349609375 0.008137376047670841217041015625 0.0039291637949645519256591796875 0.02315458469092845916748046875 0.0159911401569843292236328125 -0.0049067330546677112579345703125 -0.01952331699430942535400390625 0.02041222713887691497802734375 0.00827840529382228851318359375 -0.006461061537265777587890625 -0.0274222902953624725341796875 -0.02399048022925853729248046875 -0.014879514463245868682861328125 0.00277290283702313899993896484375 -0.010737531818449497222900390625 0.03064916841685771942138671875 0.01431482098996639251708984375 -0.00052182865329086780548095703125 -0.01780153624713420867919921875 -0.0048164180479943752288818359375 0.0058485479094088077545166015625 -0.0054590855725109577178955078125 0.011579307727515697479248046875 -0.00351584958843886852264404296875 -0.00881084240972995758056640625 -0.010854761116206645965576171875 -0.009060557000339031219482421875 0.0040725995786488056182861328125 -0.01728572510182857513427734375 
0.020450077950954437255859375 0.0108397491276264190673828125 0.01699979417026042938232421875 -0.00233233906328678131103515625 -0.011142767034471035003662109375 0.007578901015222072601318359375 -0.0034969304688274860382080078125 -0.00455191545188426971435546875 -0.0087880007922649383544921875 -0.004054568707942962646484375 -0.00106829148717224597930908203125 0.000153374145156703889369964599609375 -0.014336754567921161651611328125 -0.00258036213926970958709716796875 -0.014816450886428356170654296875 -0.007306975312530994415283203125 0.0059300973080098628997802734375 0.0009277486242353916168212890625 0.008581793867051601409912109375 -0.0191495977342128753662109375 0.013347697444260120391845703125 -0.01902716793119907379150390625 0.01877374947071075439453125 0.014792685396969318389892578125 0.01673895679414272308349609375 0.012514186091721057891845703125 0.0005911661428399384021759033203125 0.001190091134048998355865478515625 0.0134872086346149444580078125 0.001869847066700458526611328125 
0.00793017260730266571044921875 -0.00645322911441326141357421875 -0.004720778204500675201416015625 -0.0075472532771527767181396484375 0.006458102725446224212646484375 0.00424341298639774322509765625 -0.01004013605415821075439453125 0.006312377750873565673828125 -0.0027934224344789981842041015625 -0.001476923935115337371826171875 0.00202808785252273082733154296875 -0.0083995163440704345703125 0.015322518534958362579345703125 0.000152896755025722086429595947265625 0.014644808135926723480224609375 0.00251909601502120494842529296875 -0.0001050979990395717322826385498046875 0.01668571121990680694580078125 -0.01873989589512348175048828125 -0.0174680687487125396728515625 0.02093259431421756744384765625 -0.0022150683216750621795654296875 -0.01115691848099231719970703125 -0.0076260282658040523529052734375 -0.00040314954821951687335968017578125 -0.0027493699453771114349365234375 0.0076762526296079158782958984375 -0.000380485435016453266143798828125 -0.014591100625693798065185546875 -0.02106279321014881134033203125 
0.00592271797358989715576171875 -0.008942133747041225433349609375 0.001610890147276222705841064453125 0.010173195041716098785400390625 0.020058445632457733154296875 -0.01151703484356403350830078125 0.02273473329842090606689453125 -0.01598458923399448394775390625 0.017885528504848480224609375 0.0230273865163326263427734375 -0.0043018837459385395050048828125 0.001867596874944865703582763671875 0.01959035359323024749755859375 0.0115208886563777923583984375 -0.012556932866573333740234375 0.004912766627967357635498046875 0.005236469209194183349609375 0.008399232290685176849365234375 0.0165295489132404327392578125 -0.0054777092300355434417724609375 0.01872978545725345611572265625 -0.02602802403271198272705078125 0.0232339389622211456298828125 0.0010642637498676776885986328125 0.0027844156138598918914794921875 0.0068714455701410770416259765625 0.008102543652057647705078125 -0.013044913299381732940673828125 -0.02105482481420040130615234375 -0.011983483098447322845458984375 
0.009237303398549556732177734375 0.009223415516316890716552734375 -0.000996299670077860355377197265625 -0.01827616803348064422607421875 0.0408262126147747039794921875 0.01751014403998851776123046875 -0.0042983596213161945343017578125 -0.00423038192093372344970703125 -0.0180628411471843719482421875 -0.004355981014668941497802734375 -0.02163628302514553070068359375 0.00293326214887201786041259765625 -0.0114265196025371551513671875 -0.008137100376188755035400390625 -0.0313628651201725006103515625 -0.0072751822881400585174560546875 0.0063730780966579914093017578125 -0.01514150388538837432861328125 0.0077266418375074863433837890625 0.009924883954226970672607421875 -0.0007530036382377147674560546875 -0.0076439366675913333892822265625 -0.0051488396711647510528564453125 0.007158259861171245574951171875 -0.016753874719142913818359375 0.0186871625483036041259765625 0.001708928379230201244354248046875 0.00992942042648792266845703125 -0.0067365798167884349822998046875 -0.01430307142436504364013671875 
0.01676621846854686737060546875 -0.01815662346780300140380859375 0.026486001908779144287109375 -0.012311114929616451263427734375 0.04530031979084014892578125 0.015108420513570308685302734375 0.0028422265313565731048583984375 0.0033916342072188854217529296875 0.0056521561928093433380126953125 0.001406179391779005527496337890625 -0.0177791975438594818115234375 -0.01027462817728519439697265625 -0.010262378491461277008056640625 -0.02312958426773548126220703125 -0.006666530855000019073486328125 -0.0062223323620855808258056640625 0.009879860095679759979248046875 0.0003322811680845916271209716796875 -0.009284405969083309173583984375 -0.0051473039202392101287841796875 0.00935471616685390472412109375 -0.0062903058715164661407470703125 -0.02114637009799480438232421875 0.01313636265695095062255859375 0.00983388721942901611328125 0.0068514156155288219451904296875 -0.0126240253448486328125 0.012074968777596950531005859375 -0.0060516749508678913116455078125 -0.02075429074466228485107421875 
-0.000806431402452290058135986328125 0.0073910988867282867431640625 0.0470241717994213104248046875 -0.003129436634480953216552734375 0.02802793681621551513671875 0.031374372541904449462890625 -0.009656143374741077423095703125 0.012580289505422115325927734375 -9.77022355073131620883941650390625e-05 0.002275588922202587127685546875 0.0108697004616260528564453125 0.004724462516605854034423828125 -0.0049567786045372486114501953125 -0.03116903640329837799072265625 -0.01821767725050449371337890625 -0.00044017410255037248134613037109375 0.01435598544776439666748046875 -0.0390383340418338775634765625 -0.009232674725353717803955078125 0.0220656692981719970703125 -0.0040090344846248626708984375 -0.0064850817434489727020263671875 -0.00999991036951541900634765625 0.01293527521193027496337890625 0.015277122147381305694580078125 0.01571772433817386627197265625 0.02068465761840343475341796875 -0.004449474625289440155029296875 -0.0158331952989101409912109375 0.006881210021674633026123046875 
-0.003272603265941143035888671875 0.0127927698194980621337890625 0.011286546476185321807861328125 -0.0162428803741931915283203125 0.01547314412891864776611328125 0.00198114966042339801788330078125 0.02035296149551868438720703125 -0.00600664131343364715576171875 0.0211913771927356719970703125 0.00795477069914340972900390625 -0.00701777078211307525634765625 0.00359783484600484371185302734375 -0.0401802025735378265380859375 0.01725335977971553802490234375 -0.0070575703866779804229736328125 -0.00320649403147399425506591796875 0.00456597842276096343994140625 0.00458049215376377105712890625 -0.012178712524473667144775390625 -0.00316450209356844425201416015625 0.009579454548656940460205078125 0.011936041526496410369873046875 -0.0074401167221367359161376953125 -0.01074850000441074371337890625 -0.01121896691620349884033203125 0.01642246730625629425048828125 0.0074199936352670192718505859375 -0.0136788822710514068603515625 -0.0076218731701374053955078125 0.00206797639839351177215576171875 
-0.004655585624277591705322265625 -0.00185375683940947055816650390625 0.01117551885545253753662109375 0.00352360610850155353546142578125 -0.015466497279703617095947265625 0.010653576813638210296630859375 0.00656220130622386932373046875 -0.0035592275671660900115966796875 -0.0043821386061608791351318359375 -0.025246419012546539306640625 0.0003128181560896337032318115234375 -0.0066178743727505207061767578125 -0.00346362008713185787200927734375 0.008163981139659881591796875 -0.0020759017206728458404541015625 -0.0010055196471512317657470703125 0.0026410887949168682098388671875 0.008324651978909969329833984375 -0.02408182062208652496337890625 0.0065647508017718791961669921875 -0.0171920955181121826171875 0.0007816739380359649658203125 -0.01879947073757648468017578125 -0.00375069701112806797027587890625 -0.0034717298112809658050537109375 -0.00213185208849608898162841796875 -0.007279881276190280914306640625 0.0026829354465007781982421875 -0.014235675334930419921875 0.01263094134628772735595703125 
-0.014256127178668975830078125 -0.007624599151313304901123046875 -0.005954080261290073394775390625 0.01483929343521595001220703125 0.0041027921251952648162841796875 -0.038090668618679046630859375 0.008471866138279438018798828125 0.013132886029779911041259765625 0.009562194347381591796875 0.014870329760015010833740234375 0.0127178393304347991943359375 -0.002125768922269344329833984375 0.01358946599066257476806640625 0.0070108496583998203277587890625 -0.000969074317254126071929931640625 -0.00704296492040157318115234375 -0.0007547007990069687366485595703125 0.013967327773571014404296875 0.01892711222171783447265625 0.0068137547932565212249755859375 0.02010817639529705047607421875 0.001707849907688796520233154296875 0.02762063778936862945556640625 -0.01878534816205501556396484375 0.002190255559980869293212890625 -0.000163097050972282886505126953125 0.002187290228903293609619140625 -0.0129830129444599151611328125 0.00229728058911859989166259765625 -0.0210369490087032318115234375 
-0.0113849751651287078857421875 -0.01811109296977519989013671875 0.00782679207623004913330078125 -0.0045662275515496730804443359375 0.001207151100970804691314697265625 -0.0378616116940975189208984375 -0.0070906695909798145294189453125 -0.01630518026649951934814453125 0.0057586343027651309967041015625 0.010902342386543750762939453125 -0.03051221184432506561279296875 -0.0066809342242777347564697265625 0.01700009405612945556640625 0.01722232438623905181884765625 0.00310226273722946643829345703125 0.010722757317125797271728515625 -0.02129365317523479461669921875 0.02046423964202404022216796875 0.02666768245398998260498046875 0.01781240664422512054443359375 -0.010055114515125751495361328125 -0.00021924756583757698535919189453125 -0.001850455417297780513763427734375 -0.0205644778907299041748046875 -0.01766866631805896759033203125 -0.004595882259309291839599609375 0.0205765478312969207763671875 -0.02444036863744258880615234375 -0.01875135861337184906005859375 0.0127251446247100830078125 
-0.01592751406133174896240234375 2.9789340260322205722332000732421875e-05 -0.005899653770029544830322265625 -0.0058886422775685787200927734375 -0.02611142583191394805908203125 -0.0303175710141658782958984375 -0.005505689419806003570556640625 0.0024447850883007049560546875 0.00343737192451953887939453125 -0.011993394233286380767822265625 0.011876250617206096649169921875 -0.01897817663848400115966796875 0.01004250906407833099365234375 0.004607521928846836090087890625 0.0049646045081317424774169921875 0.02457233704626560211181640625 -0.027915097773075103759765625 0.0063017089851200580596923828125 -0.00191268720664083957672119140625 -0.00246004690416157245635986328125 0.0057306396774947643280029296875 -0.01856281794607639312744140625 0.007806159555912017822265625 0.0019892980344593524932861328125 0.0051236762665212154388427734375 0.0059077781625092029571533203125 -0.0052617131732404232025146484375 0.00220705172978341579437255859375 -0.00775835849344730377197265625 0.0062497220933437347412109375 
-0.0020283847115933895111083984375 -0.0013012341223657131195068359375 0.0177276842296123504638671875 -0.0064651011489331722259521484375 -0.02805195190012454986572265625 -0.047712959349155426025390625 0.00259256525896489620208740234375 -0.003027812577784061431884765625 -0.01252334006130695343017578125 -0.00420261733233928680419921875 0.000681634061038494110107421875 0.01758338697254657745361328125 0.0076113748364150524139404296875 0.02700670249760150909423828125 -0.000604973989538848400115966796875 0.010646797716617584228515625 -0.00382028776220977306365966796875 -0.00019332789815962314605712890625 0.0224092006683349609375 -0.0040555247105658054351806640625 0.01384108327329158782958984375 0.0195078514516353607177734375 0.005808168090879917144775390625 -0.01221460290253162384033203125 0.014857031404972076416015625 -0.0057188742794096469879150390625 -0.0052702450193464756011962890625 -0.01755437441170215606689453125 -0.011833512224256992340087890625 0.0095014460384845733642578125 
0.012192093767225742340087890625 -0.0049885739572346210479736328125 0.014828945510089397430419921875 0.013257666490972042083740234375 0.001085134572349488735198974609375 -0.0440611578524112701416015625 -0.0067590470425784587860107421875 0.002295886166393756866455078125 0.01864018850028514862060546875 0.014206272549927234649658203125 0.01876102387905120849609375 -0.00734457559883594512939453125 0.01678846962749958038330078125 -0.013208762742578983306884765625 0.02803993411362171173095703125 -0.0049159531481564044952392578125 0.0059076384641230106353759765625 0.0066738803870975971221923828125 0.00227718055248260498046875 0.006950256414711475372314453125 0.0182687975466251373291015625 0.00987049378454685211181640625 0.003597415052354335784912109375 -0.010712911374866962432861328125 0.007679694332182407379150390625 -0.013836593367159366607666015625 0.01704638265073299407958984375 0.01993773318827152252197265625 -0.037551186978816986083984375 -0.0071195210330188274383544921875 
0.0115552358329296112060546875 -0.010215916670858860015869140625 -0.0096430666744709014892578125 -0.0049113915301859378814697265625 -0.00375747797079384326934814453125 -0.0333793722093105316162109375 -0.0128772146999835968017578125 0.008886567316949367523193359375 -0.007778695784509181976318359375 -0.001201497274450957775115966796875 -0.0063204015605151653289794921875 0.008736995048820972442626953125 0.014264061115682125091552734375 0.019454739987850189208984375 0.013293601572513580322265625 0.013229382224380970001220703125 0.00537125766277313232421875 0.008965375833213329315185546875 0.0157991163432598114013671875 0.012479722499847412109375 0.00337310531176626682281494140625 -0.02411956153810024261474609375 0.01418469659984111785888671875 0.0081816799938678741455078125 -0.004875772632658481597900390625 -0.0039373352192342281341552734375 -0.0039664595387876033782958984375 0.008992240764200687408447265625 0.0044556050561368465423583984375 -0.008025526069104671478271484375 
-0.00892968289554119110107421875 -0.0105200819671154022216796875 0.0164312608540058135986328125 0.02573916874825954437255859375 0.02182392776012420654296875 -0.044684946537017822265625 0.01333750225603580474853515625 0.005604400299489498138427734375 -0.001678087399341166019439697265625 -0.01829886622726917266845703125 -0.025602675974369049072265625 -0.0051064821891486644744873046875 0.0032332427799701690673828125 0.02575649134814739227294921875 0.00219983421266078948974609375 0.0168276913464069366455078125 0.013899660669267177581787109375 0.02236839197576045989990234375 0.01069750078022480010986328125 0.00025831468519754707813262939453125 0.01347176171839237213134765625 -0.0211084522306919097900390625 0.010585111565887928009033203125 -0.003401142545044422149658203125 -0.0004579452215693891048431396484375 5.770337520516477525234222412109375e-05 -0.0050796228460967540740966796875 0.01216247864067554473876953125 -0.0158581435680389404296875 0.013082659803330898284912109375 
0.02749045751988887786865234375 0.0038906089030206203460693359375 0.0169284455478191375732421875 0.0006163358339108526706695556640625 0.006474845111370086669921875 -0.0159408561885356903076171875 0.01982830651104450225830078125 0.0171771757304668426513671875 0.014226823113858699798583984375 0.013431503437459468841552734375 0.0099026076495647430419921875 0.01573977805674076080322265625 0.0094405710697174072265625 -0.000552746816538274288177490234375 0.00310749956406652927398681640625 -0.001283928635530173778533935546875 -0.008056960999965667724609375 -0.010836817324161529541015625 0.002839642576873302459716796875 0.009657275862991809844970703125 0.009176631458103656768798828125 -0.00452297367155551910400390625 -0.0006517781876027584075927734375 -0.011356301605701446533203125 0.00614458136260509490966796875 0.00614635087549686431884765625 0.012552724219858646392822265625 0.015229803510010242462158203125 0.0058742947876453399658203125 -0.008646500296890735626220703125 
-0.000574818928726017475128173828125 -0.01417178846895694732666015625 -0.012465798296034336090087890625 0.014852917753159999847412109375 0.013568119145929813385009765625 -0.0191739089787006378173828125 0.016471914947032928466796875 0.01144985295832157135009765625 -0.016566149890422821044921875 0.004227387718856334686279296875 0.00277920183725655078887939453125 -0.00869471766054630279541015625 -0.02013674937188625335693359375 -0.0008462110417895019054412841796875 -0.0076925787143409252166748046875 0.01339502818882465362548828125 -0.0019531282596290111541748046875 0.0066138398833572864532470703125 0.012214618735015392303466796875 -0.01742629706859588623046875 0.005669933743774890899658203125 -0.017185032367706298828125 0.00788801349699497222900390625 0.01260379888117313385009765625 -0.01292235963046550750732421875 -0.001583473873324692249298095703125 0.02409733831882476806640625 -0.0038370708934962749481201171875 0.0183794759213924407958984375 0.005117301829159259796142578125 
-0.02068323455750942230224609375 -0.00313064525835216045379638671875 -0.014000427909195423126220703125 0.01690134219825267791748046875 -0.03197006881237030029296875 -0.0035676672123372554779052734375 0.0239190757274627685546875 0.02272795327007770538330078125 0.01473586261272430419921875 -0.0027355835773050785064697265625 -0.01440420560538768768310546875 -0.009927229024469852447509765625 0.0447610877454280853271484375 0.013430460356175899505615234375 0.015077777206897735595703125 0.000882856198586523532867431640625 -0.04225121438503265380859375 0.03052584268152713775634765625 0.011779705993831157684326171875 0.012606495060026645660400390625 0.0069596688263118267059326171875 -0.00820670463144779205322265625 0.01436578296124935150146484375 0.00878793187439441680908203125 0.01119259558618068695068359375 0.01255427300930023193359375 -0.007900613360106945037841796875 -0.01896801404654979705810546875 -0.031376473605632781982421875 -0.0044471216388046741485595703125 
