Dimensions:
2500 30 5
Weights Input To Hidden:
0.01596450619399547576904296875 0.0118621923029422760009765625 0.008646053262054920196533203125 -0.00769338570535182952880859375 0.010125298984348773956298828125 -0.0027050455100834369659423828125 0.010702709667384624481201171875 0.00038819780456833541393280029296875 -0.00846498273313045501708984375 -0.0315541811287403106689453125 0.006601574830710887908935546875 -0.010736008174717426300048828125 0.01717651449143886566162109375 0.0066673881374299526214599609375 -0.000703538884408771991729736328125 -0.0060768756084144115447998046875 -0.01256822980940341949462890625 -0.012195400893688201904296875 0.01080224849283695220947265625 -0.0178538747131824493408203125 -0.012935562990605831146240234375 0.00280503742396831512451171875 0.013018495403230190277099609375 -0.015254977159202098846435546875 0.010737602598965167999267578125 0.008449128828942775726318359375 0.0182792581617832183837890625 -0.0042290962301194667816162109375 0.007624336518347263336181640625 0.00900829397141933441162109375 
-0.0058773420751094818115234375 -0.0213571898639202117919921875 -0.012911326251924037933349609375 0.0001813922426663339138031005859375 -1.41161099236342124640941619873046875e-05 0.017486892640590667724609375 0.01432468183338642120361328125 -0.02313453517854213714599609375 -0.013316695578396320343017578125 -0.0217825286090373992919921875 -0.0066521256230771541595458984375 0.01316063106060028076171875 -0.01053113304078578948974609375 -0.0039780014194548130035400390625 0.0092369616031646728515625 -0.00291312974877655506134033203125 0.0070730489678680896759033203125 -0.012086619623005390167236328125 -0.01905191503465175628662109375 -0.02206053398549556732177734375 -0.012350815348327159881591796875 -0.00079224421642720699310302734375 0.0178453512489795684814453125 0.008652959950268268585205078125 0.000404496560804545879364013671875 0.02730937488377094268798828125 0.025994695723056793212890625 0.0257537029683589935302734375 0.01789436303079128265380859375 0.0363372899591922760009765625 
-0.014994819648563861846923828125 -0.0096876211464405059814453125 0.0119635127484798431396484375 -0.01785588450729846954345703125 -0.008359984494745731353759765625 -0.0019089668057858943939208984375 -0.0042437021620571613311767578125 -0.03352890908718109130859375 -0.010168938897550106048583984375 -0.00849544815719127655029296875 -0.008172747679054737091064453125 0.02404015697538852691650390625 0.014006177894771099090576171875 0.0097055025398731231689453125 -0.0207948721945285797119140625 0.008851516060531139373779296875 -0.01279594004154205322265625 0.005900339223444461822509765625 -0.0070119374431669712066650390625 -0.0281447283923625946044921875 0.01720603369176387786865234375 -0.00458528287708759307861328125 0.00679167546331882476806640625 0.013149264268577098846435546875 0.012936313636600971221923828125 0.03102340735495090484619140625 -0.004083135165274143218994140625 0.02142466604709625244140625 0.00070563540793955326080322265625 0.0404536016285419464111328125 
-0.004610833711922168731689453125 0.008774481713771820068359375 0.008412967436015605926513671875 -0.007700276561081409454345703125 -0.004211858846247196197509765625 -0.00150834280066192150115966796875 -0.01226867735385894775390625 0.00040083107887767255306243896484375 0.03107391111552715301513671875 0.001353870495222508907318115234375 0.02049770019948482513427734375 0.0151002407073974609375 -0.0051976400427520275115966796875 0.02383003942668437957763671875 0.0037841536104679107666015625 -0.01732219755649566650390625 0.01751096732914447784423828125 -0.012752509675920009613037109375 -0.01899091340601444244384765625 -0.0024498994462192058563232421875 0.00283480226062238216400146484375 0.0160208232700824737548828125 -0.028925083577632904052734375 0.016806639730930328369140625 0.012614927254617214202880859375 0.00211055506952106952667236328125 0.0060205734334886074066162109375 0.03026024065911769866943359375 -0.0049844286404550075531005859375 -0.001527029671706259250640869140625 
-0.00181617843918502330780029296875 -0.01323388703167438507080078125 -0.009545967914164066314697265625 -0.0127031691372394561767578125 0.0216392017900943756103515625 0.01755605824291706085205078125 0.009941532276570796966552734375 0.000716363429091870784759521484375 -0.01754123531281948089599609375 -0.0157878696918487548828125 0.0085510909557342529296875 0.0085295848548412322998046875 0.0200894437730312347412109375 -6.51274458505213260650634765625e-05 0.010036858730018138885498046875 0.008423219434916973114013671875 -0.01766677387058734893798828125 0.00807793997228145599365234375 -0.01134170033037662506103515625 -0.0223623476922512054443359375 -0.00687976740300655364990234375 0.010953734628856182098388671875 -0.01115749590098857879638671875 -0.005687840282917022705078125 -0.0200522877275943756103515625 -0.0001951749436557292938232421875 0.017681889235973358154296875 0.020186863839626312255859375 -0.013501249253749847412109375 -0.007331750355660915374755859375 
-0.00183574599213898181915283203125 -0.001183472923003137111663818359375 0.01636439375579357147216796875 -0.011744312942028045654296875 -0.013442060910165309906005859375 0.00201365700922906398773193359375 -0.0045457747764885425567626953125 -0.007718636654317378997802734375 -0.01452584378421306610107421875 -0.008170259185135364532470703125 0.01314757764339447021484375 0.015586711466312408447265625 0.0071255224756896495819091796875 -0.0076864431612193584442138671875 -0.0075218402780592441558837890625 0.00310728489421308040618896484375 0.014520606957376003265380859375 -0.0204835794866085052490234375 -0.0053025032393634319305419921875 -0.002095468342304229736328125 -0.008190347813069820404052734375 -0.011617281474173069000244140625 0.0162807591259479522705078125 0.00230068410746753215789794921875 -0.00421044416725635528564453125 0.02231694757938385009765625 -0.000588176655583083629608154296875 0.010002471506595611572265625 0.003340943716466426849365234375 0.001487201894633471965789794921875 
-0.0040993201546370983123779296875 0.003111856989562511444091796875 -0.0073718926869332790374755859375 -0.009913279674947261810302734375 0.009130421094596385955810546875 -0.01399546675384044647216796875 0.0060989446938037872314453125 -0.02243685163557529449462890625 -0.001157947001047432422637939453125 0.0063118278048932552337646484375 -0.00583594478666782379150390625 -0.008029879070818424224853515625 -0.00453887321054935455322265625 0.0230110175907611846923828125 -0.020389981567859649658203125 -0.005338795483112335205078125 -0.0043328716419637203216552734375 -0.011745092459022998809814453125 -0.00423612631857395172119140625 -0.011222834698855876922607421875 0.012919868342578411102294921875 -0.016371272504329681396484375 0.001983397640287876129150390625 0.00528942048549652099609375 -0.01696796156466007232666015625 0.001808235771022737026214599609375 -0.011867825873196125030517578125 -0.000658815144561231136322021484375 -0.0231182835996150970458984375 -0.0043593798764050006866455078125 
-0.0061141387559473514556884765625 0.009513164870440959930419921875 0.0056551084853708744049072265625 -0.006880082190036773681640625 -0.011697362177073955535888671875 0.02242586575448513031005859375 -0.013384602963924407958984375 -0.005998726002871990203857421875 0.0009126873337663710117340087890625 0.0065795737318694591522216796875 0.0184994228184223175048828125 0.0209970213472843170166015625 0.01020274125039577484130859375 -0.013312851078808307647705078125 -0.008655319921672344207763671875 0.01912901364266872406005859375 -0.01676852814853191375732421875 -0.009081249125301837921142578125 0.0077030397951602935791015625 0.0176431126892566680908203125 0.009639876894652843475341796875 0.00765573419630527496337890625 -0.001774654374457895755767822265625 0.005189202725887298583984375 0.01717971079051494598388671875 -0.00870038568973541259765625 0.0062009464018046855926513671875 -0.012911853380501270294189453125 0.00218382361344993114471435546875 -0.015439839102327823638916015625 
-0.008073491044342517852783203125 -0.0114635415375232696533203125 0.017857134342193603515625 -0.0036027920432388782501220703125 -0.00045062144636176526546478271484375 0.013173450715839862823486328125 -0.0067340419627726078033447265625 -0.016704626381397247314453125 -0.01711459644138813018798828125 -0.022961325943470001220703125 -0.014766988344490528106689453125 -0.015506044961512088775634765625 0.0058602723293006420135498046875 -0.006877242587506771087646484375 0.00815211236476898193359375 -0.01545214839279651641845703125 -0.012146226130425930023193359375 -0.0076124668121337890625 -0.00280140084214508533477783203125 -0.01215649954974651336669921875 -0.00919420458376407623291015625 0.008735095150768756866455078125 -0.0184223987162113189697265625 -0.01236475817859172821044921875 0.010837306268513202667236328125 0.012436783872544765472412109375 -0.001721762935630977153778076171875 0.003311042673885822296142578125 0.006482996977865695953369140625 -0.0079557113349437713623046875 
-0.0177523456513881683349609375 -0.00452709197998046875 -0.00097426050342619419097900390625 0.01262324862182140350341796875 0.010922065936028957366943359375 0.006685704924166202545166015625 0.0047713392414152622222900390625 0.0039439643733203411102294921875 0.011941510252654552459716796875 -0.011193335056304931640625 0.014482162892818450927734375 -0.0040745562873780727386474609375 -0.0052634817548096179962158203125 0.02058534510433673858642578125 0.0028150496073067188262939453125 0.0077144154347479343414306640625 0.01772588305175304412841796875 0.013690683059394359588623046875 0.01750152744352817535400390625 0.012767021544277667999267578125 0.0055877999402582645416259765625 0.0151171721518039703369140625 -0.018169648945331573486328125 0.009470607154071331024169921875 0.014702306129038333892822265625 0.0236732400953769683837890625 -0.00383749767206609249114990234375 0.013544895686209201812744140625 0.013636185787618160247802734375 -0.00072207930497825145721435546875 
0.01865375973284244537353515625 0.005759974010288715362548828125 0.0057468623854219913482666015625 -0.0071600298397243022918701171875 0.01631612516939640045166015625 -0.01138396561145782470703125 -0.0048683397471904754638671875 0.025818221271038055419921875 0.01579616777598857879638671875 0.013383296318352222442626953125 0.01810103096067905426025390625 0.00266742031089961528778076171875 0.001396215520799160003662109375 -0.0034716534428298473358154296875 -0.001616796595044434070587158203125 -0.0134824812412261962890625 0.01777715794742107391357421875 -0.021586559712886810302734375 0.006338342092931270599365234375 0.0389877259731292724609375 -0.0165466554462909698486328125 -0.0209863297641277313232421875 -0.03084895573556423187255859375 0.0253370665013790130615234375 -0.01207736693322658538818359375 -0.0001086019983631558716297149658203125 -0.039088211953639984130859375 0.025263704359531402587890625 -0.0066672451794147491455078125 -0.040762133896350860595703125 
-0.00203819922171533107757568359375 -0.008694083429872989654541015625 -0.005619504489004611968994140625 -0.008940462954342365264892578125 -0.01898963190615177154541015625 -0.0114007852971553802490234375 -0.011779653839766979217529296875 0.00705063529312610626220703125 0.02469656057655811309814453125 0.0056469445116817951202392578125 -0.009173966012895107269287109375 -0.005211059935390949249267578125 -0.00970173068344593048095703125 0.011392203159630298614501953125 0.0214039422571659088134765625 0.014979288913309574127197265625 -0.00950033962726593017578125 0.023627914488315582275390625 0.00793979503214359283447265625 0.010347592644393444061279296875 0.010748702101409435272216796875 0.010353200137615203857421875 -0.010803960263729095458984375 0.014484033919870853424072265625 -0.012775787152349948883056640625 0.011173130013048648834228515625 -0.00207775481976568698883056640625 -0.0062953880988061428070068359375 0.015487915836274623870849609375 -0.020089559257030487060546875 
0.0209893248975276947021484375 0.009392756037414073944091796875 -0.01210702024400234222412109375 0.00496283732354640960693359375 -0.0213517285883426666259765625 0.00264566740952432155609130859375 -0.0148168765008449554443359375 0.014700501225888729095458984375 0.001656410284340381622314453125 -0.007976015098392963409423828125 0.019381344318389892578125 -0.00137506728060543537139892578125 0.01311361789703369140625 -0.006156026385724544525146484375 0.01402526907622814178466796875 0.0129894912242889404296875 -0.0076823686249554157257080078125 0.00059809046797454357147216796875 -0.0081161968410015106201171875 0.00232203560881316661834716796875 0.013787035830318927764892578125 0.017973363399505615234375 0.0213528387248516082763671875 -0.024482525885105133056640625 -0.0129747204482555389404296875 0.00245645712129771709442138671875 -0.0006728651351295411586761474609375 -0.015350288711488246917724609375 0.008829702623188495635986328125 -0.01250495202839374542236328125 
-0.0076974895782768726348876953125 0.001274295034818351268768310546875 -0.0039739296771585941314697265625 -0.031585760414600372314453125 -0.0213730446994304656982421875 -0.011049949564039707183837890625 0.01118323020637035369873046875 -0.010416668839752674102783203125 0.004849140532314777374267578125 0.00456484965980052947998046875 -0.00740935839712619781494140625 0.0268498994410037994384765625 0.010139622725546360015869140625 -0.0168881528079509735107421875 0.0056650936603546142578125 0.0217477418482303619384765625 -0.0061416779644787311553955078125 -0.01778630912303924560546875 -0.005928569473326206207275390625 -0.007338144816458225250244140625 -0.0165762491524219512939453125 0.00209690560586750507354736328125 -0.0113458372652530670166015625 0.00109807704575359821319580078125 0.014733373187482357025146484375 0.0051063396967947483062744140625 0.015133517794311046600341796875 0.00593382306396961212158203125 0.008783946745097637176513671875 -0.010139252059161663055419921875 
-0.0182585977017879486083984375 -0.0053764893673360347747802734375 0.013845585286617279052734375 0.0062269815243780612945556640625 -0.00973319448530673980712890625 0.01623326726257801055908203125 -0.02122769318521022796630859375 -0.00359117425978183746337890625 0.01677863486111164093017578125 0.00734527409076690673828125 0.002638957463204860687255859375 0.03026236593723297119140625 0.015521365217864513397216796875 -0.01227913610637187957763671875 0.0060164141468703746795654296875 0.0208984129130840301513671875 -0.000954071874730288982391357421875 0.0145883858203887939453125 -0.0095623172819614410400390625 -0.01763865910470485687255859375 -0.00326743326149880886077880859375 0.011856528930366039276123046875 -0.01415048725903034210205078125 -0.0171363651752471923828125 0.00254555162973701953887939453125 -0.015451545827090740203857421875 0.0109541527926921844482421875 -0.00332718901336193084716796875 0.0023716054856777191162109375 -0.001351924263872206211090087890625 
0.004275755025446414947509765625 -0.02402748167514801025390625 0.015513918362557888031005859375 0.02018297649919986724853515625 0.01290657185018062591552734375 0.00205380073748528957366943359375 -0.00774433650076389312744140625 -0.02278677932918071746826171875 -0.008511267602443695068359375 -0.02905930764973163604736328125 -0.0187165550887584686279296875 0.01834396459162235260009765625 6.85696650180034339427947998046875e-05 -0.006802213378250598907470703125 0.001834060880355536937713623046875 0.0040189535357058048248291015625 -0.01288483478128910064697265625 -0.011226820759475231170654296875 -0.00531707890331745147705078125 0.010813171975314617156982421875 -0.011697440408170223236083984375 -0.010294144041836261749267578125 -0.01636448688805103302001953125 -0.012882041744887828826904296875 -0.001710495562292635440826416015625 0.0152632258832454681396484375 0.023970700800418853759765625 -0.0004559935186989605426788330078125 0.00018458577687852084636688232421875 -0.0024507171474397182464599609375 
0.012608551420271396636962890625 -0.0246399454772472381591796875 -0.0069049261510372161865234375 0.009195058606564998626708984375 0.00110454275272786617279052734375 0.0233193822205066680908203125 0.003936148248612880706787109375 0.01523926295340061187744140625 0.01443939097225666046142578125 0.01625072956085205078125 -0.001649974961765110492706298828125 0.00376247731037437915802001953125 -0.0069874324835836887359619140625 0.0120817758142948150634765625 0.00936220027506351470947265625 -0.0006885633920319378376007080078125 -0.0013980367220938205718994140625 0.0019974075257778167724609375 -0.006448055617511272430419921875 -0.00866919569671154022216796875 0.00641653500497341156005859375 -0.0042290627025067806243896484375 0.00117168691940605640411376953125 -0.011149610392749309539794921875 -0.011720620095729827880859375 0.0121397562325000762939453125 0.015593527816236019134521484375 -0.008536954410374164581298828125 0.02018785290420055389404296875 -0.01162562705576419830322265625 
0.0202142111957073211669921875 0.012114242650568485260009765625 0.008839034475386142730712890625 -0.01483639515936374664306640625 0.01199305057525634765625 -0.0072725047357380390167236328125 -0.013471291400492191314697265625 0.0019353455863893032073974609375 -0.00804229080677032470703125 0.0084953345358371734619140625 -0.01640659384429454803466796875 0.0044012181460857391357421875 -0.013711563311517238616943359375 0.02026538550853729248046875 -0.0194722115993499755859375 0.001870137057267129421234130859375 -0.012864269316196441650390625 0.02264960668981075286865234375 -0.015470854938030242919921875 -0.0016627009026706218719482421875 0.0129968561232089996337890625 -0.0036139194853603839874267578125 -0.0029836450703442096710205078125 0.01613179780542850494384765625 -0.00226768129505217075347900390625 0.005683834664523601531982421875 0.001290320069529116153717041015625 0.0111484341323375701904296875 -0.010674492456018924713134765625 0.01788496784865856170654296875 
0.0046771946363151073455810546875 -0.0034966170787811279296875 -0.01638298667967319488525390625 0.005426176823675632476806640625 -0.018217243254184722900390625 0.0046465373598039150238037109375 -0.0171277187764644622802734375 0.012619913555681705474853515625 -0.009345409460365772247314453125 0.01062193326652050018310546875 -0.014490743167698383331298828125 0.00931197218596935272216796875 0.0169272460043430328369140625 0.015399348922073841094970703125 0.00317379902116954326629638671875 -0.00134267634712159633636474609375 -0.0156828723847866058349609375 -0.00206166016869246959686279296875 0.0111226402223110198974609375 0.009408964775502681732177734375 -0.0029954346828162670135498046875 0.01385191269218921661376953125 0.008081011474132537841796875 0.014008386991918087005615234375 0.00136124831624329090118408203125 -0.012150944210588932037353515625 -0.012801348231732845306396484375 0.007268392480909824371337890625 -0.0039797131903469562530517578125 -0.00145840062759816646575927734375 
-0.0160455740988254547119140625 0.0070820939727127552032470703125 -0.014992557466030120849609375 -0.01268172450363636016845703125 -0.010084061883389949798583984375 0.0150562636554241180419921875 0.0062665008008480072021484375 -0.0040306388400495052337646484375 0.0071862526237964630126953125 -0.013830177485942840576171875 0.01697129197418689727783203125 0.011476350016891956329345703125 -0.01581975631415843963623046875 0.01609166897833347320556640625 0.001327318255789577960968017578125 -0.011176728643476963043212890625 -0.00031092736753635108470916748046875 -0.00735021568834781646728515625 -0.02108204923570156097412109375 -0.00202261842787265777587890625 -0.0107541643083095550537109375 -0.00261966395191848278045654296875 -0.0050573213957250118255615234375 0.0106424055993556976318359375 0.008421671576797962188720703125 0.0011077173985540866851806640625 0.0087590850889682769775390625 0.0183861665427684783935546875 0.014731551520526409149169921875 0.01269933395087718963623046875 
0.01002639345824718475341796875 0.024872563779354095458984375 -0.015537120401859283447265625 0.00347699341364204883575439453125 0.00290978141129016876220703125 -0.0008509982726536691188812255859375 -0.014571313746273517608642578125 0.01533923111855983734130859375 0.001692663528956472873687744140625 -0.00447317771613597869873046875 -0.0059860306791961193084716796875 -0.004115953110158443450927734375 0.01442271657288074493408203125 0.0194577090442180633544921875 0.0128622688353061676025390625 0.02017306722700595855712890625 -0.0006275617633946239948272705078125 -0.0107896588742733001708984375 -0.006639881990849971771240234375 0.00950179994106292724609375 0.011695790104568004608154296875 0.010210824199020862579345703125 0.0077372663654386997222900390625 -0.004627012647688388824462890625 -0.00870271213352680206298828125 -0.00924721173942089080810546875 -0.012634404934942722320556640625 -0.01121877133846282958984375 -0.001906713354401290416717529296875 -0.002628974616527557373046875 
0.021058894693851470947265625 -0.0060390927828848361968994140625 0.010914332233369350433349609375 -0.01140589825809001922607421875 -0.0167318992316722869873046875 -0.02180895023047924041748046875 -0.009778293780982494354248046875 -0.006271346472203731536865234375 0.0160433314740657806396484375 -0.01885940320789813995361328125 -0.00333571736700832843780517578125 0.008195876143872737884521484375 -0.011303894221782684326171875 -0.009076186455786228179931640625 0.0066100149415433406829833984375 0.0074800662696361541748046875 -0.01799217797815799713134765625 0.01364861615002155303955078125 0.011882039718329906463623046875 0.01593982614576816558837890625 -0.0037905420176684856414794921875 -0.01889745891094207763671875 0.015314287506043910980224609375 0.010657957755029201507568359375 -0.01812935434281826019287109375 0.00525264255702495574951171875 0.002013103105127811431884765625 -0.004852219484746456146240234375 0.01770222373306751251220703125 -0.01212902925908565521240234375 
-0.007287344895303249359130859375 0.0043204431422054767608642578125 -0.0080458559095859527587890625 0.01606853492558002471923828125 -0.012795305810868740081787109375 -0.02776123024523258209228515625 0.00157385878264904022216796875 0.00458417832851409912109375 -0.011665794067084789276123046875 -0.01223174668848514556884765625 -0.01632370613515377044677734375 -0.015847109258174896240234375 0.0179791636765003204345703125 0.008151608519256114959716796875 -0.00293022044934332370758056640625 -0.010131537914276123046875 0.0161717496812343597412109375 0.01030838303267955780029296875 0.02624129690229892730712890625 9.051565939444117248058319091796875e-06 -0.016092874109745025634765625 0.001109506003558635711669921875 -0.0032546357251703739166259765625 0.007617435418069362640380859375 -0.014185291714966297149658203125 -0.013472440652549266815185546875 0.0071997749619185924530029296875 -0.0046213786117732524871826171875 -0.011287639848887920379638671875 0.014416868798434734344482421875 
0.01627737097442150115966796875 0.005811281502246856689453125 -0.0046415622346103191375732421875 0.0184354521334171295166015625 -0.01429481804370880126953125 -0.0262449271976947784423828125 0.008898512460291385650634765625 0.01755308173596858978271484375 -0.0005510690971277654170989990234375 0.01299611292779445648193359375 0.01687093079090118408203125 -0.0201277770102024078369140625 -0.014444686472415924072265625 -0.010188586078584194183349609375 0.0172764994204044342041015625 -0.00993453525006771087646484375 -0.000813938677310943603515625 -0.0019602631218731403350830078125 -0.00085823959670960903167724609375 0.02744460292160511016845703125 0.00301800458692014217376708984375 -0.0113210491836071014404296875 0.0164778046309947967529296875 -0.01405950449407100677490234375 -0.01090117357671260833740234375 0.008665413595736026763916015625 -0.02160765416920185089111328125 -0.0291661359369754791259765625 -0.01476557366549968719482421875 -0.00948349945247173309326171875 
0.00716437958180904388427734375 0.008160126395523548126220703125 0.01391634903848171234130859375 0.012126329354941844940185546875 -0.0052052899263799190521240234375 -0.03039495833218097686767578125 0.0052695707418024539947509765625 0.012152747251093387603759765625 -0.012362391687929630279541015625 0.0203885100781917572021484375 0.01723126135766506195068359375 -0.0006644940585829317569732666015625 -0.01638223044574260711669921875 -0.00147446733899414539337158203125 -0.0182586610317230224609375 0.00362429744563996791839599609375 0.010779581032693386077880859375 -0.013267383910715579986572265625 0.02024968154728412628173828125 -0.00397234223783016204833984375 0.01968016289174556732177734375 -0.012111860327422618865966796875 0.0058550280518829822540283203125 -0.014912300743162631988525390625 0.0058242022059857845306396484375 -0.02039371244609355926513671875 -0.00367116299457848072052001953125 -0.0070916037075221538543701171875 0.01658318936824798583984375 0.0067636105231940746307373046875 
0.007884726859629154205322265625 0.0076786838471889495849609375 -0.0077624931000173091888427734375 0.015299458988010883331298828125 0.0103804953396320343017578125 -0.02563534677028656005859375 -0.01866565458476543426513671875 0.0050168000161647796630859375 -0.01597787626087665557861328125 0.02151438035070896148681640625 0.01306799985468387603759765625 -0.02106485329568386077880859375 0.00979211740195751190185546875 0.0077605391852557659149169921875 0.008124612271785736083984375 -0.005470283329486846923828125 -0.00369883724488317966461181640625 -0.00125806615687906742095947265625 0.02007855288684368133544921875 0.02301708795130252838134765625 0.0211366228759288787841796875 -0.017762713134288787841796875 0.014091205783188343048095703125 -0.0067538581788539886474609375 -0.0009505464113317430019378662109375 -0.01698960177600383758544921875 0.00279305805452167987823486328125 -0.031264640390872955322265625 0.00222788495011627674102783203125 -0.0161207057535648345947265625 
0.0006593069992959499359130859375 -0.00682571344077587127685546875 0.010849741287529468536376953125 0.0037603676319122314453125 -0.0041949371807277202606201171875 -0.0296653993427753448486328125 -0.0010469718836247920989990234375 0.0065052970312535762786865234375 0.013404548168182373046875 0.0197390653192996978759765625 -0.0024906839244067668914794921875 0.0045667658559978008270263671875 0.005387016572058200836181640625 -0.001295552588999271392822265625 0.00582527182996273040771484375 0.01650446467101573944091796875 -0.00044423094368539750576019287109375 0.00199213321320712566375732421875 -0.0062086530961096286773681640625 0.00259955157525837421417236328125 0.01066692173480987548828125 -0.01848114840686321258544921875 0.0077886027283966541290283203125 -0.010377071797847747802734375 -0.012493836693465709686279296875 -0.0062781120650470256805419921875 0.0007208097376860678195953369140625 -0.01594153232872486114501953125 0.0075622438453137874603271484375 0.004107565619051456451416015625 
0.009579575620591640472412109375 -0.0095759369432926177978515625 -0.02186907827854156494140625 -0.005178782157599925994873046875 0.0047331419773399829864501953125 -0.018508218228816986083984375 -0.0200966410338878631591796875 0.013085556216537952423095703125 -0.01811294816434383392333984375 -0.013551223091781139373779296875 0.02034912817180156707763671875 -0.0196966417133808135986328125 0.0154591500759124755859375 -0.02463379688560962677001953125 -0.008069994859397411346435546875 0.02284706197679042816162109375 0.02030206657946109771728515625 0.01224246434867382049560546875 0.0273965187370777130126953125 0.001678562141023576259613037109375 0.00286812731064856052398681640625 -0.0020958627574145793914794921875 0.0233485884964466094970703125 -0.001565999933518469333648681640625 -0.01857675611972808837890625 -0.02379973046481609344482421875 -0.020656384527683258056640625 -0.0263259448111057281494140625 -0.017218820750713348388671875 -0.010862179100513458251953125 
-0.018115453422069549560546875 0.015424833633005619049072265625 -0.0185958445072174072265625 0.0107940733432769775390625 0.0163764096796512603759765625 -0.0238471962511539459228515625 -0.00766088627278804779052734375 0.025770507752895355224609375 -0.015008184127509593963623046875 0.01469983719289302825927734375 0.0004348359070718288421630859375 -0.0167598314583301544189453125 0.016631625592708587646484375 -0.013113603927195072174072265625 -0.00812577642500400543212890625 -0.0076467837207019329071044921875 0.01721545867621898651123046875 0.013731031678617000579833984375 0.0063042524270713329315185546875 0.02588415332138538360595703125 0.01793274469673633575439453125 -0.0065376446582376956939697265625 0.00476116500794887542724609375 -0.010706060566008090972900390625 -0.01571804843842983245849609375 -0.006734845228493213653564453125 0.008646314032375812530517578125 -0.001865655765868723392486572265625 0.011307408101856708526611328125 -0.02646681107580661773681640625 
-0.01013105921447277069091796875 -0.007873938418924808502197265625 0.01086660660803318023681640625 0.01877178251743316650390625 0.01660848222672939300537109375 -0.013507661409676074981689453125 0.0158138237893581390380859375 -0.0044668950140476226806640625 -0.02193644456565380096435546875 -0.008362899534404277801513671875 0.0182047747075557708740234375 0.00232995371334254741668701171875 0.02053730376064777374267578125 -0.01337174512445926666259765625 -0.006764247082173824310302734375 0.015470336191356182098388671875 -0.01633038185536861419677734375 -0.015316017903387546539306640625 0.005311145447194576263427734375 -0.013977193273603916168212890625 0.019941218197345733642578125 0.0153005756437778472900390625 0.0044907755218446254730224609375 0.01643477566540241241455078125 0.012175120413303375244140625 0.009541101753711700439453125 0.0040317517705261707305908203125 0.01236404292285442352294921875 -0.013023228384554386138916015625 0.010275659151375293731689453125 
-0.0052387206815183162689208984375 0.01797998510301113128662109375 -0.013487343676388263702392578125 0.001072634593583643436431884765625 0.0061478097923099994659423828125 0.0103777311742305755615234375 0.0101440362632274627685546875 -0.01572722382843494415283203125 0.01786258630454540252685546875 0.02275264449417591094970703125 0.015634201467037200927734375 -0.00651586055755615234375 0.0177345015108585357666015625 0.01787593029439449310302734375 -0.0171727798879146575927734375 0.01342830620706081390380859375 -0.01162194646894931793212890625 -0.006547885946929454803466796875 0.01815158687531948089599609375 -0.01042919792234897613525390625 -0.0068639921955764293670654296875 0.00066226790659129619598388671875 -0.01308224163949489593505859375 0.01895754970610141754150390625 -0.00671631284058094024658203125 0.0008760438649915158748626708984375 -0.01615297980606555938720703125 0.001152489916421473026275634765625 -0.0068285376764833927154541015625 -0.009354191832244396209716796875 
0.014823636971414089202880859375 -0.008491075597703456878662109375 -0.01872135698795318603515625 -0.001036638510413467884063720703125 0.011256613768637180328369140625 -0.0039741094224154949188232421875 -0.01767383515834808349609375 0.0044126692228019237518310546875 -0.004577241837978363037109375 -0.00012335416977293789386749267578125 -0.0152476243674755096435546875 -0.010640449821949005126953125 0.01491770334541797637939453125 0.0055823274888098239898681640625 -0.00211901380680501461029052734375 0.02294103242456912994384765625 -0.01287665404379367828369140625 -0.0075034243054687976837158203125 0.011195241473615169525146484375 0.009357626549899578094482421875 0.00255489791743457317352294921875 0.00175030226819217205047607421875 -0.0162369497120380401611328125 -0.00837071798741817474365234375 -0.005590908229351043701171875 0.02370628900825977325439453125 0.01261840760707855224609375 -0.0115689747035503387451171875 0.015227026306092739105224609375 0.014888181351125240325927734375 
0.01806428842246532440185546875 0.0125232636928558349609375 0.0173767693340778350830078125 0.00160525948740541934967041015625 -0.013834749348461627960205078125 0.015355319716036319732666015625 0.0071519711054861545562744140625 0.01699805818498134613037109375 0.0026332694105803966522216796875 0.000738152302801609039306640625 0.00231308094225823879241943359375 -0.014143876731395721435546875 -0.00191889167763292789459228515625 -0.00235295086167752742767333984375 0.0037916149012744426727294921875 0.023276321589946746826171875 0.008482865989208221435546875 0.0194411240518093109130859375 0.012470540590584278106689453125 -0.0171802602708339691162109375 0.008605063892900943756103515625 -0.008431107737123966217041015625 0.0058801514096558094024658203125 -0.011507301591336727142333984375 -0.018164537847042083740234375 0.01874696649610996246337890625 0.0154566578567028045654296875 0.01659219525754451751708984375 0.000173206804902292788028717041015625 0.01172126829624176025390625 
0.011632313020527362823486328125 0.00210584141314029693603515625 -0.0218099243938922882080078125 -0.01319853402674198150634765625 0.012786311097443103790283203125 0.01313400827348232269287109375 -0.01809543929994106292724609375 -0.00948013179004192352294921875 0.0189552344381809234619140625 -0.01476397179067134857177734375 0.01894470117986202239990234375 -0.0055587901733815670013427734375 -0.00266576022841036319732666015625 -0.00298187951557338237762451171875 -0.01012794673442840576171875 0.0067954859696328639984130859375 0.010155849158763885498046875 0.00669126771390438079833984375 -0.001765111577697098255157470703125 0.003107654862105846405029296875 0.0069434382021427154541015625 0.013785530813038349151611328125 -0.002493166364729404449462890625 -0.015199226327240467071533203125 -0.0005490526673384010791778564453125 6.29527421551756560802459716796875e-05 0.00875227153301239013671875 0.010409273207187652587890625 0.016910381615161895751953125 -0.01226176507771015167236328125 
0.00366427819244563579559326171875 0.011146337725222110748291015625 -0.01560082472860813140869140625 -0.0208140052855014801025390625 -0.010666887275874614715576171875 0.001862857840023934841156005859375 0.0133675746619701385498046875 0.00595472566783428192138671875 0.022927701473236083984375 0.00116631784476339817047119140625 -0.0034431745298206806182861328125 -0.001768213696777820587158203125 0.00541129894554615020751953125 -0.007309026084840297698974609375 0.012755966745316982269287109375 0.014890319667756557464599609375 0.006951277144253253936767578125 0.0042568459175527095794677734375 0.008582732640206813812255859375 -0.006990529596805572509765625 0.01029775477945804595947265625 0.0045897713862359523773193359375 0.007942818105220794677734375 -0.02162524126470088958740234375 0.0060975863598287105560302734375 -0.01206269674003124237060546875 0.01417028717696666717529296875 0.00669849850237369537353515625 0.00167581788264214992523193359375 -0.01489069871604442596435546875 
-0.017700202763080596923828125 -0.00365744740702211856842041015625 -0.006741869263350963592529296875 -0.036135494709014892578125 -0.01213113404810428619384765625 0.046119920909404754638671875 -0.010831645689904689788818359375 -0.0360048972070217132568359375 0.009976337663829326629638671875 -0.0179869569838047027587890625 0.013650603592395782470703125 0.004448059014976024627685546875 -0.013553135097026824951171875 0.0244492553174495697021484375 0.00444046221673488616943359375 -0.00230536353774368762969970703125 0.00027423680876381695270538330078125 0.01563543640077114105224609375 -0.01275206916034221649169921875 -0.042485408484935760498046875 0.00225773616693913936614990234375 0.03007959760725498199462890625 -0.0077638397924602031707763671875 0.004463518969714641571044921875 -0.01128784008324146270751953125 0.0331073291599750518798828125 0.0449941493570804595947265625 0.01125876419246196746826171875 -0.0067502469755709171295166015625 0.020760081708431243896484375 
0.0029465588741004467010498046875 -0.0157036483287811279296875 0.014698450453579425811767578125 0.0056508234702050685882568359375 0.013357169926166534423828125 -0.000237996879150159657001495361328125 -0.0108340643346309661865234375 -0.0008015682105906307697296142578125 0.011230350472033023834228515625 -0.0134477950632572174072265625 0.00101001071743667125701904296875 0.028195209801197052001953125 0.012488983571529388427734375 -0.011941536329686641693115234375 -0.011090054176747798919677734375 0.02255738340318202972412109375 0.00160810607485473155975341796875 -0.00177626847289502620697021484375 0.003774867393076419830322265625 0.002178053371608257293701171875 0.009325697086751461029052734375 0.011596876196563243865966796875 -0.0060914270579814910888671875 0.0019709668122231960296630859375 -0.01195906661450862884521484375 0.02754837088286876678466796875 0.02076669968664646148681640625 0.014126307331025600433349609375 0.01398265548050403594970703125 0.0009244498796761035919189453125 
0.000176901623490266501903533935546875 0.007086598314344882965087890625 0.00249712984077632427215576171875 0.01105857081711292266845703125 -0.01450578682124614715576171875 0.00955223478376865386962890625 -0.02275988273322582244873046875 -0.0102671571075916290283203125 0.011980044655501842498779296875 -0.0056629455648362636566162109375 -0.001426897593773901462554931640625 -0.004401345737278461456298828125 0.0052617187611758708953857421875 -0.0102051161229610443115234375 0.01066725887358188629150390625 0.00050319195725023746490478515625 0.006592893041670322418212890625 -0.0075773200951516628265380859375 0.00368466204963624477386474609375 -0.0046716667711734771728515625 0.01549943722784519195556640625 -0.008038275875151157379150390625 -0.0095946528017520904541015625 0.00221198820509016513824462890625 -0.01972199976444244384765625 0.012652072124183177947998046875 0.02857579849660396575927734375 0.01670061610639095306396484375 0.008986704982817173004150390625 -0.0077380351722240447998046875 
0.009339169599115848541259765625 -0.02371823228895664215087890625 0.01463294588029384613037109375 4.123937469557859003543853759765625e-05 -0.011868961155414581298828125 0.0052754948846995830535888671875 -0.010922440327703952789306640625 -0.0156390033662319183349609375 -0.000231417841860093176364898681640625 -0.013380574993789196014404296875 -0.010320068337023258209228515625 -0.016206838190555572509765625 0.01502896659076213836669921875 0.0049905027262866497039794921875 0.0044663217850029468536376953125 0.012331095524132251739501953125 0.01983016915619373321533203125 0.000557435560040175914764404296875 0.01922647841274738311767578125 0.002294409088790416717529296875 -0.0044894195161759853363037109375 0.0059067015536129474639892578125 0.01977384276688098907470703125 -0.0092034302651882171630859375 -0.005222792737185955047607421875 -0.00285329110920429229736328125 -0.01605745963752269744873046875 0.0010479767806828022003173828125 0.016311950981616973876953125 0.008109546266496181488037109375 
0.01653535850346088409423828125 -0.02789667434990406036376953125 -0.020122297108173370361328125 0.012965184636414051055908203125 0.005570174194872379302978515625 0.011304282583296298980712890625 0.0159971974790096282958984375 0.008480750955641269683837890625 -0.01838561333715915679931640625 -0.005978724919259548187255859375 -0.010169499553740024566650390625 0.014329932630062103271484375 -0.001689633238129317760467529296875 -0.0376188047230243682861328125 -0.037438087165355682373046875 0.0153322406113147735595703125 0.010189454071223735809326171875 -0.0042774714529514312744140625 0.04343871772289276123046875 0.0168324448168277740478515625 -0.014245279133319854736328125 -0.0372588299214839935302734375 -0.008602148853242397308349609375 0.00946027226746082305908203125 0.01546590030193328857421875 0.0001319719594903290271759033203125 -0.02652192302048206329345703125 -0.008458091877400875091552734375 -0.001085497788153588771820068359375 -0.001126768882386386394500732421875 
-0.01250285841524600982666015625 0.01001480780541896820068359375 -0.0066757989116013050079345703125 0.007758482359349727630615234375 -0.008442743681371212005615234375 0.0066190357320010662078857421875 -0.01141939498484134674072265625 0.01654271967709064483642578125 0.013496548868715763092041015625 0.005518541671335697174072265625 0.02008952386677265167236328125 0.0230713151395320892333984375 -0.008454951457679271697998046875 0.00997821055352687835693359375 -0.0005120287532918155193328857421875 0.0175342448055744171142578125 0.0159143507480621337890625 -0.0075195194222033023834228515625 0.01279564760625362396240234375 -0.00681589543819427490234375 0.01166574098169803619384765625 -0.015434936620295047760009765625 -0.010228264145553112030029296875 0.007012813352048397064208984375 0.01318648271262645721435546875 0.005478207953274250030517578125 0.010289645753800868988037109375 -0.00851100869476795196533203125 0.0252268575131893157958984375 -0.0123801194131374359130859375 
-0.00202245474793016910552978515625 -0.00164461671374738216400146484375 -0.0058623789809644222259521484375 0.0141724683344364166259765625 0.0065796859562397003173828125 -0.0288882292807102203369140625 -0.00389961688779294490814208984375 -0.0099027939140796661376953125 0.002951919101178646087646484375 -0.005370900966227054595947265625 -0.013904848136007785797119140625 -0.011239186860620975494384765625 -0.0046590552665293216705322265625 0.005841672420501708984375 -0.014582618139684200286865234375 0.01865498907864093780517578125 0.0031032427214086055755615234375 -0.009965180419385433197021484375 -0.00671178288757801055908203125 0.0029459479264914989471435546875 0.0044926791451871395111083984375 -0.02144599147140979766845703125 0.006633545272052288055419921875 -0.015019333921372890472412109375 0.001801360282115638256072998046875 0.010395698249340057373046875 -0.007892490364611148834228515625 -0.014541466720402240753173828125 -0.01156654767692089080810546875 0.0062986710108816623687744140625 
-0.015798948705196380615234375 -0.02829956822097301483154296875 -0.008638287894427776336669921875 0.02505681477487087249755859375 -0.02378592453896999359130859375 -0.013506635092198848724365234375 -0.01684116385877132415771484375 -0.012139718048274517059326171875 0.0188244543969631195068359375 -0.02267702855169773101806640625 0.00939743034541606903076171875 0.008506174199283123016357421875 0.01646515540778636932373046875 -0.02262336947023868560791015625 7.75945445639081299304962158203125e-05 0.00779619999229907989501953125 -0.00337692932225763797760009765625 -0.02552292682230472564697265625 -0.026202313601970672607421875 -0.0095662362873554229736328125 -0.0160478912293910980224609375 -0.01847432367503643035888671875 0.010699684731662273406982421875 -0.0198152698576450347900390625 -0.02036284841597080230712890625 0.001838823431171476840972900390625 0.0440626256167888641357421875 -0.00615799985826015472412109375 -0.0060235760174691677093505859375 -0.0076506775803864002227783203125 
-0.0006623707595281302928924560546875 0.008726251311600208282470703125 0.00219954107888042926788330078125 -0.005121114663779735565185546875 -0.00123217212967574596405029296875 -8.40891734696924686431884765625e-05 -0.023541383445262908935546875 -0.01278792321681976318359375 0.015074916183948516845703125 -0.000227745724259875714778900146484375 0.02161161415278911590576171875 0.001530325389467179775238037109375 0.01729545928537845611572265625 0.01825929619371891021728515625 0.002004575915634632110595703125 -0.005907666869461536407470703125 -0.013974384404718875885009765625 0.0169730968773365020751953125 -0.00809698365628719329833984375 -0.03105556406080722808837890625 -0.01488480903208255767822265625 0.013528943993151187896728515625 -0.008854730986058712005615234375 -0.001081948284991085529327392578125 -0.01306617073714733123779296875 -0.00202754675410687923431396484375 0.02760019712150096893310546875 0.00932450033724308013916015625 0.0188381485641002655029296875 0.015251767821609973907470703125 
-0.008334376849234104156494140625 -0.009759162552654743194580078125 -0.0096336342394351959228515625 0.021127872169017791748046875 -0.016095243394374847412109375 -0.0212591774761676788330078125 -0.01088395155966281890869140625 -0.0067230430431663990020751953125 -0.014849810861051082611083984375 0.0045183678157627582550048828125 0.0049921735189855098724365234375 -0.011885471642017364501953125 0.00959504954516887664794921875 -0.0069724856875836849212646484375 0.02121382392942905426025390625 -0.0077548786066472530364990234375 0.00581134669482707977294921875 0.014693849720060825347900390625 0.0066480240784585475921630859375 0.00813686847686767578125 -0.01772328652441501617431640625 0.0025176466442644596099853515625 0.0018718405626714229583740234375 0.00370271946303546428680419921875 -0.0053751529194414615631103515625 -0.006953469477593898773193359375 -0.0027144714258611202239990234375 0.0045929201878607273101806640625 0.01973245106637477874755859375 0.0127520076930522918701171875 
-0.00663481093943119049072265625 0.0054206731729209423065185546875 0.009082091040909290313720703125 -0.01192057691514492034912109375 -0.009051141329109668731689453125 0.007867666892707347869873046875 -0.01379358582198619842529296875 -0.00206639128737151622772216796875 -0.0107071213424205780029296875 0.0050737517885863780975341796875 0.02195346541702747344970703125 0.010615111328661441802978515625 0.01952783577144145965576171875 0.0049607330001890659332275390625 -0.00879151560366153717041015625 -2.539583147154189646244049072265625e-05 -0.01153902523219585418701171875 -0.0045928545296192169189453125 -0.009829514659941196441650390625 0.006598978303372859954833984375 0.02137841470539569854736328125 0.012434461154043674468994140625 0.00359689630568027496337890625 -0.02787990681827068328857421875 -0.01662309281527996063232421875 -0.008416087366640567779541015625 -0.000989475287497043609619140625 -0.0068132313899695873260498046875 -0.01892399601638317108154296875 0.0067093013785779476165771484375 
0.001194149837829172611236572265625 0.01274820230901241302490234375 -0.00826896168291568756103515625 0.0070937774144113063812255859375 0.0157978534698486328125 -0.01577504537999629974365234375 -0.01611037738621234893798828125 0.0128975175321102142333984375 -0.02274483256042003631591796875 -0.01444021426141262054443359375 0.00540413521230220794677734375 -0.01771273650228977203369140625 0.0046244640834629535675048828125 -0.00219581113196909427642822265625 -0.010724340565502643585205078125 0.013664831407368183135986328125 -0.002014718018472194671630859375 -0.0047191237099468708038330078125 -0.00280757644213736057281494140625 0.02807701565325260162353515625 -0.01626173965632915496826171875 -0.01296531967818737030029296875 0.001756589976139366626739501953125 -0.0096269734203815460205078125 -0.015469127334654331207275390625 -0.00293283653445541858673095703125 0.00195476901717483997344970703125 -0.01751727797091007232666015625 0.01749257557094097137451171875 -0.0100652165710926055908203125 
0.00982380099594593048095703125 0.02108736336231231689453125 -0.017543010413646697998046875 0.011858101002871990203857421875 -0.013074149377644062042236328125 -0.010816396214067935943603515625 -0.00353935523889958858489990234375 0.0251893736422061920166015625 -0.01434482075273990631103515625 0.0078738518059253692626953125 0.014140824787318706512451171875 0.008723276667296886444091796875 0.003450739197432994842529296875 -0.008315439336001873016357421875 0.014700668863952159881591796875 0.023041106760501861572265625 -0.015273069031536579132080078125 0.000871509429998695850372314453125 0.001910543651320040225982666015625 0.02589057385921478271484375 0.012973147444427013397216796875 -0.01623496226966381072998046875 0.02326600067317485809326171875 -0.02527819015085697174072265625 0.0111197568476200103759765625 -0.02598773874342441558837890625 0.007054039277136325836181640625 -0.0375965572893619537353515625 0.01576189510524272918701171875 -0.0114357657730579376220703125 
-0.00169692584313452243804931640625 0.006561323069036006927490234375 -0.0089299418032169342041015625 -0.00879939831793308258056640625 0.0062997988425195217132568359375 -0.0260510258376598358154296875 0.001327422563917934894561767578125 -0.010227851569652557373046875 -0.00967220775783061981201171875 -0.01068601571023464202880859375 0.002360344864428043365478515625 -0.015165203250944614410400390625 -0.0023005264811217784881591796875 -0.01947665773332118988037109375 0.00030000056722201406955718994140625 0.01900711469352245330810546875 -0.02136971242725849151611328125 -0.009260817430913448333740234375 0.0201745145022869110107421875 0.02566931582987308502197265625 0.001346417353488504886627197265625 -0.02656082622706890106201171875 0.023902960121631622314453125 -0.0125897489488124847412109375 0.0025835372507572174072265625 -0.01169960200786590576171875 -0.007727992720901966094970703125 -0.0118185020983219146728515625 -0.01141057722270488739013671875 -0.008658195845782756805419921875 
0.0208118222653865814208984375 -0.006623468361794948577880859375 -0.0059061232022941112518310546875 0.02095775119960308074951171875 -0.0122372619807720184326171875 0.00107114948332309722900390625 0.010500247590243816375732421875 -0.009406982921063899993896484375 -0.0141860507428646087646484375 -0.016300976276397705078125 0.01775312237441539764404296875 0.00741837918758392333984375 -0.00980488955974578857421875 0.015528840012848377227783203125 0.009319665841758251190185546875 0.01889420859515666961669921875 -0.0121421515941619873046875 0.0053759650327265262603759765625 0.01726706139743328094482421875 0.02793638966977596282958984375 0.0207084305584430694580078125 -0.02268522791564464569091796875 -0.0065815835259854793548583984375 0.009961859323084354400634765625 -0.005320728756487369537353515625 0.010427585802972316741943359375 0.0159361846745014190673828125 -0.0215236805379390716552734375 0.00220978888683021068572998046875 0.0157269351184368133544921875 
0.00373220746405422687530517578125 -0.001632549683563411235809326171875 0.016977988183498382568359375 0.009100160561501979827880859375 -0.013043568469583988189697265625 0.0065164132975041866302490234375 -0.01685021631419658660888671875 0.00138598517514765262603759765625 -0.01791422255337238311767578125 -0.02004185505211353302001953125 0.01269993744790554046630859375 -0.0154380686581134796142578125 0.0022168583236634731292724609375 0.01512564718723297119140625 -0.00272652530111372470855712890625 -0.01600409485399723052978515625 -0.02228747867047786712646484375 -0.00701319985091686248779296875 -0.0268493779003620147705078125 0.00045017313095740973949432373046875 0.0021804622374475002288818359375 -0.0048359469510614871978759765625 0.0062187951989471912384033203125 -0.0327176339924335479736328125 -0.008548441343009471893310546875 0.0004938066122122108936309814453125 0.014611356891691684722900390625 0.01956449635326862335205078125 -0.001760877086780965328216552734375 0.032875835895538330078125 
0.0074007469229400157928466796875 -0.013873635791242122650146484375 -0.015569894574582576751708984375 -0.01302629522979259490966796875 -0.0006603806396014988422393798828125 0.0070781814865767955780029296875 0.011503790505230426788330078125 -0.01640014350414276123046875 -0.00664530694484710693359375 -0.0022027236409485340118408203125 -0.0154879204928874969482421875 0.007413805462419986724853515625 0.0004007591051049530506134033203125 -0.00200673541985452175140380859375 0.012069421820342540740966796875 -0.004732861183583736419677734375 -0.0336600802838802337646484375 -0.02047433890402317047119140625 -0.001952439197339117527008056640625 -0.0392840020358562469482421875 0.008357758633792400360107421875 0.0345796607434749603271484375 -0.017481349408626556396484375 -0.0123004913330078125 0.01477191783487796783447265625 0.0145807377994060516357421875 0.02752788923680782318115234375 0.041625700891017913818359375 0.0051978169940412044525146484375 0.015395310707390308380126953125 
0.008626964874565601348876953125 -0.00486042909324169158935546875 0.01654267124831676483154296875 -0.0319405384361743927001953125 -0.00999758206307888031005859375 0.027593396604061126708984375 -0.00331076793372631072998046875 -0.0301539488136768341064453125 0.012640573084354400634765625 -0.0079569630324840545654296875 0.0071374322287738323211669921875 0.0237938873469829559326171875 -0.0072410549037158489227294921875 0.02383586950600147247314453125 -0.01965552009642124176025390625 -0.0151161290705204010009765625 0.01612836308777332305908203125 -0.0025190450251102447509765625 -0.0019406895153224468231201171875 -0.012719995342195034027099609375 -0.00039138921420089900493621826171875 0.01718212664127349853515625 -0.0264683328568935394287109375 -0.00273755216039717197418212890625 -0.0145084001123905181884765625 0.0084232389926910400390625 0.01774709485471248626708984375 0.0372587926685810089111328125 -0.010351307690143585205078125 0.00981049239635467529296875 
-0.014511990360915660858154296875 0.005866952240467071533203125 0.00247954460792243480682373046875 -0.0187182761728763580322265625 0.0165092982351779937744140625 0.0034869038499891757965087890625 -0.010373319499194622039794921875 -0.013362442143261432647705078125 -0.01739612407982349395751953125 -0.0113396607339382171630859375 -0.00465570203959941864013671875 0.0067281066440045833587646484375 0.01992293260991573333740234375 -0.00859363935887813568115234375 0.0059843542985618114471435546875 0.02180890738964080810546875 -0.0077861011959612369537353515625 0.01668683998286724090576171875 0.00889458693563938140869140625 -0.0061932685784995555877685546875 -0.011241246946156024932861328125 0.0064335917122662067413330078125 -0.0041820653714239597320556640625 -0.00362133304588496685028076171875 0.013291743583977222442626953125 0.00811436586081981658935546875 -0.0257357396185398101806640625 0.0182153023779392242431640625 0.00258359336294233798980712890625 0.02083866856992244720458984375 
0.014113317243754863739013671875 -0.01426799036562442779541015625 -0.0071994750760495662689208984375 0.02996854670345783233642578125 -0.005678539164364337921142578125 -0.009124024771153926849365234375 -0.01056563667953014373779296875 -0.02026689611375331878662109375 -0.009238901548087596893310546875 -0.008392014540731906890869140625 0.009296826086938381195068359375 0.01476974599063396453857421875 0.0069245211780071258544921875 0.00161625701002776622772216796875 -0.0279001779854297637939453125 -0.014746181666851043701171875 -0.009602761827409267425537109375 0.01082040183246135711669921875 0.0070369443856179714202880859375 -0.0043101520277559757232666015625 0.0186705850064754486083984375 -0.01127291657030582427978515625 0.021999843418598175048828125 -0.007429230026900768280029296875 -0.0058689736761152744293212890625 0.0208363868296146392822265625 0.0129406563937664031982421875 0.01713893003761768341064453125 -0.013458772562444210052490234375 0.0045659248717129230499267578125 
0.0150900073349475860595703125 -0.009781693108379840850830078125 0.006204259581863880157470703125 0.001766907982528209686279296875 -0.0005674696876667439937591552734375 0.00228716828860342502593994140625 -0.00370664731599390506744384765625 0.008131590671837329864501953125 -0.0290183834731578826904296875 1.490352224209345877170562744140625e-05 0.0083880685269832611083984375 0.01370725594460964202880859375 -0.01289789564907550811767578125 0.0045119025744497776031494140625 0.0075263767503201961517333984375 0.015604984946548938751220703125 -0.0028239437378942966461181640625 -0.0226104669272899627685546875 0.01830314099788665771484375 0.010868988931179046630859375 0.000841019791550934314727783203125 -0.0290296562016010284423828125 0.0108735971152782440185546875 0.01634697057306766510009765625 -0.0051777451299130916595458984375 -0.0033762906678020954132080078125 -0.011624085716903209686279296875 0.0190892629325389862060546875 0.00844658911228179931640625 -0.0045252549462020397186279296875 
0.0200103707611560821533203125 -0.001187688088975846767425537109375 0.009896581061184406280517578125 -0.0112731344997882843017578125 -0.010232073254883289337158203125 0.013704252429306507110595703125 0.0048313983716070652008056640625 -0.01934978552162647247314453125 0.0141997635364532470703125 -0.0078120767138898372650146484375 0.015586563386023044586181640625 0.00376595743000507354736328125 0.0084976218640804290771484375 0.0224659442901611328125 -0.02877950482070446014404296875 0.010833452455699443817138671875 0.01336308009922504425048828125 -0.00340010109357535839080810546875 -0.0009756964282132685184478759765625 0.014202666468918323516845703125 0.0051388698630034923553466796875 -0.0054542901925742626190185546875 0.00117602734826505184173583984375 -0.0048025264404714107513427734375 -0.01252888329327106475830078125 0.02082461304962635040283203125 0.015130455605685710906982421875 0.00362002965994179248809814453125 -0.010364328511059284210205078125 0.003952705301344394683837890625 
-0.00336604262702167034149169921875 -0.009242688305675983428955078125 -0.00593653507530689239501953125 0.0024130232632160186767578125 0.0014026663266122341156005859375 0.012200470082461833953857421875 -0.0072162360884249210357666015625 -0.001688350923359394073486328125 -0.0125996954739093780517578125 -0.0072369915433228015899658203125 0.0034410743974149227142333984375 0.0049706394784152507781982421875 0.00239503686316311359405517578125 -0.0065566501580178737640380859375 -0.00491882860660552978515625 -0.0153325907886028289794921875 0.01953582651913166046142578125 0.014890284277498722076416015625 0.000241150686633773148059844970703125 -0.0151039026677608489990234375 -0.0073546213097870349884033203125 0.02426601387560367584228515625 -0.0196965150535106658935546875 -0.00265682651661336421966552734375 0.0095517747104167938232421875 -0.00197546440176665782928466796875 0.008135658688843250274658203125 0.01714341156184673309326171875 -0.01036858372390270233154296875 0.02299070172011852264404296875 
-0.009941696189343929290771484375 -0.001156980288214981555938720703125 -0.01348059810698032379150390625 0.0006578713073395192623138427734375 0.01208243705332279205322265625 0.0003676656051538884639739990234375 0.0041302107274532318115234375 -0.02162011899054050445556640625 0.009216106496751308441162109375 0.00725739262998104095458984375 -0.0143121816217899322509765625 -0.00016128332936204969882965087890625 0.00273949909023940563201904296875 0.005867189727723598480224609375 -0.02342617511749267578125 0.007685576565563678741455078125 0.0047033498995006084442138671875 0.01171199046075344085693359375 0.02150587737560272216796875 -0.00684376992285251617431640625 0.00945995934307575225830078125 0.013757945038378238677978515625 -0.02005095593631267547607421875 0.012216739356517791748046875 -0.020115353167057037353515625 0.0298760868608951568603515625 0.012748374603688716888427734375 0.02547715604305267333984375 0.0076616569422185420989990234375 0.01964284479618072509765625 
-0.0088303051888942718505859375 -0.013548512943089008331298828125 0.01685109175741672515869140625 -0.012387211434543132781982421875 -0.0046955193392932415008544921875 0.0248607695102691650390625 -0.0175511650741100311279296875 -0.0230995081365108489990234375 0.0050695263780653476715087890625 -0.0054494929499924182891845703125 0.00320939184166491031646728515625 0.01573744975030422210693359375 -0.004994983784854412078857421875 0.00540883652865886688232421875 0.007852780632674694061279296875 -0.0007356819114647805690765380859375 0.006681359373033046722412109375 -0.0224042832851409912109375 -0.0057742339558899402618408203125 -0.0007559153600595891475677490234375 -0.01268000900745391845703125 0.009499139152467250823974609375 0.01348806358873844146728515625 -0.0078085851855576038360595703125 0.0122734941542148590087890625 0.0119882039725780487060546875 0.01395816914737224578857421875 0.031581223011016845703125 0.0162915028631687164306640625 0.01146806962788105010986328125 
-0.00872669555246829986572265625 -0.02337136678397655487060546875 -0.0216511376202106475830078125 -0.013294632546603679656982421875 -0.01911990158259868621826171875 0.001313201151788234710693359375 -0.001631279592402279376983642578125 -0.014827196486294269561767578125 -0.01999415270984172821044921875 -0.02095706574618816375732421875 0.0053278426639735698699951171875 0.008633145131170749664306640625 -0.008501348085701465606689453125 0.01356763206422328948974609375 -0.01620579324662685394287109375 0.00583591125905513763427734375 -0.0055205221287906169891357421875 0.01255656965076923370361328125 0.0055988170206546783447265625 -0.011167439632117748260498046875 -0.012348592281341552734375 0.008119367994368076324462890625 -0.0065832682885229587554931640625 0.0068938364274799823760986328125 -0.0020218440331518650054931640625 -0.0062480480410158634185791015625 -0.0041573536582291126251220703125 -0.010964750312268733978271484375 0.0093634985387325286865234375 -0.02248804830014705657958984375 
-0.004991288296878337860107421875 0.0160368047654628753662109375 -0.020124204456806182861328125 -0.0161144994199275970458984375 0.001131903030909597873687744140625 0.001796573284082114696502685546875 -0.011964163742959499359130859375 -0.013612800277769565582275390625 0.011476942338049411773681640625 -0.01370820961892604827880859375 0.009564832784235477447509765625 -0.0041914326138794422149658203125 -0.002071191556751728057861328125 -0.0015805368311703205108642578125 0.009620196186006069183349609375 0.0060160248540341854095458984375 -0.02173871733248233795166015625 -0.01258738897740840911865234375 -0.0245500542223453521728515625 0.004466963000595569610595703125 0.0178319774568080902099609375 0.012876250781118869781494140625 0.01942274160683155059814453125 -0.01029853709042072296142578125 -0.008689197711646556854248046875 -0.005271364934742450714111328125 0.02688618935644626617431640625 -0.01654673181474208831787109375 -0.0215865932404994964599609375 0.00369019131176173686981201171875 
0.004891256801784038543701171875 -0.00216499972157180309295654296875 -0.0030018338002264499664306640625 -0.0046025631017982959747314453125 -0.01627856306731700897216796875 -0.0170197524130344390869140625 0.0040219635702669620513916015625 0.02064983732998371124267578125 0.01153543777763843536376953125 -0.00859582982957363128662109375 -0.0069888257421553134918212890625 -0.00281974603421986103057861328125 -0.011264269240200519561767578125 0.011314067058265209197998046875 0.0126989185810089111328125 0.0205521993339061737060546875 0.008308046497404575347900390625 0.00344845582731068134307861328125 -0.00155588798224925994873046875 -0.0064187762327492237091064453125 -0.014724322594702243804931640625 0.00285731442272663116455078125 -0.017097018659114837646484375 -0.000951042515225708484649658203125 -0.013104527257382869720458984375 0.011935268528759479522705078125 0.0155328810214996337890625 -0.012087724171578884124755859375 0.01221887953579425811767578125 -0.003964222036302089691162109375 
-0.004513843916356563568115234375 -0.00089380727149546146392822265625 -0.011224190704524517059326171875 0.000315078417770564556121826171875 -0.001135720289312303066253662109375 0.02354399859905242919921875 -0.005435564555227756500244140625 -0.008770422078669071197509765625 0.026344753801822662353515625 0.00180815160274505615234375 -0.010538595728576183319091796875 -0.00209077238105237483978271484375 0.0028697014786303043365478515625 -0.001785406027920544147491455078125 8.641681051813066005706787109375e-05 0.0191691853106021881103515625 -0.01226090826094150543212890625 -0.010004888288676738739013671875 -0.01608185283839702606201171875 0.0052342875860631465911865234375 -0.01458443515002727508544921875 0.02899612300097942352294921875 0.00979607738554477691650390625 -0.0171415917575359344482421875 -0.0037692598998546600341796875 -0.016151957213878631591796875 0.0079335086047649383544921875 0.022105105221271514892578125 -0.0115752778947353363037109375 0.01605583913624286651611328125 
-0.007852551527321338653564453125 0.010371589101850986480712890625 -0.0072010704316198825836181640625 -0.03812520205974578857421875 0.01226752065122127532958984375 0.0066087651066482067108154296875 0.01588174887001514434814453125 0.005421501584351062774658203125 0.0055710268206894397735595703125 -0.0037548136897385120391845703125 0.001654732157476246356964111328125 0.0053692026995122432708740234375 -0.014109398238360881805419921875 0.01567550003528594970703125 0.01738261617720127105712890625 0.0039768121205270290374755859375 -0.003998233936727046966552734375 0.01750795729458332061767578125 -0.01758555881679058074951171875 -0.002015910111367702484130859375 0.00490970350801944732666015625 0.030640728771686553955078125 0.0060226474888622760772705078125 -0.00212251278571784496307373046875 0.01721382327377796173095703125 -0.01237686909735202789306640625 0.001701083849184215068817138671875 0.02292324416339397430419921875 -0.0234996713697910308837890625 -0.0074778082780539989471435546875 
0.01499405689537525177001953125 0.01925309561192989349365234375 -0.011930574662983417510986328125 -0.014454468153417110443115234375 -0.0062593468464910984039306640625 -0.001854156027548015117645263671875 -0.01540126092731952667236328125 0.00462181679904460906982421875 0.012458453886210918426513671875 0.02351359464228153228759765625 -0.00845869071781635284423828125 0.008353225886821746826171875 0.001212433562614023685455322265625 0.0072434879839420318603515625 -0.01591586880385875701904296875 0.0189775526523590087890625 -0.002029992640018463134765625 0.0091065578162670135498046875 -0.0017655454576015472412109375 -0.023728601634502410888671875 -0.0017583477310836315155029296875 0.006773556582629680633544921875 -0.0229118801653385162353515625 0.014474001713097095489501953125 -0.01740862242877483367919921875 0.0049402085132896900177001953125 0.0192482806742191314697265625 -0.007343410514295101165771484375 -0.0023311334662139415740966796875 0.004942114464938640594482421875 
-0.011318829841911792755126953125 0.0245414115488529205322265625 0.01070010103285312652587890625 -0.01963741518557071685791015625 0.0067799496464431285858154296875 -0.0077324272133409976959228515625 -0.020701043307781219482421875 0.00771837867796421051025390625 -0.014849326573312282562255859375 -0.0059413672424852848052978515625 0.0117711909115314483642578125 0.011251755058765411376953125 0.0073865964077413082122802734375 0.02238282002508640289306640625 0.00409242324531078338623046875 0.013756482861936092376708984375 0.015109977684915065765380859375 0.012285823933780193328857421875 -0.0068799140863120555877685546875 -0.006295762956142425537109375 -0.00379857118241488933563232421875 0.0003844336024485528469085693359375 -0.02347532473504543304443359375 0.026839055120944976806640625 0.017435014247894287109375 -0.019335843622684478759765625 -0.0050817714072763919830322265625 -0.0071012829430401325225830078125 0.003363409079611301422119140625 0.0054702064953744411468505859375 
0.01639289967715740203857421875 0.02530131675302982330322265625 -0.01802172698080539703369140625 -0.0075764036737382411956787109375 0.013093140907585620880126953125 0.005814011208713054656982421875 -0.007563830353319644927978515625 -0.0054238834418356418609619140625 0.0255839712917804718017578125 0.006698391400277614593505859375 0.000429747975431382656097412109375 -0.013966039754450321197509765625 0.008246486075222492218017578125 -0.0054322895593941211700439453125 0.01941743306815624237060546875 -0.0040487279184162616729736328125 0.00045897034578956663608551025390625 -0.0031440393067896366119384765625 0.01582844555377960205078125 0.011322568170726299285888671875 0.001480477862060070037841796875 0.00117785413749516010284423828125 -0.0220243297517299652099609375 -0.011866173706948757171630859375 -0.008992113173007965087890625 -0.009246652014553546905517578125 -0.01842889003455638885498046875 -0.01005853712558746337890625 0.009803964756429195404052734375 -0.00306229107081890106201171875 
0.0067279706709086894989013671875 0.01790289394557476043701171875 -0.010429960675537586212158203125 0.0282251797616481781005859375 0.0224852822721004486083984375 -0.0110671855509281158447265625 -0.011584817431867122650146484375 0.00115827168338000774383544921875 -0.01736714504659175872802734375 0.018561892211437225341796875 -0.009817668236792087554931640625 0.002092304639518260955810546875 -0.01819330267608165740966796875 0.0123123340308666229248046875 -0.0070679779164493083953857421875 0.02471429668366909027099609375 0.016113579273223876953125 -0.015021794475615024566650390625 0.00568214617669582366943359375 0.0332960784435272216796875 -0.006884701550006866455078125 -0.0343069322407245635986328125 0.01396119780838489532470703125 0.0077081290073692798614501953125 -0.011113821528851985931396484375 0.00265562138520181179046630859375 -0.03204731643199920654296875 -0.043890774250030517578125 0.005756311118602752685546875 -0.01679418981075286865234375 
0.001865450176410377025604248046875 0.0209272764623165130615234375 -0.00165734183974564075469970703125 0.004215411841869354248046875 0.0045752651058137416839599609375 -0.01159469597041606903076171875 0.01630810461938381195068359375 0.00270247110165655612945556640625 -0.0162802003324031829833984375 -0.0182456672191619873046875 -0.006695969961583614349365234375 -0.00917893089354038238525390625 0.02115763723850250244140625 -0.01106310077011585235595703125 0.0128449387848377227783203125 -0.011132843792438507080078125 0.011683044023811817169189453125 0.009299524128437042236328125 0.013998872600495815277099609375 0.02625076472759246826171875 0.015495237894356250762939453125 0.0071204327978193759918212890625 0.0131397657096385955810546875 -0.010321334935724735260009765625 0.009216933511197566986083984375 0.0073578855954110622406005859375 0.004473256878554821014404296875 -0.02908878028392791748046875 -0.0077677257359027862548828125 -0.0225534401834011077880859375 
0.0158863961696624755859375 0.00208704615943133831024169921875 0.013513377867639064788818359375 0.004079517908394336700439453125 0.01067583262920379638671875 -0.0069534662179648876190185546875 0.008434929884970188140869140625 -0.008561153896152973175048828125 -0.00763853825628757476806640625 0.007592282257974147796630859375 -0.0065198293887078762054443359375 0.000996845192275941371917724609375 0.0071995123289525508880615234375 0.01250254176557064056396484375 -0.002227683551609516143798828125 0.005427013151347637176513671875 -0.0006729892338626086711883544921875 0.00070907198823988437652587890625 0.0175848267972469329833984375 -0.008271391503512859344482421875 0.012833781540393829345703125 -0.0300294496119022369384765625 0.0111046917736530303955078125 -0.009287259541451930999755859375 -0.0044984905980527400970458984375 -0.013525524176657199859619140625 0.0005559444543905556201934814453125 -0.0048790001310408115386962890625 0.013967634178698062896728515625 -0.01619931869208812713623046875 
0.008075815625488758087158203125 -0.0058115539140999317169189453125 -0.00233770045451819896697998046875 -0.01157364808022975921630859375 0.00941083021461963653564453125 0.00972544960677623748779296875 0.00038756392314098775386810302734375 -0.02034464292228221893310546875 -0.02454279549419879913330078125 0.00633603893220424652099609375 0.007063356228172779083251953125 0.009989864192903041839599609375 -0.0031837797723710536956787109375 -0.010781227611005306243896484375 -0.01885037310421466827392578125 0.0215802490711212158203125 -0.00377934076823294162750244140625 0.0046443059109151363372802734375 -0.00098803802393376827239990234375 0.00295909564010798931121826171875 0.009387306869029998779296875 -0.02316196262836456298828125 0.0068855728022754192352294921875 -0.00930335186421871185302734375 0.01694001071155071258544921875 -0.02146611921489238739013671875 -0.01610172726213932037353515625 0.0047273566015064716339111328125 -0.01260839961469173431396484375 0.0042763235978782176971435546875 
-0.0062328069470822811126708984375 -0.00604784302413463592529296875 0.014396830461919307708740234375 0.000948122702538967132568359375 -0.004608185030519962310791015625 -0.012234221212565898895263671875 -0.0206228382885456085205078125 -0.00727672688663005828857421875 -0.0220818705856800079345703125 -0.000106396037153899669647216796875 -0.012877964414656162261962890625 -0.011096959002315998077392578125 0.0200348459184169769287109375 0.001711425953544676303863525390625 -0.004979589022696018218994140625 -0.012302578426897525787353515625 0.0166180133819580078125 -0.0046713319607079029083251953125 0.015212609432637691497802734375 0.00714586116373538970947265625 0.01991635374724864959716796875 0.01128417439758777618408203125 0.0209879986941814422607421875 -0.00015434037777595221996307373046875 0.00628117658197879791259765625 0.001162435277365148067474365234375 -0.013064767234027385711669921875 0.0186975337564945220947265625 -0.017700172960758209228515625 -0.001307484577409923076629638671875 
0.020239017903804779052734375 -0.004801641218364238739013671875 -0.01759636960923671722412109375 0.0248284079134464263916015625 -0.00313237984664738178253173828125 0.01099375076591968536376953125 -0.0043272734619677066802978515625 -0.02815662883222103118896484375 -0.02400058321654796600341796875 -0.00444359891116619110107421875 -0.002852051518857479095458984375 -0.01540348865091800689697265625 0.01879918575286865234375 0.001880443305708467960357666015625 -0.0204563923180103302001953125 -0.01470462419092655181884765625 -0.0123946629464626312255859375 -0.010119623504579067230224609375 0.02604120783507823944091796875 -0.0044681392610073089599609375 -0.015422916971147060394287109375 0.012186556123197078704833984375 0.01049672253429889678955078125 -0.0059599629603326320648193359375 0.01641248352825641632080078125 0.0047964625991880893707275390625 0.0152376256883144378662109375 -0.0045316261239349842071533203125 0.002173575572669506072998046875 0.015357636846601963043212890625 
0.01497012935578823089599609375 0.002990956418216228485107421875 0.006217722781002521514892578125 0.0059243715368211269378662109375 0.01094298996031284332275390625 0.02579231560230255126953125 -0.02247494645416736602783203125 -0.01816029660403728485107421875 0.0005311921122483909130096435546875 -0.0026088594458997249603271484375 0.006956000812351703643798828125 -0.020286209881305694580078125 0.01763659901916980743408203125 -0.0097030736505985260009765625 0.0070713795721530914306640625 0.011819367296993732452392578125 -0.0046541062183678150177001953125 -0.007216944359242916107177734375 0.0240535438060760498046875 -0.01040597073733806610107421875 -0.01757059991359710693359375 7.46929945307783782482147216796875e-05 0.00314178341068327426910400390625 -0.01888652145862579345703125 -0.001123657333664596080780029296875 0.0299724005162715911865234375 0.02040497399866580963134765625 0.00982923805713653564453125 -0.00186153524555265903472900390625 0.0163290463387966156005859375 
0.012130050919950008392333984375 0.013859368860721588134765625 0.000264743692241609096527099609375 -0.0205848552286624908447265625 -0.01505575515329837799072265625 0.01342692784965038299560546875 -0.006387330591678619384765625 -0.02397535555064678192138671875 6.57490454614162445068359375e-05 -0.00280064693652093410491943359375 -0.017771787941455841064453125 0.00736197270452976226806640625 0.0071336883120238780975341796875 0.0061463876627385616302490234375 0.003553713671863079071044921875 0.0052293576300144195556640625 -0.0241800881922245025634765625 -0.0066709020175039768218994140625 -0.001601627678610384464263916015625 -0.01535106264054775238037109375 -0.0020934618078172206878662109375 0.02426500059664249420166015625 0.0055061099119484424591064453125 -0.0060760355554521083831787109375 0.001768552581779658794403076171875 -0.00272140721790492534637451171875 0.00016988991410471498966217041015625 0.01859573833644390106201171875 0.01796349324285984039306640625 0.02792545221745967864990234375 
0.0197670459747314453125 -0.009294238872826099395751953125 0.000239928995142690837383270263671875 0.0007326866616494953632354736328125 -0.015809364616870880126953125 0.02650738321244716644287109375 -0.00193748879246413707733154296875 -0.028108142316341400146484375 0.0071888933889567852020263671875 -0.004053123295307159423828125 0.0138679929077625274658203125 -0.008962503634393215179443359375 -0.0108241625130176544189453125 0.02624622918665409088134765625 0.00115627911873161792755126953125 0.0008474712376482784748077392578125 -0.02613256312906742095947265625 -0.008771183900535106658935546875 -0.006126864813268184661865234375 -0.01633604802191257476806640625 0.01625888980925083160400390625 0.012716560624539852142333984375 0.01985095627605915069580078125 -0.00236420519649982452392578125 0.001795337651856243610382080078125 0.014190760441124439239501953125 -0.009469323791563510894775390625 0.0338765718042850494384765625 0.01884947717189788818359375 -0.001877034432254731655120849609375 
-0.01248347572982311248779296875 -0.0005540402489714324474334716796875 -0.009781799279153347015380859375 -0.012510956265032291412353515625 -0.00851692445576190948486328125 -0.004809689708054065704345703125 0.0007323033059947192668914794921875 -0.0353480540215969085693359375 0.011073111556470394134521484375 -0.015543867833912372589111328125 -0.0152817554771900177001953125 0.005706270225346088409423828125 0.00276268436573445796966552734375 0.0187719799578189849853515625 -0.02133635990321636199951171875 0.01149372197687625885009765625 0.001492383540607988834381103515625 -0.01664316467940807342529296875 -0.018400609493255615234375 -0.03191471099853515625 -0.014813733287155628204345703125 0.00219436059705913066864013671875 -0.0067869909107685089111328125 -0.02080686949193477630615234375 0.012932546436786651611328125 0.02887714095413684844970703125 -0.00778410769999027252197265625 0.0185435116291046142578125 -0.01129431463778018951416015625 -0.00263041700236499309539794921875 
0.00267863390035927295684814453125 -0.002608372829854488372802734375 -0.0214561782777309417724609375 -0.007444345392286777496337890625 -0.0225121341645717620849609375 0.012771626003086566925048828125 0.01422187127172946929931640625 -0.007671751081943511962890625 -0.0197897814214229583740234375 0.0019043465144932270050048828125 0.001890924177132546901702880859375 -0.01465539447963237762451171875 0.01406408660113811492919921875 0.010027390904724597930908203125 0.009952896274626255035400390625 0.018008530139923095703125 -0.01741207204759120941162109375 0.0045323097147047519683837890625 0.001869265572167932987213134765625 -0.00112320552580058574676513671875 -0.010825912468135356903076171875 0.009786100126802921295166015625 -0.008320129476487636566162109375 -0.00265902909450232982635498046875 -0.01581561006605625152587890625 0.01941776461899280548095703125 0.022175729274749755859375 0.03110270388424396514892578125 -0.017966441810131072998046875 0.0182754881680011749267578125 
-0.006165693514049053192138671875 -0.013095366768538951873779296875 0.015513676218688488006591796875 -0.0023876563645899295806884765625 -0.0073141981847584247589111328125 0.007504618726670742034912109375 0.008273457176983356475830078125 -0.013932934962213039398193359375 -0.013199248351156711578369140625 0.0055469186045229434967041015625 0.005953609943389892578125 -0.010631260462105274200439453125 0.01617393456399440765380859375 -0.0002403740654699504375457763671875 0.009425732307136058807373046875 -0.0067425705492496490478515625 0.0063262269832193851470947265625 0.0057957083918154239654541015625 -0.0004628277965821325778961181640625 -0.0118497945368289947509765625 0.00115868099965155124664306640625 0.00271786586381494998931884765625 0.0035315267741680145263671875 -0.0137912966310977935791015625 0.0006370805785991251468658447265625 -0.0060923607088625431060791015625 0.019546769559383392333984375 0.025831200182437896728515625 0.01299483887851238250732421875 0.0071343039162456989288330078125 
0.000661049969494342803955078125 -0.0113289318978786468505859375 -0.00044704080210067331790924072265625 0.0330842174589633941650390625 -0.0004670244525186717510223388671875 -0.032285146415233612060546875 -0.00334849464707076549530029296875 -0.0050128088332712650299072265625 0.0036232140846550464630126953125 -0.0069591668434441089630126953125 0.00203660572879016399383544921875 -0.009836758486926555633544921875 0.0043616625480353832244873046875 -0.010595925152301788330078125 -0.006374576129019260406494140625 0.0003102953196503221988677978515625 -0.011189321987330913543701171875 -0.009665708057582378387451171875 0.012008245103061199188232421875 0.0175857357680797576904296875 -0.014503468759357929229736328125 -0.00915881432592868804931640625 0.0158388279378414154052734375 -0.003641671501100063323974609375 0.011206253431737422943115234375 -0.01649820245802402496337890625 -0.02386802621185779571533203125 -0.02761217392981052398681640625 0.00367568130604922771453857421875 0.015053984709084033966064453125 
0.00735837407410144805908203125 -0.01923284493386745452880859375 0.0030018868856132030487060546875 0.005158013664186000823974609375 0.02052866853773593902587890625 -0.030054010450839996337890625 0.0050485380925238132476806640625 -0.010528442449867725372314453125 -0.001326670753769576549530029296875 -0.01998463459312915802001953125 -0.0063839335925877094268798828125 -0.014086314477026462554931640625 -0.013348429463803768157958984375 0.003962199203670024871826171875 -0.01355868764221668243408203125 0.005541083402931690216064453125 0.011598765850067138671875 0.009227241389453411102294921875 0.01801723428070545196533203125 0.03026937134563922882080078125 -0.00332267046906054019927978515625 0.000817152322269976139068603515625 0.006881426088511943817138671875 -0.0069053336046636104583740234375 0.01686322502791881561279296875 0.0124189965426921844482421875 -0.010303652845323085784912109375 -0.02695207111537456512451171875 0.02391665242612361907958984375 0.0078000128269195556640625 
-0.013422903604805469512939453125 -0.016283623874187469482421875 -0.0052678980864584445953369140625 0.0107409022748470306396484375 0.013855273835361003875732421875 -0.0167796872556209564208984375 -0.01068389229476451873779296875 -0.00788677670061588287353515625 0.004120477475225925445556640625 0.0001685404567979276180267333984375 -0.0108283497393131256103515625 -0.01678509451448917388916015625 -0.001695802086032927036285400390625 -0.01798102445900440216064453125 0.00321564101614058017730712890625 -0.011880475096404552459716796875 0.014594334177672863006591796875 0.013606131076812744140625 0.02623749338090419769287109375 0.00310349720530211925506591796875 -0.0040994356386363506317138671875 -0.0040497244335711002349853515625 0.013091758824884891510009765625 0.00371743249706923961639404296875 -0.006396525539457798004150390625 0.0003303021076135337352752685546875 -0.01517922244966030120849609375 -0.0283600874245166778564453125 -0.00907737575471401214599609375 -0.0205154009163379669189453125 
0.021453857421875 0.01291991211473941802978515625 0.00994041003286838531494140625 0.00205933884717524051666259765625 -0.01745691709220409393310546875 0.009487512521445751190185546875 -0.009143292903900146484375 -0.01266408525407314300537109375 -0.01539743877947330474853515625 -0.0110998339951038360595703125 0.0027225427329540252685546875 -0.005355610512197017669677734375 -0.014575399458408355712890625 0.000158097260282374918460845947265625 -0.015212123282253742218017578125 -0.0070099867880344390869140625 0.00124248838983476161956787109375 0.0062081809155642986297607421875 0.0164121650159358978271484375 -0.026028133928775787353515625 0.0139687918126583099365234375 -0.020777694880962371826171875 0.0174615494906902313232421875 0.0169432722032070159912109375 0.014314890839159488677978515625 0.01346649043262004852294921875 0.00541945360600948333740234375 0.00986718572676181793212890625 0.0149254985153675079345703125 0.012269602157175540924072265625 
0.009985492564737796783447265625 -0.00885909982025623321533203125 -0.0055648055858910083770751953125 -0.01225687563419342041015625 0.0046733622439205646514892578125 0.0005424930714070796966552734375 -0.0154337398707866668701171875 0.0001005510348477400839328765869140625 -0.008262765593826770782470703125 -0.00997183658182621002197265625 0.001387135940603911876678466796875 -0.0009339661919511854648590087890625 0.015508805401623249053955078125 0.0029720100574195384979248046875 0.01428952999413013458251953125 0.0073961247690021991729736328125 -0.012987888418138027191162109375 0.01328475214540958404541015625 -0.009221385233104228973388671875 -0.0260771773755550384521484375 0.02134072221815586090087890625 -0.0018245200626552104949951171875 -0.0108894146978855133056640625 -0.01143833436071872711181640625 -0.002417863346636295318603515625 0.011140517890453338623046875 0.014277282170951366424560546875 0.0043930481187999248504638671875 -0.011005108244717121124267578125 -0.009855738840997219085693359375 
0.0048418161459267139434814453125 -0.014142693020403385162353515625 -0.0067431344650685787200927734375 0.006255795247852802276611328125 0.009821466170251369476318359375 0.015221015550196170806884765625 0.01609337329864501953125 -0.03061211667954921722412109375 0.0077161560766398906707763671875 0.0056664533913135528564453125 -0.000268288073129951953887939453125 -0.0032505937851965427398681640625 0.015551754273474216461181640625 0.013805196620523929595947265625 -0.0065597337670624256134033203125 0.01261238195002079010009765625 -0.0075138895772397518157958984375 0.00811127386987209320068359375 0.015021823346614837646484375 -0.02317888475954532623291015625 0.0191836021840572357177734375 -0.01880122162401676177978515625 0.01144494116306304931640625 0.001605212572030723094940185546875 -2.335517274332232773303985595703125e-05 0.02376206219196319580078125 0.014047753997147083282470703125 -0.0035770968534052371978759765625 -0.007474787533283233642578125 0.0036982675082981586456298828125 
0.009852342307567596435546875 -0.0043630306608974933624267578125 -0.01855884492397308349609375 -0.0162022523581981658935546875 0.011841169558465480804443359375 0.0349578596651554107666015625 -0.010678199119865894317626953125 -0.0240135826170444488525390625 -0.02648313343524932861328125 -0.02584929578006267547607421875 -0.01023099385201930999755859375 0.0027538030408322811126708984375 -0.012949727475643157958984375 0.000783055205829441547393798828125 -0.02332618273794651031494140625 0.00912529788911342620849609375 -0.004841445945203304290771484375 -0.02005867846310138702392578125 0.01527099311351776123046875 -0.01016156934201717376708984375 6.64518665871582925319671630859375e-05 0.01590259373188018798828125 -0.01820186339318752288818359375 0.01847671903669834136962890625 -0.019866168498992919921875 0.02540888823568820953369140625 0.0139098502695560455322265625 0.01948666386306285858154296875 0.001699298969469964504241943359375 -0.0065267644822597503662109375 
0.0194660238921642303466796875 -0.0459375083446502685546875 -0.00289981369860470294952392578125 0.010047229938209056854248046875 0.0116413533687591552734375 0.008636797778308391571044921875 -0.00323309306986629962921142578125 -0.0066147181205451488494873046875 -0.00658969394862651824951171875 -0.009785789065062999725341796875 -0.00645222701132297515869140625 0.0034793880768120288848876953125 0.0009058310533873736858367919921875 -0.01662362553179264068603515625 -0.000690485467202961444854736328125 0.014086447656154632568359375 -0.008965088985860347747802734375 -0.0127543173730373382568359375 0.02083780802786350250244140625 -0.017653010785579681396484375 0.00992724113166332244873046875 0.0074420678429305553436279296875 -0.02823813259601593017578125 0.023303985595703125 0.0065410980023443698883056640625 0.0005629505612887442111968994140625 -0.002664684318006038665771484375 0.0230038054287433624267578125 0.0049351160414516925811767578125 -0.0226684398949146270751953125 
-0.001591586507856845855712890625 -0.013493083417415618896484375 0.00216494314372539520263671875 0.0202800594270229339599609375 0.01069838739931583404541015625 0.02978630363941192626953125 -0.01627512276172637939453125 0.0201677791774272918701171875 -0.00725989602506160736083984375 0.01203048415482044219970703125 0.01376142911612987518310546875 0.0056667677126824855804443359375 0.0056433076970279216766357421875 -0.02426453493535518646240234375 -0.0053357877768576145172119140625 0.02237364090979099273681640625 0.00665486790239810943603515625 -0.024249888956546783447265625 0.02381045557558536529541015625 0.0162151269614696502685546875 -0.005535383708775043487548828125 0.0050509520806372165679931640625 -0.0341699123382568359375 0.031272836029529571533203125 0.009662224911153316497802734375 -0.002254507504403591156005859375 0.0022575356997549533843994140625 0.00881459750235080718994140625 0.01456247828900814056396484375 -0.006995274685323238372802734375 
-0.000446224701590836048126220703125 0.01193785853683948516845703125 -0.0041550924070179462432861328125 -0.01409134827554225921630859375 0.00658681057393550872802734375 -0.0052861385047435760498046875 0.01409510709345340728759765625 -0.013881758786737918853759765625 0.021680675446987152099609375 0.006688718684017658233642578125 -0.006095913238823413848876953125 0.01205973885953426361083984375 -0.01477582193911075592041015625 0.01850703917443752288818359375 -0.0192822106182575225830078125 -0.00665330700576305389404296875 -0.010358980856835842132568359375 0.0021114167757332324981689453125 -0.00167266954667866230010986328125 -0.010727323591709136962890625 0.00973905622959136962890625 0.011583211831748485565185546875 0.00333257275633513927459716796875 -0.011309683322906494140625 -0.013877331279218196868896484375 0.02028926275670528411865234375 0.010940142907202243804931640625 -0.00300062051974236965179443359375 -0.013618451543152332305908203125 0.0188605785369873046875 
-0.00205633812583982944488525390625 0.002591921947896480560302734375 -0.000231851488933898508548736572265625 -0.01113633997738361358642578125 -0.0261334814131259918212890625 -0.00274921976961195468902587890625 -0.00031587845296598970890045166015625 -0.0034679532982409000396728515625 0.006173386238515377044677734375 -0.028660260140895843505859375 0.0004875369486398994922637939453125 0.00990804471075534820556640625 0.0149600096046924591064453125 0.007009199820458889007568359375 -0.01456241309642791748046875 -0.00227013067342340946197509765625 -0.014692450873553752899169921875 -0.0004912965814583003520965576171875 -0.007542776875197887420654296875 -0.000928019755519926548004150390625 -0.01722797192633152008056640625 0.010441969148814678192138671875 -0.0112304426729679107666015625 -0.0043108942918479442596435546875 -0.00213380088098347187042236328125 0.00305783934891223907470703125 -0.001087682438082993030548095703125 0.0050451620481908321380615234375 -0.02011518366634845733642578125 0.02264468930661678314208984375 
-0.009404736571013927459716796875 -0.003897446207702159881591796875 -0.004651249386370182037353515625 0.004336371086537837982177734375 0.00058496906422078609466552734375 -0.00767946802079677581787109375 0.001635824213735759258270263671875 0.004151704721152782440185546875 0.012861185707151889801025390625 0.0072751976549625396728515625 0.01879970729351043701171875 -0.009260191582143306732177734375 0.0060310172848403453826904296875 -0.00315577234141528606414794921875 -0.009761989116668701171875 -0.009963170625269412994384765625 -0.00320650567300617694854736328125 0.00337911327369511127471923828125 -0.0024403394199907779693603515625 -0.0055082761682569980621337890625 0.01982071436941623687744140625 0.009839721024036407470703125 0.01697175018489360809326171875 -0.01921424083411693572998046875 0.001211775816045701503753662109375 0.0065985848195850849151611328125 0.008169389329850673675537109375 0.00382351852022111415863037109375 0.01846246235072612762451171875 -0.00803472660481929779052734375 
-0.010763418860733509063720703125 -0.00920779816806316375732421875 0.0164018236100673675537109375 -0.01709446124732494354248046875 0.00296105234883725643157958984375 0.012752108275890350341796875 -0.014005483128130435943603515625 -0.0343130417168140411376953125 0.0047936863265931606292724609375 0.0016751699149608612060546875 -0.016699708998203277587890625 -0.02162028290331363677978515625 0.0068772030062973499298095703125 -0.002108664251863956451416015625 -0.0062873773276805877685546875 -0.00114510464482009410858154296875 -0.02105323970317840576171875 0.00502454303205013275146484375 -0.0055468319915235042572021484375 0.00381259922869503498077392578125 -0.010202768258750438690185546875 0.002196189947426319122314453125 -0.011300430633127689361572265625 -0.02435489930212497711181640625 -0.020126678049564361572265625 -0.0020057042129337787628173828125 0.02674740366637706756591796875 -0.01187733374536037445068359375 -0.006227700971066951751708984375 0.0349237807095050811767578125 
-0.0161205232143402099609375 -0.0010699112899601459503173828125 0.00041658084955997765064239501953125 -0.0056961667723953723907470703125 -0.02489330060780048370361328125 -0.00664375908672809600830078125 -0.01221344061195850372314453125 -0.0073163211345672607421875 -0.0042946063913404941558837890625 -0.0284053198993206024169921875 0.02033255808055400848388671875 -0.0186491310596466064453125 -0.000163286065799184143543243408203125 -0.01721964962780475616455078125 -0.0066494052298367023468017578125 0.015156199224293231964111328125 -0.0358513556420803070068359375 -0.02040672115981578826904296875 -0.0126802884042263031005859375 -0.0045327791012823581695556640625 0.00537737272679805755615234375 -0.02819795906543731689453125 0.008168761618435382843017578125 -0.009210716001689434051513671875 0.00227681943215429782867431640625 0.01675931178033351898193359375 0.0069458582438528537750244140625 0.00149653269909322261810302734375 0.0054299957118928432464599609375 0.020569048821926116943359375 
-0.001001461991108953952789306640625 0.010559384711086750030517578125 0.011970850639045238494873046875 -0.010752900503575801849365234375 -0.017363287508487701416015625 -0.012916560284793376922607421875 -0.00348270987160503864288330078125 -0.0108791291713714599609375 -0.005657282657921314239501953125 0.005308844149112701416015625 0.0144353993237018585205078125 0.00401627831161022186279296875 0.007029282860457897186279296875 0.0220999978482723236083984375 -0.00796854496002197265625 -0.0007589281885884702205657958984375 0.001269809785299003124237060546875 0.0006536754663102328777313232421875 -0.0047573647461831569671630859375 -0.00825171172618865966796875 0.013113698922097682952880859375 0.014503928832709789276123046875 -0.005925551988184452056884765625 -0.0072553050704300403594970703125 0.008854650892317295074462890625 -0.0203169696033000946044921875 -0.011303114704787731170654296875 -0.017170287668704986572265625 -0.00301264948211610317230224609375 0.01730175130069255828857421875 
0.012577190063893795013427734375 -0.0058946064673364162445068359375 0.0138147734105587005615234375 0.00288946623913943767547607421875 0.0147572867572307586669921875 -0.0239099450409412384033203125 -0.01329952664673328399658203125 0.0060187992639839649200439453125 0.02112509310245513916015625 0.01588391326367855072021484375 0.021105594933032989501953125 -0.003881177864968776702880859375 0.0017151045612990856170654296875 -0.01900655589997768402099609375 0.0257680229842662811279296875 -0.0075299474410712718963623046875 0.00092772603966295719146728515625 -0.00294174416922032833099365234375 -0.009172395803034305572509765625 0.011690993793308734893798828125 0.01669407449662685394287109375 0.011753552593290805816650390625 -0.01732256822288036346435546875 -0.01210428215563297271728515625 0.002028054557740688323974609375 -0.0154906325042247772216796875 0.012782924808561801910400390625 0.011453710496425628662109375 -0.011040021665394306182861328125 -0.012226521037518978118896484375 
0.009438027627766132354736328125 -0.0054105930030345916748046875 -0.00812800787389278411865234375 -0.01059164293110370635986328125 -0.008002541027963161468505859375 -0.010824485681951045989990234375 -0.0202201642096042633056640625 0.0048808981664478778839111328125 -0.01570089161396026611328125 -0.008638038299977779388427734375 0.0050047500990331172943115234375 0.0065737119875848293304443359375 0.00984264351427555084228515625 0.0048662978224456310272216796875 0.011370944790542125701904296875 0.009684500284492969512939453125 0.007972725667059421539306640625 -0.0040207621641457080841064453125 0.0071516339667141437530517578125 0.01791329868137836456298828125 0.00319828907959163188934326171875 -0.024339787662029266357421875 0.01227035559713840484619140625 0.00391852296888828277587890625 -0.0090258829295635223388671875 -0.0027117109857499599456787109375 -0.007742063142359256744384765625 0.00314919999800622463226318359375 0.0069845956750214099884033203125 -0.00142936012707650661468505859375 
-0.014695805497467517852783203125 -0.001823484781198203563690185546875 0.0059943529777228832244873046875 0.0230040811002254486083984375 0.01838686130940914154052734375 -0.01962576806545257568359375 0.0063975038938224315643310546875 0.0042691943235695362091064453125 -0.01024638675153255462646484375 -0.02462458051741123199462890625 -0.013217042200267314910888671875 -0.0063914246857166290283203125 0.011241105385124683380126953125 0.013132656924426555633544921875 0.001287952181883156299591064453125 0.007101468741893768310546875 0.019852556288242340087890625 0.021465338766574859619140625 0.0008068734896369278430938720703125 0.01629209704697132110595703125 0.013475059531629085540771484375 -0.02365089952945709228515625 0.0074292230419814586639404296875 -0.0041578295640647411346435546875 -0.01007091999053955078125 -0.00041704063187353312969207763671875 -0.014827542006969451904296875 -0.0055350600741803646087646484375 -0.0173669718205928802490234375 0.013586114160716533660888671875 
0.022015698254108428955078125 0.008510277606546878814697265625 0.008237070403993129730224609375 -0.00555866025388240814208984375 0.0033742063678801059722900390625 0.001130512333475053310394287109375 0.01284924335777759552001953125 0.01665680110454559326171875 0.0055617620237171649932861328125 0.004139036871492862701416015625 0.01690720580518245697021484375 0.01070261187851428985595703125 0.013755205087363719940185546875 -0.016642518341541290283203125 0.0016284496523439884185791015625 -0.00222133123315870761871337890625 -0.009053449146449565887451171875 -0.01511744596064090728759765625 -0.0042899795807898044586181640625 0.01723525859415531158447265625 0.008906667120754718780517578125 -0.001866400241851806640625 -0.001445761881768703460693359375 -0.010943596251308917999267578125 0.001443286309950053691864013671875 0.0048167207278311252593994140625 0.008420367725193500518798828125 0.00146195781417191028594970703125 0.0075681586749851703643798828125 -0.0072763659991323947906494140625 
-0.005658335983753204345703125 -0.001517129945568740367889404296875 -0.0221977345645427703857421875 0.00258376426063477993011474609375 -0.0056231417693197727203369140625 -0.01911312527954578399658203125 0.0076742055825889110565185546875 0.013913420028984546661376953125 -0.02087732963263988494873046875 0.00030291706207208335399627685546875 0.009551414288580417633056640625 -0.011542792432010173797607421875 0.0009438043343834578990936279296875 -0.012859404087066650390625 -0.0064493161626160144805908203125 0.010178082622587680816650390625 -0.005394135601818561553955078125 0.002245868556201457977294921875 0.0165782161056995391845703125 -0.005926780402660369873046875 0.0058516119606792926788330078125 -0.007167869247496128082275390625 0.01810633949935436248779296875 0.014469406567513942718505859375 -0.0151581652462482452392578125 -0.011994333006441593170166015625 0.01063921488821506500244140625 -0.019867785274982452392578125 0.000170355502632446587085723876953125 0.009396036155521869659423828125 
