Dimensions:
2500 30 4
Weights Input To Hidden:
0.16992185520907795992506805760058341547846794128418 -0.090340684589897468637076372033334337174892425537109 -0.022992935449482405224630454654288769233971834182739 0.10173103156280009773393402383590000681579113006592 0.041927966274533941259949898494596709497272968292236 -0.051818065087558116965649190888143493793904781341553 -0.037742524629906563926606821723908069543540477752686 0.12242238956725037812844902873621322214603424072266 0.21157386378270381932509280886733904480934143066406 -0.032718040784872982895681303716628463007509708404541 -0.21301297271757729800967240407771896570920944213867 -0.13893204584120960598525584828166756778955459594727 0.020051293287509729112993994704083888791501522064209 -0.15877852923237914528620251530810492113232612609863 0.0011669299491253069204349523957375822647009044885635 -0.19594524409488153771086160759296035394072532653809 0.2280308789221248133571862126700580120086669921875 0.14122524758034321612498729336948599666357040405273 0.20776363989322430003703345846588490530848503112793 0.12587683308027169948317691705597098916769027709961 -0.056144426017961213126739039580570533871650695800781 -0.081383113046526192602136973164306255057454109191895 -0.20944154796395911266593259369983570650219917297363 -0.032810017951994570328810851833623019047081470489502 0.18670751256000553408576081437786342576146125793457 0.08137491138975352922280137590860249474644660949707 0.051618740747642145871854069127948605455458164215088 -0.21994158422431586696887961807078681886196136474609 -0.030953280100179302036789152907658717595040798187256 0.15500896026771912583619439374160720035433769226074 
0.087795169966760983060183320958458352833986282348633 -0.086034398511150314559081664356199325993657112121582 -0.026218642133526662285625263848487520590424537658691 0.080650348363592042066905207775562303140759468078613 -0.024103360594369006159043422599097539205104112625122 -0.022920533447945957983282738723573856987059116363525 -0.032377491417711491694664260876379557885229587554932 0.096752869911900643562496782124071614816784858703613 0.10651055799346696717488924832650809548795223236084 -0.031408381277774288786730494393850676715373992919922 -0.1162429126450627153710470906844420824199914932251 -0.063996737801892647490298315915424609556794166564941 -0.020648163087534185389237961771868867799639701843262 -0.094030047999595564589547791456425329670310020446777 0.034825805359469955146956010594294639304280281066895 -0.1031361453308214659596586670886608771979808807373 0.12995154918301507485089985038939630612730979919434 0.08580019686494885777783281355368671938776969909668 0.098598643377450598257460967488441383466124534606934 0.057971141148562110867459296059678308665752410888672 -0.043491989098718472628313236327812774106860160827637 -0.080220522248980824508990394861029926687479019165039 -0.097820911411709690619353807505831355229020118713379 0.012349701904616391598401570206533506279811263084412 0.096830280380306235632481559605366783216595649719238 0.071823537426497829905258640792453661561012268066406 -0.0045131176136835862364171667593382153427228331565857 -0.10460720059542134852126338273592409677803516387939 0.0080103143506218173197641618799025309272110462188721 0.10571324376656744681302058097571716643869876861572 
0.056212495187698933996056638306981767527759075164795 -0.16572016762744132267748398135154275223612785339355 0.10281594798418242087123530836834106594324111938477 0.10283120546022098129590460757754044607281684875488 -0.25868860013115257956428649777080863714218139648438 -0.026755611623664628945240551161077746655791997909546 -0.18925221984280296561031775581795955076813697814941 0.15560445461576516423818361545272637158632278442383 0.034038142531696631565285571241474826820194721221924 -0.10591768553897926152806974187114974483847618103027 0.026307856895734615942927803189377300441265106201172 -0.16387018600174443894168518909282283857464790344238 -0.11962337663911701279850774426449788734316825866699 0.03612142426297751396369051235524239018559455871582 0.11216687020773280503149749165459070354700088500977 0.041461395678757631544364414821757236495614051818848 -0.074746113269800157352662495213735383003950119018555 0.07821891981788084424742635292204795405268669128418 0.063865819487218644656678634419222362339496612548828 -0.15461281942150564838733828310068929567933082580566 0.039741193164360054390638055110684945248067378997803 -0.24249833600407003086907309352682204917073249816895 0.0014837114426954145854353761535548983374610543251038 -0.017850753347350988703423624315291817765682935714722 0.00056755495145338662535405838127644528867676854133606 0.18082022632572938847239640836050966754555702209473 -0.24629669264087850066857754427473992109298706054688 -0.015355726049124517051946980927823460660874843597412 0.094114841518159950140010039376647910103201866149902 0.052963179655140989188222278016837663017213344573975 
0.076776222611040778609492463147034868597984313964844 -0.1001759771714396951569625571210053749382495880127 0.023437352313937755837747189957553928252309560775757 0.11001591937730129111550070319935912266373634338379 -0.11728668592296412342967926178971538320183753967285 -0.055675142117368660310550154690645285882055759429932 -0.11307883824036830955339638649093103595077991485596 0.076785248936021122112549619487253949046134948730469 0.13252764000345629291643945180112496018409729003906 -0.050798640994396314363168443151153041981160640716553 -0.085654290601572494190385498313844436779618263244629 -0.11292320368669990504617572923962143249809741973877 -0.053565390740998003460404675024619791656732559204102 -0.049924002907989407928912584111458272673189640045166 -0.005678010347163198190401089959777891635894775390625 -0.096842631555483574268272661811352008953690528869629 0.12433650940866312895050072029334842227399349212646 0.08634694491794078774482557037117658182978630065918 0.09938582792138486721178480820526601746678352355957 0.021012140209433441406794429440196836367249488830566 -0.048458511612456366124401796469101100228726863861084 -0.12987590620058586665663824533112347126007080078125 -0.12680426700037769616180582943343324586749076843262 -0.002243178598441534794122320661813319020438939332962 0.093839993279465003239714349092537304386496543884277 0.10109505679777472386682291016768431290984153747559 -0.073664653660710122107246888845111243426799774169922 -0.092420824721954869529483289625204633921384811401367 -0.053444974918907560412772994595798081718385219573975 0.092531437437241237375928903929889202117919921875 
0.10008785596730501721296491268731188029050827026367 -0.26884313230614426126763305546774063259363174438477 0.17254920685445385153400366107234731316566467285156 0.16629751252789579107904671673168195411562919616699 -0.41259229237595407280281278872280381619930267333984 0.011599620603281629235836724944874731590971350669861 -0.2879195924348163515560372616164386272430419921875 0.23048438116690619925641669851756887510418891906738 0.038434213883422579938198282434314023703336715698242 -0.17515817010877882120567505808139685541391372680664 0.13688030630431222145482195173826767131686210632324 -0.30467769245559789270672013117291498929262161254883 -0.20689350651490046040237302804598584771156311035156 0.10968050698806984522004626114721759222447872161865 0.20416367462197237969689922465477138757705688476562 0.111852782704747091835351113786600762978196144104 -0.1944026861588664389923764019840746186673641204834 0.12679361595117374927887965441186679527163505554199 0.075336834276593711567926447969512082636356353759766 -0.33189051868947000434317828876373823732137680053711 0.051576355201350759793754718884883914142847061157227 -0.37686683428786865723836285724246408790349960327148 -0.00045855006405166203777012956521730302483774721622467 -0.060462571231561991480507600726923556067049503326416 -0.071381010922283272268629161771968938410282135009766 0.26436770681390298065593924548011273145675659179688 -0.39695834813761249337815684157249052077531814575195 0.0076929736434198005973206235807992925401777029037476 0.12564072638761533684537141652981517836451530456543 0.041918055906974047153390472431055968627333641052246 
0.084704481209054410806302826131286565214395523071289 -0.12026525032551567406802206505744834430515766143799 0.040536650877360622113876331695792032405734062194824 0.1132506582070597345168749825461418367922306060791 -0.1511964535103029194651469424570677801966667175293 -0.054079166496694815180479309901784290559589862823486 -0.10813421678325763064520970146986655890941619873047 0.014895243856275936292221651058298448333516716957092 0.12851285459639821828758954325166996568441390991211 -0.036947537216734632758985412692709360271692276000977 -0.10255588401082443850143022245902102440595626831055 -0.12454830449316540985638113170352880842983722686768 -0.036695083765116251472981900860759196802973747253418 -0.073921428582657447425852126343670533969998359680176 -0.069523617697565126549719138893124181777238845825195 -0.090090088533956044769546167572116246446967124938965 0.15099552036427399404061588938930071890354156494141 0.12374236226904544722060563799459487199783325195312 0.12365990136935584020605460864317137748003005981445 -0.01228271465362571965296289988600619835779070854187 -0.086644620596370638954120124708424555137753486633301 -0.16986790346575450505461901684611802920699119567871 -0.12270008139783743217332556696419487707316875457764 -0.011012304086340509931551956412931758677586913108826 0.096723968642234425807657771656522527337074279785156 0.13343143584183797534237214676977600902318954467773 -0.11316843539067415747023659378101001493632793426514 -0.12779183776721889098659801220492227002978324890137 -0.11383316984597738330542426865576999261975288391113 0.15090747583173727552896536963089602068066596984863 
0.11216150026853330401443997743626823648810386657715 -0.087969685797788660375218228182347957044839859008789 -0.037437303898025596493592814795192680321633815765381 0.10550536181681120784237037923958268947899341583252 -0.012092011090088238683959431796210992615669965744019 -0.08277700651802856468552960222950787283480167388916 -0.037550836676430103533430582274377229623496532440186 -0.0095376436374595800760101127480083960108458995819092 0.20062331240082409422598175297025591135025024414062 0.014754756736193662403078263878342113457620143890381 -0.23023730902851194390912326070974813774228096008301 -0.11138040780884984892740163786584162153303623199463 0.010703393855051434452319014667409646790474653244019 -0.12964847666206222309703832706873072311282157897949 -0.12251934241405430803251164206812973134219646453857 -0.19008781404370658774105606880766572430729866027832 0.25774793895477016159034633346891496330499649047852 0.14837562650538924091669912286306498572230339050293 0.16414169161452635270492805830144789069890975952148 0.09441870656998904709489295328239677473902702331543 -0.089215230254553384847682195868401322513818740844727 -0.10551649229466185386794307987656793557107448577881 -0.21337445553314990376314597142481943592429161071777 0.0094545845914755441419252690593566512688994407653809 0.15558568513597825777594607643550261855125427246094 0.071249331694781065094090877209964673966169357299805 -0.0075317036312539812140109951599242776865139603614807 -0.20690876345726894047771793339052237570285797119141 -0.17259296362273129910036573164688888937234878540039 0.17904204721336355876637469464185414835810661315918 
0.15488670928439601803816572100913617759943008422852 -0.13998963952523846288045206165406852960586547851562 0.010117986807827801867820660675079125212505459785461 0.1376104056006571541015404136487632058560848236084 -0.090362144919976308821141230964713031426072120666504 -0.034018331378871287384857424740403075702488422393799 -0.11749075071045274321068774270315770991146564483643 0.076561684521193981711739695583673892542719841003418 0.24024303718115869177296417547040618956089019775391 -0.025428335698837359335477970034844474866986274719238 -0.19848534216470492541617431925260461866855621337891 -0.16645219156211413236157170558726647868752479553223 -0.025594587694826330392938729119123308919370174407959 -0.15619338342404021080511711261351592838764190673828 -0.034146421016319448982212492182952701114118099212646 -0.16103428054866786300891590144601650536060333251953 0.20193277196963324571221676251298049464821815490723 0.18367385183847689811287295924557838588953018188477 0.21354040850220079583721144445007666945457458496094 0.051520057602262379903290678839766769669950008392334 -0.051716048214082759038046077648687059991061687469482 -0.15389782296445519982341920695034787058830261230469 -0.24348765258789481502610385632578982040286064147949 0.0018901484969004135258674459407757240114733576774597 0.19173422390391353653527062306238804012537002563477 0.11369572551652828984458665217971429228782653808594 -0.043599237143899606528041346109603182412683963775635 -0.24766395666948931575390702164440881460905075073242 -0.074540767465838222993745887379191117361187934875488 0.18981407498765734409573724406072869896888732910156 
-0.047843073648646643192261507238072226755321025848389 -0.030709721798873351739089798684290144592523574829102 0.058062468881940845766287395690596895292401313781738 0.0048415767930665744300799957500203163363039493560791 -0.079884794503117487196597323872993001714348793029785 -0.011404405318775087327387574021031468873843550682068 -0.049207461127536766820611546791042201220989227294922 -0.022237651747036478455665786668760119937360286712646 -0.053430174437109990981387142028324888087809085845947 -0.043971650746476159676845441026671323925256729125977 0.017744734959161026499607771711453096941113471984863 -0.045436779518591270676797222449749824590981006622314 -0.045201290300473574712558644250748329795897006988525 0.024516552519330801068742076154194364789873361587524 0.015242017050586323390071186167915584519505500793457 0.02388891444052447521340099001463386230170726776123 -0.074835075330715150609961483496590517461299896240234 -0.011914275219528319346706801695745525648817420005798 -0.045437944139131540566278744108785758726298809051514 -0.081438174047976499836387631603429326787590980529785 -0.029604372722547029478379343458982475567609071731567 -0.037204107590804065541778555825658258982002735137939 0.024188413677433004411732042626681504771113395690918 -0.0059404800237582633046229396711623849114403128623962 -0.024860023784596223250797919490651111118495464324951 0.02331750898489389975387631182002223795279860496521 -0.08457666341083790173538403678321628831326961517334 0.036870130558530021802621234883190481923520565032959 -0.0014100704842982636315340538857299179653637111186981 -0.014721162785485136445529086302030918886885046958923 
-0.060432481888302504169363515984514378942549228668213 -0.0093716151947633736379872360089393623638898134231567 0.022427281619976421195294946642206923570483922958374 0.015969913512285716095107090950477868318557739257812 -0.050113690160810679674607825972998398356139659881592 -0.026191415930930255634434544731448113452643156051636 -0.020217921803351742576770888604187348391860723495483 -0.010293719712654466474921477470161335077136754989624 -0.027776992674139695804758076747020822949707508087158 -0.01957377088227499339900816721637966111302375793457 0.027840600685870235675434258837412926368415355682373 -0.013748208491052318208636151553037052508443593978882 -0.031681334863044224858796837906993459910154342651367 0.031892071345616099242725738349690800532698631286621 -0.0077568660110997212503436415431679051835089921951294 0.029544013465427548109643041129857010673731565475464 -0.0072349968375969679612591534123566816560924053192139 0.00034844795211638171419238352299885264073964208364487 -0.021489604045649965402553505100513575598597526550293 -0.018584015881640738448998817489155044313520193099976 -0.024872862734666080497536455595763982273638248443604 -0.014174505860530458092871874953289079712703824043274 0.017413623700701510305099972697462362702935934066772 0.0085920087189551297424117137779830954968929290771484 -0.0052547727296003449853900590937882952857762575149536 0.024608670896802447430884441814669116865843534469604 -0.067248887328059378520883626606519101187586784362793 0.038503227413455083649740373630265821702778339385986 -0.01503656088146550391659861389825891819782555103302 -0.0065112711816603498563016394484748161630704998970032 
-0.02901771333823956883213313062697125133126974105835 0.023262688798053755140360365771812212187796831130981 0.033430012404229950129241899503540480509400367736816 -0.021126741875039631995969457989303919021040201187134 -0.065510509308348355284046249380480730906128883361816 -0.033445779717474394265863679720496293157339096069336 -0.024510083838098443292929928816192841622978448867798 0.0080650531225654412820214034240962064359337091445923 -0.036946769329729518827054590701663983054459095001221 -0.028027540407225184221351454993964580353349447250366 0.052327361957852480678354822885012254118919372558594 -0.0020475176365952274873394323151387652615085244178772 -0.028382960689012241839446204494379344396293163299561 0.029758064637948875019723971036000875756144523620605 0.021090590397902581748512673698314756620675325393677 0.018018400290127977586562835199401888530701398849487 -0.057955607459147961968426443490898236632347106933594 -0.046076538216818570259381004916576785035431385040283 -0.052446064183436599814847056677535874769091606140137 -0.031911458946419571369723655607231194153428077697754 -0.022989216886035262338294771211621991824358701705933 -0.028871188181884568924040479487302945926785469055176 0.026182065067668621599628053786545933689922094345093 0.0086489328010269320851088892254665552172809839248657 -0.039760941725536076696290166410108213312923908233643 -0.0027599818935859646643060649751078017288818955421448 -0.070075371553336152086188803878030739724636077880859 0.061147749521336648703684346628506318666040897369385 0.00027529864242911516016357187375263038120465353131294 -0.041805527344925048904844544495063018985092639923096 
-0.052402951174169515313749911911145318299531936645508 -0.019609963856199751075504167374674580059945583343506 0.045771315127785372478541603413759730756282806396484 -0.014451481408944500187119253098444460192695260047913 -0.10559005273858716733581530888841371051967144012451 -0.007046865729205688266834073374411673285067081451416 -0.052546831552510060714400452752670389600098133087158 0.043412887799305313607511891405010828748345375061035 -0.062576235014966188896501364524738164618611335754395 -0.033737580089134119876170814222859917208552360534668 0.078663601940211561047711086303024785593152046203613 -0.013989792336483159937432496633391565410420298576355 -0.068688518510687246454438081855187192559242248535156 0.063611043841867012660351576869288692250847816467285 0.095431693682632809383470373632007976993918418884277 0.089429132567516472773760938252962660044431686401367 -0.13413806451188808877006408692977856844663619995117 -0.036171635256142635472809132579641300253570079803467 -0.055175018579087735381971668857659096829593181610107 -0.094556527469210671643651267004315741360187530517578 0.042879340121958500753329701637994730845093727111816 -0.03086004390747821776730397402843664167448878288269 0.068391142470632271255226442008279263973236083984375 0.0055797583574989512156250270891177933663129806518555 -0.076693002891973713341933205356326652690768241882324 0.027375494536656764382742679231341753620654344558716 -0.096166313570986955427954967490222770720720291137695 0.075716505508201040197668874043301912024617195129395 0.10249645781135320599108951000744127668440341949463 -0.07246331666389707604203351820615353062748908996582 
0.060433590464959142940504221996889100410044193267822 -0.012152292135809117726297223782694345572963356971741 -0.01110680209741185357763537666642150725238025188446 0.035595265984860263719369299906247761100530624389648 -0.016169446662079447335491622084191476460546255111694 -0.0089213416277728590370044159385543025564402341842651 -0.032815033599067136571569847092177951708436012268066 0.061186197360195621053335912620241288095712661743164 0.050029749086664555834946810364272096194326877593994 -0.014814568312980563521974453067286958685144782066345 -0.051269709342947653030186927480826852843165397644043 -0.056895067576205396453481455409928457811474800109863 -0.0034971050987777250670940354382310033543035387992859 -0.04935487646589191423895925936449202708899974822998 0.050456059812884965221080335595615906640887260437012 -0.042698477313810337396837724099896149709820747375488 0.052220795975446487879878532112343236804008483886719 0.02656091567833921210373127053117059404030442237854 0.051346363775084120917302499265133519656956195831299 0.010759604935554634499994541840806050458922982215881 0.017437851599755489068188651913260400760918855667114 -0.010990205467583998716341042722888232674449682235718 -0.050305951488198774601556806373992003500461578369141 -0.03737874612694280784808142925612628459930419921875 0.035298876464425164856120176182230352424085140228271 0.019994936392577201261788744091063563246279954910278 -0.018091124042872431393336185578846198040992021560669 -0.076710359146848594580347935334430076181888580322266 0.041222318911930913576391333208448486402630805969238 0.037636306965080537634271706792787881568074226379395 
0.040494833851660319568033230552828172221779823303223 0.018196432450826409421562601664845715276896953582764 -0.041290411589682884940799567630165256559848785400391 -0.01814999775309351220942133409153029788285493850708 0.039498430095784742288600455140112899243831634521484 -0.046082879237715278220033354728002450428903102874756 0.042974328971974978808034961730299983173608779907227 0.05683089982838050030489185360238479916006326675415 0.078280556832464098793167295298189856112003326416016 0.013667449615803375223554994022379105444997549057007 -0.120751902106508005041440867444180184975266456604 0.027122572952643139027051333300732949282974004745483 0.036612915453551490851946681459594401530921459197998 -0.10854924970960778962680848280797363258898258209229 0.030153255530911315246411774637635971885174512863159 -0.073201126244200512283022419524058932438492774963379 0.10812965520597817015158170761424116790294647216797 0.0067395170447913854347432582869714678963646292686462 0.067278391101143322772237809203943470492959022521973 0.079284883497787825290537000455515226349234580993652 -0.024365969902420358400574329493792902212589979171753 0.02834403574954388188578136009709851350635290145874 -0.10007215033390284841807726934348465874791145324707 -0.025503251978564459717668810867508000228554010391235 0.092108409943588778756584645179827930405735969543457 -0.024448542800329327306929627638965030200779438018799 0.065604280490118002666655172561149811372160911560059 -0.089334203780042933940030991379899205639958381652832 0.028909110672622306825729765478172339498996734619141 0.035728071470939461173887963241213583387434482574463 
-0.031309047131275719033638438304478768259286880493164 0.11412922088499839745612263186558266170322895050049 -0.068243977876253802961059591325465589761734008789062 -0.040756171747119207537934926222078502178192138671875 0.12913180864643361567267731970787281170487403869629 -0.0081069213205861370696858614337543258443474769592285 0.10015179458849461646696710204196278937160968780518 -0.023849710913384968014039344552656984888017177581787 0.026447892177679219183339398568932665511965751647949 0.06409286188127324979113552672060905024409294128418 -0.093191134278140186353311946731992065906524658203125 0.15085965810577636747602525701950071379542350769043 0.10289438770177035398223353013236192055046558380127 -0.088449630700533757310388693895220058038830757141113 -0.047325989700521181591241770547640044242143630981445 -0.063297547336512605120617536158533766865730285644531 0.13971046768086248235363200365100055932998657226562 -0.0068250815490124815132499946912503219209611415863037 0.0093880093608269751803696578917879378423094749450684 0.14473525647118309911398625899892067536711692810059 -0.044765419370782599806091184291290119290351867675781 0.15950539372911606839089415643684333190321922302246 -0.046582881374351792214127954139257781207561492919922 -0.02071723442033283207885929755320830736309289932251 0.0551773562437968059790627251004480058327317237854 -0.12306885141953072260179169461480341851711273193359 0.11834611981789878998316822844572016038000583648682 -0.040836732813788939600030403198616113513708114624023 -0.05279159205009294891786097991825954522937536239624 0.00038772994381881028397307531463411578442901372909546 
-0.097585579166610425527750294349971227347850799560547 0.17707086080912814995969029041589237749576568603516 -0.073412168239369968159024892884190194308757781982422 -0.10378226361470603567038750725259887985885143280029 0.16610321366497629580472050747630419209599494934082 -0.01635307128388015923681209073947684373706579208374 0.1585448752242481218477365700891823507845401763916 -0.077663476768214931289513458523288136348128318786621 -0.10370144136427524028665203559285146184265613555908 0.041448163697130238625199183388758683577179908752441 -0.012322756490495918868521840749963303096592426300049 0.2498985857580794944787783151696203276515007019043 0.10629519810309234761902530408406164497137069702148 -0.011293466572341009923619026267260778695344924926758 -0.047859606639940766026342089389800094068050384521484 -0.00053181527459555879167735215062862152990419417619705 0.029069161714178781696915621068910695612430572509766 -0.10797310880839149083154637764891958795487880706787 -0.10754879262098976377970416251628194004297256469727 0.16668226762270926810671767270832788199186325073242 -0.055456928496256073513048789891399792395532131195068 0.22645996546697685913862585493916412815451622009277 0.073641072504509227925062475605955114588141441345215 0.0084875847210626811922828949263930553570389747619629 -0.026414950411542157532318597645826230291277170181274 -0.15890668077412509195944778639386640861630439758301 0.15681996633668401908145995093946112319827079772949 0.076574157927464026052177814563037827610969543457031 -0.054202331887030767709756418071265215985476970672607 -0.095279346075381687874994440790032967925071716308594 
-0.13890931560379177200914568857115227729082107543945 0.17530709289715049048474782011908246204257011413574 -0.05280411150376492640523551358455733861774206161499 -0.12977617947105141160690777724084910005331039428711 0.062407843535043854010790909114803071133792400360107 0.012544671202429170941972103037187480367720127105713 0.13093287150197563395437327926629222929477691650391 -0.0027757227085911263114725855416509148199111223220825 -0.16189498590779477504852934544032905250787734985352 0.049972871337927320112282103536927024833858013153076 0.12565247522090527976246221442124806344509124755859 0.23548323391133929582963446591747924685478210449219 0.052928780827177390744253671073238365352153778076172 0.098881880511050054827215660679939901456236839294434 0.045290910220466142066531034515719511546194553375244 0.097844616722334756819812184858164982870221138000488 -0.10902117541688893798124126988113857805728912353516 -0.14731757143964155365445378720323788002133369445801 -0.18413606048009981130952894545771414414048194885254 0.04030113350772273478339613461685075890272855758667 -0.002776301699102608384894796955677520600147545337677 0.20280219556392742319417266116943210363388061523438 0.20205376968294705419815215918788453564047813415527 -0.0012829914844562212688366953372565149038564413785934 -0.12348393001832541626683337199210654944181442260742 -0.14636440227240271605424482004309538751840591430664 0.070106389050070994084506992294336669147014617919922 0.16729149716479471687868851859093410894274711608887 0.044823809284656658535883622107576229609549045562744 -0.16996453642166908792887625168077647686004638671875 
-0.17733689571598021395004707301268354058265686035156 0.23857061807308430068097493403911357745528221130371 -0.033498040690174417377544813234635512344539165496826 -0.1800106225082600819309419648561743088066577911377 0.078957562513952458949084700634557520970702171325684 -0.0053962561819428768797313189509168296353891491889954 0.13026028674266335039000352935545379295945167541504 -0.025900954666511658702754417049618496093899011611938 -0.25222237395890567679401783607318066060543060302734 0.040436068762914514906903207247523823752999305725098 0.16724455467120569185368594844476319849491119384766 0.2867016476634123844924317836557747796177864074707 0.045080578546886060364862203186930855736136436462402 0.13624613480134076248795338415220612660050392150879 0.034361953142696487206730893149142502807080745697021 0.14850643054415110788646359196718549355864524841309 -0.18137949592946736587784073435614118352532386779785 -0.18511923964932755493073557317984523251652717590332 -0.24800155510698998484464539160398999229073524475098 0.019308182746512209809752746991762251127511262893677 0.018499452044953800661231113622307020705193281173706 0.23331933311654176610439037631294922903180122375488 0.25957644000817964302640916685049887746572494506836 0.032556805512864356311197866489237640053033828735352 -0.16018568765531160380533037823624908924102783203125 -0.17577689471787011354919627592607866972684860229492 0.05381924664650144379818286211047961842268705368042 0.25566221765497770812558542274928186088800430297852 0.051624119198740464620200896206370089203119277954102 -0.19133952661038364229106889524700818583369255065918 
-0.1645695144485667948952567485321196727454662322998 0.11375026319548244002621828485644073225557804107666 0.033292669844667707734764405813621124252676963806152 -0.10718730531532351391010848828955204226076602935791 -0.10383388256538204907908351515288813970983028411865 0.03124791475595888046168369100996642373502254486084 0.0035252692848227718501463723299593766569159924983978 0.097029557440590774586297584392013959586620330810547 -0.281245558238072845824717660434544086456298828125 -0.02069026690859293235447147196737205376848578453064 0.27374035435423715867386817990336567163467407226562 0.15728139543533631306004849648161325603723526000977 -0.02005702551717329987224225362751894863322377204895 0.20495109003639205846880599892756436020135879516602 0.19225556997380319201873533074831357225775718688965 0.22972743296991968153797358809242723509669303894043 -0.32319950316416967694976847269572317600250244140625 -0.20217278914313069337893580268428195267915725708008 -0.23094016122985497330155624240433098748326301574707 -0.12765723859077510171644576075777877122163772583008 0.075771686336851357124189121350354980677366256713867 0.090748999558299223155977131227700738236308097839355 0.31984249844215384417367431524326093494892120361328 0.022264251771625751669114734454524295870214700698853 -0.21202921953393072396210072838584892451763153076172 -0.086995734147368164457247985410504043102264404296875 -0.12062668005798786452498205790107022039592266082764 0.29770533126340720242453130595094989985227584838867 0.19478147679157023497431566738669062033295631408691 -0.24445592727236944985413913400407182052731513977051 
0.035321291588418221585321532529633259400725364685059 -0.094549414562249370352908783843304263427853584289551 0.060075012576914110784542799592600204050540924072266 0.059187378368656846927553516479747486300766468048096 -0.17435649359047000750422284909291192889213562011719 0.013419654031235031532709456314478302374482154846191 -0.10686402328898633729004075121338246390223503112793 0.16990807904169402675620403897482901811599731445312 -0.040631444593893902006431773088479530997574329376221 -0.081985278571423625404435142627335153520107269287109 0.11281467981597520511272136900515761226415634155273 -0.098673581570491344927553711841028416529297828674316 -0.099173401325710494602638789274351438507437705993652 0.07831354975702790877090109233904513530433177947998 0.18420071076327507175740549882902996614575386047363 0.054017043021174056260935714135484886355698108673096 -0.10573407054498754065186005846044281497597694396973 0.0043997932980347972953261148632009280845522880554199 -0.043771184356185204034073166212692740373313426971436 -0.1299251766754735970543777057173429057002067565918 0.048939407870774290221227431629813509061932563781738 -0.15091076259534161319031397852086229249835014343262 0.057354354639200057219827755261576385237276554107666 -0.010340447904439222306938184203772834734991192817688 -0.035280227569122774022858379794342909008264541625977 0.10545721531143358029591894364784820936620235443115 -0.15673090794298422112618140999984461814165115356445 0.074364699693172553462972018678556196391582489013672 0.1608257257436452591914388676741509698331356048584 -0.052353819620711554427838763103864039294421672821045 
0.11257572932279469313243680517189204692840576171875 -0.12171280306647200286640497779444558545947074890137 0.068497712619434492076209153310628607869148254394531 0.11423000729242346884539927032164996489882469177246 -0.17187595826655616138012305782467592507600784301758 -0.0037168516213850343217484084590296333772130310535431 -0.14792915195170946995872895968204829841852188110352 0.18255193094158300715079690235143061727285385131836 -0.020602065165684416842006854153623862657696008682251 -0.077946548775847834811258962872670963406562805175781 0.040177544392035496878534672759997192770242691040039 -0.1632428391301353198805657029879512265324592590332 -0.06728189481849351782916102138187852688133716583252 0.053417196072386596839010053372476249933242797851562 0.17948941735725784663024739984393818303942680358887 0.044402137178896732006005976245432975701987743377686 -0.039719630257837486297933793366610188968479633331299 0.038318587713827678697953160735778510570526123046875 -0.0097844703703808249412032793657090223859995603561401 -0.12560048639379223223144776966364588588476181030273 0.079230430764210366123556639195157913491129875183105 -0.1746514730887483435317619751003803685307502746582 0.025358683631507183270370475725030701141804456710815 -0.046875060758024895968265610690650646574795246124268 -0.0084962175759470768415804187156936677638441324234009 0.13821252781161974532153635664144530892372131347656 -0.16940350040572668688376722911925753578543663024902 0.021349475464245915717897972285754804033786058425903 0.13129393535879343990480094817030476406216621398926 -0.035376882641076086433162828370768693275749683380127 
-0.11210755186049929654767964848360861651599407196045 0.068399086107825413094474242825526744127273559570312 0.10553070198612111985081440934663987718522548675537 -0.085279584406800501561463079269742593169212341308594 -0.17477386675175704544571431142685469239950180053711 0.034217408582989841669963482218008721247315406799316 -0.027873948335621720473476159440906485542654991149902 0.020120224390174013678889153311502013821154832839966 -0.33906159747987812957958908555156085640192031860352 -0.066622185432401268001534333507152041420340538024902 0.31932820073832207663500071248563472181558609008789 0.11724862040709166377538963388360571116209030151367 -0.07627954977862280716571774519252358004450798034668 0.21713243595320289025529802984237903729081153869629 0.15526643012953636469042351109237642958760261535645 0.26598886463954507508589131248299963772296905517578 -0.32827300169069961732759566075401380658149719238281 -0.17441612900254913065545281369850272312760353088379 -0.29640829902537280116092688331264071166515350341797 -0.19005997369554536446933923343749484047293663024902 0.11417804846287249453951062605483457446098327636719 0.0098085706733531102113898825223259336780756711959839 0.3700705230675556123287606169469654560089111328125 -0.025861725713561420358921338902291608974337577819824 -0.24212224230122619816896190059196669608354568481445 -0.019780650802299348800517009294708259403705596923828 -0.16880365365322960724547840527520747855305671691895 0.34066820093729566210072334797587245702743530273438 0.18335871858860786076661497645545750856399536132812 -0.29573916026560181924409675957576837390661239624023 
0.047767044916402622012352452429695404134690761566162 -0.017460590139863039343959272287065687123686075210571 0.00091684618543855516022145213383964801323600113391876 0.038148821681962236107565900056215468794107437133789 0.0099153339892163357138787915801003691740334033966064 -0.035694467263959084313285075040766969323158264160156 0.018804053293343465230735844784248911309987306594849 -0.020006017592416682621125900709557754453271627426147 -0.047511898522482096107744098389957798644900321960449 -0.034250988215030295225282941373734502121806144714355 -0.042626541871540947481467043189695687033236026763916 -0.026214981428939024971080939963030687067657709121704 0.023717346507000018618338543774370918981730937957764 -0.017558179882086449169475983467236801516264677047729 -0.0076545290875872501468180075789859984070062637329102 -0.047758486198134740552401211743926978670060634613037 0.065988336731012994795797510505508398637175559997559 0.013555399186737164887728290807444864185526967048645 -0.012712590916551688019486832104121276643127202987671 -0.0031595565855362436197273368065907561685889959335327 0.018715522467610285622940935468250245321542024612427 0.016464589565375817303838346106203971430659294128418 -0.01201792048785612146422074886231712298467755317688 -0.060842364898875157808166846962194540537893772125244 0.018223763804015254141877022675544139929115772247314 0.0071230993530754967146823020129886572249233722686768 0.027753697371058642928698390051067690365016460418701 0.010027292756194617490139719961916853208094835281372 -0.00091365583374139740669567233410930384707171469926834 -0.012655844418765356887424111675954918609932065010071 
-0.0099843104461489994017053817287887795828282833099365 -0.01372857742777219142160660680929140653461217880249 0.041532467132957044675389823851219261996448040008545 -0.010263987671780536170551556551799876615405082702637 -0.060262067468461716357452928605198394507169723510742 0.021065460567839172645321355048508848994970321655273 -0.024164188689865469944484388520322681870311498641968 0.055400494269686573201028068069717846810817718505859 -0.10188385287432588643952158236061222851276397705078 -0.042574203646660958855196810191046097315847873687744 0.10710925574159771422877440727461362257599830627441 -0.023133418879427873615650668170928838662803173065186 -0.074272400111614927942227382118289824575185775756836 0.036012237119269721596914735073369229212403297424316 0.10770490315318062557459199979348341003060340881348 0.059369881762276165149128104303599684499204158782959 -0.13919086726172380519273019672255031764507293701172 -0.067850930627650435367215209225832950323820114135742 -0.092809686051091397351875400545395677909255027770996 -0.05408186031038701019335590558512194547802209854126 0.071127883189692764354106202517868950963020324707031 -0.02028706171784890044396121311365277506411075592041 0.099663354701772191579500770330923842266201972961426 -0.039351013699506103005187895860217395238578319549561 -0.077514770035374686019125078928482253104448318481445 0.032029932374843285425303207603064947761595249176025 -0.073863981538407355587061431378970155492424964904785 0.077905878552369967060542421677382662892341613769531 0.087257459797215844443663002039102138951420783996582 -0.10033638553295529116660134150151861831545829772949 
0.050417305210750683330811483529032557271420955657959 -0.21782916096218288282138075828697765246033668518066 0.21846993190612212787371504418842960149049758911133 0.085122771912410855055242109301616437733173370361328 -0.39587795416729099073904762917663902044296264648438 0.065291537542417371620118160535639617592096328735352 -0.27854065223277774121513061800214927643537521362305 0.32114678113596711872546052290999796241521835327148 -0.11340233607106423030508324245602125301957130432129 -0.19140752422156942502695642360777128487825393676758 0.30492751838972820266349117446225136518478393554688 -0.24195101373666200172962703618395607918500900268555 -0.26686085051506336363047466875286772847175598144531 0.19520287600485586310128383047413080930709838867188 0.34135177191838711463489630659751128405332565307617 0.24773592089851642628062222684093285351991653442383 -0.40245512783088188690783226775238290429115295410156 -0.055854644126454591757102718929672846570611000061035 -0.038959623497386394741504034300305647775530815124512 -0.40051437736229328345771705244260374456644058227539 0.20609843411854725236942442734289215877652168273926 -0.34462716185651121048039158267783932387828826904297 0.16844202176631545286866753485810477286577224731445 -0.12868122864076328437654694880620809271931648254395 -0.18062771420711978831441513193567516282200813293457 0.2177874451020230250897213863936485722661018371582 -0.38667004984593877914278436946915462613105773925781 0.17353804470043951435620499523793114349246025085449 0.35834966898672004909087718260707333683967590332031 -0.11427944838945020000764429823902901262044906616211 
-0.13978712065274201403752840633387677371501922607422 0.062789734708368558080415766653459286317229270935059 0.054561623044228284296064401814874145202338695526123 -0.089488341435704138460138779009866993874311447143555 -0.11489917389159221006167399536934681236743927001953 0.017313126564499368986727034780415124259889125823975 -0.052905084278923986129683498802478425204753875732422 0.079559420151975313029169001310947351157665252685547 -0.28247821779060289237861525180051103234291076660156 -0.041152146463640820739371406489226501435041427612305 0.29253848779031654814275498210918158292770385742188 0.072787933168659751936857560394855681806802749633789 -0.045506342264616306270141876666457392275333404541016 0.20711143320972083547992781404900597408413887023926 0.17159582756169719508498872073687380179762840270996 0.22399227922381820254926765301206614822149276733398 -0.32338535231867926444948579955962486565113067626953 -0.17538073382670735234079018027841811999678611755371 -0.22901756117362948028670643907389603555202484130859 -0.13944055380858030868118646594666643068194389343262 0.08767745283519896848378749609764781780540943145752 0.0002237631568812548186336863764722693304065614938736 0.31462094845231031170484925496566575020551681518555 -0.003193707413194619201129986763021406659390777349472 -0.2150162565153447558063959377250284887850284576416 -0.026859983147256651786483061528088001068681478500366 -0.12220035353372918351944065307179698720574378967285 0.27761352349902457259389620958245359361171722412109 0.16459101352059424261398135058698244392871856689453 -0.2478761043930848839700331609492423012852668762207 
0.38503659869563033879558133776299655437469482421875 -0.36736273574139433062413218067376874387264251708984 0.052733214183819029918787180122308200225234031677246 0.27854481368900307902691793060512281954288482666016 -0.15402417566547341176708130205952329561114311218262 -0.10698740161068644172193131680614897049963474273682 -0.22408250582056238320305396882758941501379013061523 0.30513604680450640005417994871095288544893264770508 0.44754006639039251025380394821695517748594284057617 -0.089408762028953925327101615039282478392124176025391 -0.36832891152150437630297119540045969188213348388672 -0.43558336486022014577557115444506052881479263305664 -0.078172388255863395345457433904812205582857131958008 -0.24807135125594759195166716381208971142768859863281 0.11034959359507709453218637918325839564204216003418 -0.27747953273621966951978379256615880876779556274414 0.34778571859880574868029157187265809625387191772461 0.31622122197118002207005815762386191636323928833008 0.40894086433258014512404088236507959663867950439453 0.0012338087761716983944970671416285767918452620506287 0.0131749336491106643076687277016389998607337474823 -0.40354527471563284013456041066092438995838165283203 -0.44539153598495345720564841940358746796846389770508 -0.17550131674439009565880098762136185541749000549316 0.27213684397346876719936403787869494408369064331055 0.29380116801511085844467174865712877362966537475586 -0.11893142416492545609951747564991819672286510467529 -0.42083824697013921811716841148154344409704208374023 0.048903924677298732381913737299328204244375228881836 0.32038519038635204783105336900916881859302520751953 
0.2492232550716028949278069148931535892188549041748 -0.1805417555337004986704130260477541014552116394043 -0.030214364903329207073801043748062511440366506576538 0.15763332782078204319375913655676413327455520629883 0.076215429106011339799309212139633018523454666137695 -0.087654065209632092692260130206705071032047271728516 -0.064906167797470437630380502014304511249065399169922 0.099950189672059902568079792217758949846029281616211 0.17330378132495677379054654920764733105897903442383 -0.05384321905109189232430111360372393392026424407959 -0.22264770433766478685555512129212729632854461669922 -0.21873673535144083635017864253313746303319931030273 0.0080046908133246368749480481596947356592863798141479 -0.1718036911107656550257161143235862255096435546875 -0.023474671439872890621458623172657098621129989624023 -0.1813286059254871074308823608589591458439826965332 0.27305106028884534863365729506767820566892623901367 0.19598809897484084641128276871313573792576789855957 0.1980500856657457231513319584337295964360237121582 0.10050742410264462689539755047007929533720016479492 -0.017723262393734496439323677918764587957412004470825 -0.11810747385160531852665855012674001045525074005127 -0.20455949521540350843906708178110420703887939453125 -0.087276185092080293959071468634647317230701446533203 0.1523877957157104556795701455484959296882152557373 0.10428309344500015509726864593176287598907947540283 0.066141876585798106691349573793559102341532707214355 -0.21180905059772650589344777927180984988808631896973 -0.039756971497644566504447993793291971087455749511719 0.12716624268845300171904000308131799101829528808594 
-0.29196840759298353651374213768576737493276596069336 0.40042818759582787802031589308171533048152923583984 -0.17944554924330319289893509449029807001352310180664 -0.24230970954813199624844344270968576893210411071777 0.48943624646886457751904231372463982552289962768555 -0.055527673252268053283309257039945805445313453674316 0.36368182472928428650149612622044514864683151245117 -0.35292111569398332271418894379166886210441589355469 -0.3609341796637732246999519247765420004725456237793 0.13720376784386895119283167332469020038843154907227 0.090797716198643282914382268700137501582503318786621 0.47252904521567934414960632238944526761770248413086 0.20905787599167213741679915983695536851882934570312 0.073491901472620260737933506334229605272412300109863 -0.29271853391916935471783745015272870659828186035156 0.067366023505241290347811400351929478347301483154297 -0.029227058411092292355970556627653422765433788299561 -0.2279436701635454143310965946511714719235897064209 -0.3652365654732545041660785045678494498133659362793 0.33141581687153709445681215584045276045799255371094 -0.10330629357574877547065739236131776124238967895508 0.54119856410870215146502459901967085897922515869141 0.31785256383214560704786322276049759238958358764648 0.076355977263966881563028721302543999627232551574707 -0.1640607225977529226579321175449877046048641204834 -0.36558898924245347705763720114191528409719467163086 0.46503876116641656990324804610281717032194137573242 0.31614945373739328227102873825060669332742691040039 -0.18905709432064668473749691202101530507206916809082 -0.27952828942842483650466078870522323995828628540039 
-0.38975576759418673056245552288601174950599670410156 0.062118676486307908279904665960202692076563835144043 0.1812571953373321720359712116987793706357479095459 -0.097861979306211377416246932625654153525829315185547 -0.21253767687218472204335739661473780870437622070312 -0.009386778496777195904265944648159347707405686378479 -0.036538410208744778739919922827539267018437385559082 -0.39134146012444570583710401479038409888744354248047 -0.48829272934963702246236039172799792140722274780273 -0.054741813274271557132610865892274887301027774810791 0.486338704518356479411522741429507732391357421875 0.1058740618622707185814135755208553746342658996582 -0.12580111541293706456379197788919555023312568664551 0.36863452142958536006389635986124631017446517944336 -0.18728302460946522067786190746119245886802673339844 0.41625103772261184964520452922442927956581115722656 -0.53807202985122792870953389865462668240070343017578 -0.1993966981070244004481395450056879781186580657959 -0.44268469990652081769155756774125620722770690917969 -0.35904973921180077800485719308198895305395126342773 -0.067971322329003922013690441872313385829329490661621 0.026397669784038003265580485390273679513484239578247 0.47537921456325610281012927771371323615312576293945 0.14451152832770772227455324809852754697203636169434 -0.35790626787814844300683603250945452600717544555664 -0.023315085660817778251407972334163787309080362319946 -0.23513524832188581470404642459470778703689575195312 0.47404458502617191628658588342659641057252883911133 -0.18837963787478076427284179317211965098977088928223 -0.21567389594059654944757653538545127958059310913086 
-0.15106098446481502906024729782075155526399612426758 0.16817743893604117366713524006627267226576805114746 -0.069461439605351560366841567883966490626335144042969 -0.11115649839936329879019893951408448629081249237061 0.21177486740523324137974725545063847675919532775879 -0.011168665363951663441199890769439662108197808265686 0.15545477796077319943002237323526060208678245544434 -0.1858172913933785197482251305700629018247127532959 -0.15490561768180183266352401005860883742570877075195 0.050426116298261894344001632362051168456673622131348 0.094224869493858942615105434015276841819286346435547 0.19065187302251043743872571667452575638890266418457 0.082496948240016812481378849497559713199734687805176 0.067804507747494524583231623182655312120914459228516 -0.14392015304567379319067299547896254807710647583008 0.06379356011026089678939143823299673385918140411377 -0.090905277550965404853577922494878293946385383605957 -0.12179658767906161032090750495626707561314105987549 -0.1582584083665011520647425413699238561093807220459 0.1165969027016037912192203407357737887650728225708 -0.076031399006468242118828015918552409857511520385742 0.21590618344338916023694707746471976861357688903809 0.15091886794023037787759733419079566374421119689941 0.11617204642748905907279066695991787128150463104248 -0.092553841565802333346546504344587447121739387512207 -0.14123536870748548688325740840809885412454605102539 0.17197562804381152923305364765838021412491798400879 0.14867438311281488960702290569315664470195770263672 -0.10204699006480866252388750581303611397743225097656 -0.13535857424651492886269465998339001089334487915039 
-0.026414361501858066305636896231590071693062782287598 0.048686198839576533270445679590920917689800262451172 -0.066695478666337668083308187760849250480532646179199 -0.029396729418132452188450187691159953828901052474976 0.21018484024746622584878252837370382621884346008301 -0.041213574892278302674863965648910379968583583831787 0.074690830999734614259466525254538282752037048339844 -0.09181867804494515949986777059166342951357364654541 -0.067264442084158937440463432722026482224464416503906 -0.0096709864918545877798816690074090729467570781707764 0.032115854360072283724125696835471899248659610748291 0.073375324745583225816147887599072419106960296630859 0.068815586937274506040829180619766702875494956970215 0.030824781323722301451528693405634840019047260284424 -0.096127460913743217885141234546608757227659225463867 0.031333910824911416492799531852142536081373691558838 -0.043680582386394516125616149793131626211106777191162 -0.034631654310958014109100844279964803718030452728271 -0.054456246957883557013868625062968931160867214202881 0.13752689235655662924884268250025343149900436401367 -0.051422419918115122583479603690648218616843223571777 0.11665999170744677237987474427427514456212520599365 0.064045123422436331384055563376023201271891593933105 0.0091675192538986823020952243723513674922287464141846 -0.036836181550847800492132222416330478154122829437256 -0.035644388642870013239605242461038869805634021759033 0.18988504524175969789823170685849618166685104370117 0.051352025729110864493698329624749021604657173156738 -0.056528486787953059755640339290039264596998691558838 -0.046293080658923846382180045111454091966152191162109 
-0.086048738855646414447342351650149794295430183410645 0.12211674684324647088828896812628954648971557617188 -0.028437629116752613511742708851670613512396812438965 -0.064281087680369275449976385061745531857013702392578 0.16294637348362256412670490135496947914361953735352 -0.028174017314657788524367987292862380854785442352295 0.12122332686085297848155306610351544804871082305908 -0.12415919707970353436099486543753300793468952178955 -0.1255157591119189786077470216696383431553840637207 0.0045418566029422772004076058749433286720886826515198 0.11462377213595680014446287486862274818122386932373 0.1305676219171701402110841172543587163090705871582 0.070590548210928097394578628609451698139309883117676 0.074030031604534751732415998048963956534862518310547 -0.10871951175525365607121841549087548628449440002441 0.087584622937697295674830400002974784001708030700684 -0.059597979447616529491416059727271203882992267608643 -0.051122600511913217358195282713495544157922267913818 -0.1142019204803135651316026155654981266707181930542 0.081126659847446533357917530793201876804232597351074 -0.04685198980472904395355726592242717742919921875 0.14274091090485285793221237327088601887226104736328 0.15163169290445430159586237550684018060564994812012 -0.046101468430128904330000949585155467502772808074951 -0.091007273947734348973348517120030010119080543518066 -0.07216043442689734632722320384345948696136474609375 0.16325004891558689279484894996130606159567832946777 0.15383562111935436544918331946973921731114387512207 -0.085238080304198785008829020171106094494462013244629 -0.08350140051961016385284608531947014853358268737793 
-0.22115834583366944521287678071530535817146301269531 0.3216934548400544602309025776776252314448356628418 -0.18628950786083223190026103566196979954838752746582 -0.21048079243852754749433131564728682860732078552246 0.45720897629787277116619748085213359445333480834961 -0.064287593560829719985250108038599137216806411743164 0.31059609285697287184291326411766931414604187011719 -0.41400227535803357792332235476351343095302581787109 -0.17560576756162971090446944799623452126979827880859 0.085233090688742560447899165865237591788172721862793 0.051499596387753594772807019808169570751488208770752 0.38432617188688616982616963468899484723806381225586 0.21386249549546570980496085212507750838994979858398 0.0080060271242338928998627523014874896034598350524902 -0.35407183326013763613460127999132964760065078735352 0.013903675780748175200285388086740567814558744430542 0.072192073279930324414266351595870219171047210693359 -0.15916078661122504134262101160857127979397773742676 -0.20550812389490122344959388556162593886256217956543 0.29707265960141643335035155359946656972169876098633 -0.11410435417833934834686004933246294967830181121826 0.4521575690063155406051009777002036571502685546875 0.15742476446917744170583830509713152423501014709473 -0.11297910420920927176968717731142533011734485626221 -0.046666548689517209358434968180517898872494697570801 -0.30147174200054299708639860000403132289648056030273 0.40187767490876113996023377694655209779739379882812 0.15873124348092565449874769001326058059930801391602 -0.24471026978269388996167776895163115113973617553711 -0.1189940926807233761985926889792608562856912612915 
0.065870039389170020882602329947985708713531494140625 -0.0056210265297986956867237751112043042667210102081299 -0.061796483992239151228353932765458011999726295471191 0.037755024957493478476866499704556190408766269683838 0.10641223663891699602324081297410884872078895568848 -0.080528062534282560114284876817691838368773460388184 0.062832469402299098715225511568860383704304695129395 -0.073730829475980627640829823121748631820082664489746 0.14423492008484159465631080365710658952593803405762 -0.013055804623653360571622350505549547960981726646423 -0.091825213786373441338106715647882083430886268615723 -0.021799237853385170643472079632374516222625970840454 0.05954162778466089850359921342715097125619649887085 -0.07404580329777125935475368123661610297858715057373 -0.13080937790800384323830485300277359783649444580078 -0.084054104506623525394637397312180837616324424743652 0.1484687535367566479926892952789785340428352355957 0.089391257004327914770236418462445726618170738220215 0.13169559656454571383576990228903014212846755981445 0.080323936630799230851351921955938450992107391357422 -0.059136715317761559540521432154491776600480079650879 0.010688977190086646623656818633207876700907945632935 -0.11970187942840426753576821283786557614803314208984 -0.13145813205939096968144497168395901098847389221191 0.10502193796383706148045433792503899894654750823975 -0.0094288214541602723139934738583178841508924961090088 0.10026856141724659055025625775670050643384456634521 -0.11540227732176444597200770658673718571662902832031 -0.12713111399603077567022069160884711891412734985352 0.10866742873288781634499855499598197638988494873047 
-0.094422038267663585542344151235738536342978477478027 0.069657971803445434266777169796114321798086166381836 -0.028863429038270053267334347424366569612175226211548 -0.047546000131960156065424882854131283238530158996582 0.06556164236749431606376958825421752408146858215332 -0.052306580436852087578891712382755940780043601989746 0.071448163285975571645813886334508424624800682067871 -0.081931696290247921221627791510400129482150077819824 -0.087691640920198793418549598754907492548227310180664 -0.0052975546343231837143061824235701351426541805267334 0.094763186995238418708353833608271088451147079467773 0.10059080045422409688260501070544705726206302642822 0.026443439276893871553442139088474505115300416946411 0.059856683662352118402427691989942104555666446685791 -0.055921519972492894634541471532429568469524383544922 0.057249519107021244745947541332498076371848583221436 -0.051590738114525504232066310805748798884451389312744 -0.065836121455113999489938692022406030446290969848633 -0.072548531702057786341164558052696520462632179260254 -0.0034332277412009934436376568100968142971396446228027 -0.035254097896731326211572365991742117330431938171387 0.076570705012843506831465845152706606313586235046387 0.090243132494284339362167202125419862568378448486328 -0.1036465222288631554681259672179294284433126449585 -0.071374222914739049450361108029028400778770446777344 -0.063174266071022000534895823875558562576770782470703 0.052177305757106440253778600890655070543289184570312 0.066538813097135385277169916662387549877166748046875 -0.031699762309930573644933815558033529669046401977539 -0.054889901243177587064625555512975552119314670562744 
0.070453862047621620967596811624389374628663063049316 -0.07284428850174748393264678725245175883173942565918 0.01069794932553180463741249184295156737789511680603 0.075419916336934872402864016294188331812620162963867 0.012258583095776846502711343589453463209792971611023 -0.10271318457891939757153920709242811426520347595215 -0.026418931896751714216708961657786858268082141876221 0.028794985718229911680898780446113960351794958114624 0.12793020364972318425600406044395640492439270019531 -0.047117536193855488746429216462274780496954917907715 -0.069482500553847609259250361901649739593267440795898 -0.063536018676911179547950325741112465038895606994629 0.015092675057053471163182045700068556470796465873718 -0.059128967096206887232856530545177520252764225006104 -0.039615680169231247409467044917619205079972743988037 -0.043176773834709435140322142387958592735230922698975 0.081487015818437841252475095643603708595037460327148 0.067903703256701808399498077051248401403427124023438 0.11778164979682052837528516420206869952380657196045 0.010881385179577105284942639684686582768335938453674 -0.034237360394753085790497948437405284494161605834961 -0.069695462024920398769189944232493871822953224182129 -0.11535382055332098205635560361770330928266048431396 -0.098370821466408936428749143487948458641767501831055 0.05530733314662818200790894707097322680056095123291 0.057336450657692501764461923130511422641575336456299 -0.0026937280151817081554066479753828389220871031284332 -0.11864196346196421993912650805214070715010166168213 -0.028901960875206696155448327090198290534317493438721 0.0943670601945090226081447326578199863433837890625 
0.13311225785005140198613560187368420884013175964355 -0.10388840805035436110070889981216168962419033050537 -0.023346073629013697203760102638625539839267730712891 0.13928323132953915330922711746097775176167488098145 0.027748415506559837712119431785140477586537599563599 -0.089544516757597045208960651052620960399508476257324 -0.05215345470305678132749704900561482645571231842041 0.0063715091991860964629190711150386050576344132423401 0.25025677899041531837553975492483004927635192871094 -0.01876981361469300460531606233871571021154522895813 -0.198227878151296721398466615937650203704833984375 -0.1603010199334416741034914366537122987210750579834 0.030668589847814595877872889673199097160249948501587 -0.15955376454299402544378949642123188823461532592773 -0.062962544545350829228169686757610179483890533447266 -0.1845314018409695278055693279384286142885684967041 0.23779561740468810326909476771106710657477378845215 0.16455382848671071260859832818823633715510368347168 0.21937176098042104888108383420330937951803207397461 0.089237117529992873721234047934558475390076637268066 -0.060396705558803553959279497576062567532062530517578 -0.11632811152540137311639512063266010954976081848145 -0.26271956627673637152398100624850485473871231079102 -0.070650656544740550457639471915172180160880088806152 0.16565213171455109297802721357584232464432716369629 0.091367298319552314733726916529121808707714080810547 0.058073724706214739643694855431022006087005138397217 -0.23595366186205107839057859564491081982851028442383 -0.11014341874889634065315391353578888811171054840088 0.20244930201248562129379138241347391158342361450195 
0.2189562735154748362997878530222806148231029510498 -0.20255771217313303655949141557357506826519966125488 -0.023118034365059540735654053378311800770461559295654 0.17800131650471440192262662094435654580593109130859 0.065262628511105452711049679237476084381341934204102 -0.1005306894914465287715898966780514456331729888916 -0.058326334706238762428665012294004554860293865203857 -0.030636300026778664346016611830236797686666250228882 0.37542487234459104294970188675506506115198135375977 -0.037858343275760070190116834965010639280080795288086 -0.34005569107169214548846980505913961678743362426758 -0.25672054814399958289072856132406741380691528320312 0.043463164470028958774605598591733723878860473632812 -0.23122525918340985917609486932633444666862487792969 -0.11961881617670892807847593530823360197246074676514 -0.27917262919635388307426637766184285283088684082031 0.37256799639875648466613711207173764705657958984375 0.26485618070305133597841518167115282267332077026367 0.3400957243176378486104738385620294138789176940918 0.14736576264224215959686148380569647997617721557617 -0.11638594958452289085393260847922647371888160705566 -0.13281152116282468611530021007638424634933471679688 -0.38090833841802856918334896363376174122095108032227 -0.098862792998040349701227569312322884798049926757812 0.27787242691093955171410811999521683901548385620117 0.14074123610210642620899079702212475240230560302734 0.088258998982827380208604495237523224204778671264648 -0.36767438082691444867222685388696845620870590209961 -0.17845621272283035407824058893311303108930587768555 0.34330759240927571918078342605440411716699600219727 
0.11001056023945392225993344936796347610652446746826 -0.065964526499669814962878433561854762956500053405762 -0.072584752383500247829850593461742391809821128845215 0.061646913997572418131287719234023825265467166900635 0.12067085558058349148424781560606788843870162963867 -0.078697930903557644644052970761549659073352813720703 0.035112025787924987241250818215121398679912090301514 -0.030070942260227672554462330367641698103398084640503 0.1860031364685149068982639164460124447941780090332 -0.022532512080203428300739787459860963281244039535522 -0.19802567916867425124038959438621532171964645385742 -0.073071711987568011004157142451731488108634948730469 0.040279344059682607726013969795531011186540126800537 -0.15432053880404175694174284672044450417160987854004 -0.12312593355239666303990730966688715852797031402588 -0.14886050207497031339087811829813290387392044067383 0.19017737790226271754612241693394025787711143493652 0.12866688243450608020168601797195151448249816894531 0.17747435488452284468863240363134536892175674438477 0.14126476023160353112650966522778617218136787414551 -0.099846856198086753053644315514247864484786987304688 -0.032336154824495817738938541197057929821312427520752 -0.20579060443551233650083531756536103785037994384766 -0.060227421027032670974854511314333649352192878723145 0.15755043966463377902442744016298092901706695556641 0.023223698482256870806450521627084526699036359786987 0.11195859851857034583666461458051344379782676696777 -0.20532951319263934020220574439008487388491630554199 -0.14236425607805330839639168516441714018583297729492 0.16420633263113523780951652497606119140982627868652 
0.042295411938604074442160651869926368817687034606934 0.026554162156598486860259455966115638148039579391479 -0.097673930791102536730363681272137910127639770507812 0.029896447376635822829049615734220424201339483261108 0.16308656153115461129310403975978260859847068786621 -0.08577611522111748543206743988775997422635555267334 0.068021707926170946190147503784828586503863334655762 -0.060206662757647390338267001652639009989798069000244 0.15589177869521714248080002107599284499883651733398 0.018466945911476673886086885545410041231662034988403 -0.1855021136649444568611500017141224816441535949707 0.021312522571595198667138149062338925432413816452026 0.087379846048859940998987383409257745370268821716309 -0.12588772164905689954217393733415519818663597106934 -0.13976012677304089359964223149290774017572402954102 -0.15349137602071385999558117418928304687142372131348 0.25327407354258629768040123053651768714189529418945 0.070011456749404732402553008796530775725841522216797 0.12601809840221955827388455873006023466587066650391 0.17276235326952038562353664019610732793807983398438 -0.087486221882586118203661840198037680238485336303711 0.052429471937424643179781469370936974883079528808594 -0.17699850827431520827737188028550008311867713928223 -0.067787331897500288646618571419821819290518760681152 0.14995094066735109583632379326445516198873519897461 -0.027672155142081076434346087467019970063120126724243 0.19068422330331247227519497755565680563449859619141 -0.16522500033777068328966208810015814378857612609863 -0.12926293238616315406375179009046405553817749023438 0.12129000914809948130645977926178602501749992370605 
0.32643777389600214799969535306445322930812835693359 -0.35373091466774336799616662574408110231161117553711 0.038133484601179760964395626388068194501101970672607 0.27504772858687359660123661342367995530366897583008 -0.049302890762377822586604025900669512338936328887939 -0.11816955176076961164799428161131800152361392974854 -0.21056093574018217018384291350230341777205467224121 0.1699404833730494002175248624553205445408821105957 0.42797179906224419587701390810252632945775985717773 -0.12722330362645370427365776322403689846396446228027 -0.27088894998661350310698026078171096742153167724609 -0.45155234687854134412177131707721855491399765014648 -0.09663213396669924348802993563367635942995548248291 -0.15575432054444668383830219227093039080500602722168 0.010888759150697136651730900780421507079154253005981 -0.20478707158542480692986487156304065138101577758789 0.24049885106085022723476640749140642583370208740234 0.30166984361661020042078007463715039193630218505859 0.40141162788558365503988056843809317797422409057617 -0.0034260603212960538677123167872196063399314880371094 -0.029614894314047894574581931692591751925647258758545 -0.3801344890470207960042614558915374800562858581543 -0.40445928157762262022956178952881600707769393920898 -0.17307281094949991673281886050972389057278633117676 0.23065276960598340982855347647273447364568710327148 0.29859432392487528229452209416194818913936614990234 -0.072256875659287747581949190589511999860405921936035 -0.38381407038715453783339626170345582067966461181641 -0.029719878287472377420552760440841666422784328460693 0.31406862038008193094285047664016019552946090698242 
-0.23628282139688130958354861377301858738064765930176 0.14424684202140633515476508819119771942496299743652 -0.0024188699144282372645309298064830727525986731052399 -0.14717236203408928796321220033860299736261367797852 0.020258742955346308728392656917094427626579999923706 0.00024117758688436293748776073631034932986949570477009 0.063655491834846367193989635779871605336666107177734 -0.098869913154385147269209710430004633963108062744141 -0.25615754225419912204486649898171890527009963989258 -0.012809563817939897609199384476141858613118529319763 0.22268099377785019465925131498806877061724662780762 0.20389481199218564833053335405566031113266944885254 -0.0036122842294371675098130225478598731569945812225342 0.12580792619508565644004249861609423533082008361816 0.018957520164303583165565925128248636610805988311768 0.18314876315306663490112271119869546964764595031738 -0.23577743727183134159197663848317461088299751281738 -0.21621642338755672763106474576488835737109184265137 -0.27140558058265851215651309757959097623825073242188 -0.051626570559455527142933561890458804555237293243408 0.0017928821797274323551069086235543181828688830137253 0.16862620154861399091039686481963144615292549133301 0.27056964574222508446155188721604645252227783203125 -0.018582246352769830888274071867272141389548778533936 -0.22086418288372097751270928256417391821742057800293 -0.1575986194195160006170652877699467353522777557373 0.018671417962536376172755225866239925380796194076538 0.2421547902766821580566869442918687127530574798584 0.041283976595520729957478067717602243646979331970215 -0.24142144373810320301387832842010539025068283081055 
-0.22317385331280151228305896893289173021912574768066 0.1789506041700832383867236785590648651123046875 0.025565327450905589445895316202950198203325271606445 -0.17477073978285900812679187765752431005239486694336 -0.024964603520371726752546948091548983938992023468018 0.013576398092523266764031220077413308899849653244019 0.043442105932854843675094969057681737467646598815918 -0.040729106270464512928874967201409162953495979309082 -0.2805753215521125665254942305182339623570442199707 -0.0080364646377237888147382349757208430673927068710327 0.28368743318624622951062974607339128851890563964844 0.20720762856398519669021140998665941879153251647949 -0.0039683111079550767094636931631157494848594069480896 0.20087384948352549063343985835672356188297271728516 0.081717894369113239227964129440806573256850242614746 0.21235986447466667637051784822688205167651176452637 -0.28843055768529074489592289864958729594945907592773 -0.19754234315162355617445655298070050776004791259766 -0.28114536280545282531662110159231815487146377563477 -0.13074827213211406840009942698088707402348518371582 0.024476136761813097747486622779433673713356256484985 0.17540285781978715018425418747938238084316253662109 0.29965830289402944908161430248583201318979263305664 -0.017315231841346985508511835405442980118095874786377 -0.24316508391713437253756069367227610200643539428711 -0.14762281438444888048699965565901948139071464538574 -0.045501898832152797014227729732738225720822811126709 0.3023573749698424961707132752053439617156982421875 0.12151100623854102500409624099120264872908592224121 -0.24404182964686191303904649885225808247923851013184 
-0.075814333594062199850327488093171268701553344726562 -0.032503413944368050869648811840306734666228294372559 0.091051876347391105803730226853076601400971412658691 -0.008037800867907389512634352968234452418982982635498 -0.22914344616391854603243416477198479697108268737793 -0.0038042586233709096109334435453774858615361154079437 -0.10500762112443479123768952376849483698606491088867 0.10707955471581410977766068981509306468069553375244 -0.14451433544799396901936461290461011230945587158203 -0.084387239543659869900338321713206823915243148803711 0.20550403005161088643149014387745410203933715820312 -0.048945482134025664056053983586025424301624298095703 -0.11123099079076040340829933938948670402169227600098 0.14649453860477923416993917271611280739307403564453 0.19956830281652282454984970172517932951450347900391 0.16192874411973270931675017436646157875657081604004 -0.2479691834541007666725676017449586652219295501709 -0.064588602767780056712609848545980639755725860595703 -0.098656835674883869291562632497516460716724395751953 -0.23503235554004103802228087261028122156858444213867 0.057097076572886408529772239717203774489462375640869 -0.079761691417726238162444474255607929080724716186523 0.16293791364883267180907466809003381058573722839355 -0.034654628993453472085572997229974134825170040130615 -0.16134905664505996836233236990665318444371223449707 0.028996410165565110472751797487944713793694972991943 -0.22620538378105839449894176595989847555756568908691 0.16199432564197027706320852757926331833004951477051 0.19666588626145825591251536934578325599431991577148 -0.10435266533049392112530995291308499872684478759766 
-0.0017816127128905353584065185401641429052688181400299 0.015548254310130332073169867612705274950712919235229 -0.021919498273232276147615138484070484992116689682007 -0.016922513012487507694237010014148836489766836166382 0.019438704985906787858773725474748061969876289367676 -0.017006390852875120922593765726560377515852451324463 0.0067943676700541908927699630282859288854524493217468 -0.022950270105897820072105020017261267639696598052979 0.035057725106304220286101980263993027620017528533936 0.015852146415312944743858381002610258292406797409058 -0.078629590227582174533083048117987345904111862182617 0.017423687578839823497656169593028607778251171112061 0.033217830630980077488700885623984504491090774536133 -0.061274763749102754972764017793451785109937191009521 -0.051219909139997014946299458415523986332118511199951 -0.075346872013162841108524503397347871214151382446289 0.085052832685090590247867226025846321135759353637695 0.015393592366106463933950188049948337720707058906555 0.028055488051362070800465176034776959568262100219727 0.041281839053482365098357576016496750526130199432373 -0.020143366391844781670972253095897031016647815704346 0.038072524194628622196123757248642505146563053131104 -0.079469960773972461720582316502259345725178718566895 -0.026204216984962263453651232225638523232191801071167 0.033729010351445015691851381234300788491964340209961 -0.038077697953520284190886968644917942583560943603516 0.017067510848806408119138211532117566093802452087402 -0.068111076455914715266359849010768812149763107299805 -0.066283021818143536552092598412855295464396476745605 0.055543135579776456434153431018785340711474418640137 
-0.014215355066983979825945283437249599955976009368896 0.061086643133601715993652447878048405982553958892822 -0.053963521032763216156435959192094742320477962493896 -0.039693339861733768769713748270078212954103946685791 0.088225104663468209564847199999348958954215049743652 -0.022433870741294974909818549235751561354845762252808 0.044147555289047783755318477005857857875525951385498 -0.048140348479446745666443518985033733770251274108887 0.013999647858718365991959053928894718410447239875793 0.011181644910526639460912612378251651534810662269592 -0.09286145263660852688936131471564294770359992980957 0.048284905811054754098954333585425047203898429870605 0.032592791519650374243433077481313375756144523620605 -0.070161621979253296910172821299056522548198699951172 -0.078319581780355779221380885246617253869771957397461 -0.064691680125984737936839508165576262399554252624512 0.084162087940655591622451936473225941881537437438965 -0.006443873443500564533736874039959729998372495174408 -0.0075260550181544113787501792955936252838000655174255 0.087631663956616132060695179006870603188872337341309 -0.062752699637636147333985547902557300403714179992676 0.08191900873518896675218314840094535611569881439209 -0.064678932057934929167331006283347960561513900756836 0.028864946003976644367527981671628367621451616287231 0.026790439817150558249325698056964029092341661453247 -0.069553894294084817051526670184102840721607208251953 0.079440389974299058239992632479697931557893753051758 -0.054490598919817334611082060291664674878120422363281 -0.053687897463024061850411783325398573651909828186035 0.01565423297260776919204161572451994288712739944458 
-0.0046118391488602205469105044244315649848431348800659 0.0033899252907484910511681786005055982968769967556 0.020935724966404702096500756169916712678968906402588 -0.0041638788134324734857560912359986105002462863922119 -0.11056337123724982451911102998565183952450752258301 0.0055291642239708354081284547021368780406191945075989 -0.037402747517530199328206208519986830651760101318359 0.06412458284129922414518176765341195277869701385498 -0.036011630516004519697581542914122110232710838317871 -0.038667060474215343701676061982652754522860050201416 0.055214294068205924115311233890679432079195976257324 -0.0027793142369289917936736600267977337352931499481201 -0.063028383541126345446237166925129713490605354309082 0.029278025380825609819135380007537605706602334976196 0.074143409592413847541969573740061605349183082580566 0.061826968106112732692647426802068366669118404388428 -0.095707457092657946540192881457187468186020851135254 -0.027062991534830726364502240244291897397488355636597 -0.024288716051698647224732496852084295824170112609863 -0.087024298526583415691604272979020606726408004760742 0.031391449112439975821509108300233492627739906311035 -0.039057326696357981543616944009045255370438098907471 0.048524880894539088038719398809917038306593894958496 -0.032643784933358878375120326609248877502977848052979 -0.041813079847121153997946407798735890537500381469727 -0.007647003752331286985377545306619140319526195526123 -0.087470409970128629173480305780685739591717720031738 0.014799316611986917599508295495525089791044592857361 0.074735967175234688242291269943962106481194496154785 -0.040826754424477980365271179152841796167194843292236 
0.029566492885768326515094628348379046656191349029541 0.025029427603577833472137115222722059115767478942871 -0.049380151197038479882195360914920456707477569580078 -0.0067564392009392699317560371241597749758511781692505 0.033980724576986420792934495693771168589591979980469 -0.050363054804618972992713565872691106051206588745117 0.043120605255608117356569408684663358144462108612061 -0.031917304787087638628939600948797306045889854431152 0.083492683441634726881908079576533054932951927185059 0.0095020249963985847080349955717792909126728773117065 -0.11505538675604343179514899020432494580745697021484 0.018979107713564175030640512886748183518648147583008 0.023941556700160578075031736489108880050480365753174 -0.10492918112560976895419884158400236628949642181396 -0.059989550973118865861977155873319134116172790527344 -0.082165545882373403063780870070331729948520660400391 0.10826210728932617044506514503154903650283813476562 0.039036694675634024676025291000769357196986675262451 0.080228269808101243532050261819676961749792098999023 0.088046939038221638806902547003119252622127532958984 -0.055097693678490614055398566506482893601059913635254 0.023021199321145675159572263623886101413518190383911 -0.092532580160821845116636552575073437765240669250488 -0.023419208666239622884663873492172569967806339263916 0.080674344283348214945661425190337467938661575317383 -0.040887618645434761766033204821724211797118186950684 0.028693436852822367527648950158436491619795560836792 -0.098133317486678472985062171574099920690059661865234 -0.097219680879734454714835578670317772775888442993164 0.066220979003610749846764349513250635936856269836426 
0.16721678910425633035607972942671040073037147521973 -0.23328893243293480352917868003714829683303833007812 0.1075824781485003600600691697763977572321891784668 0.17782855032149616492098687103862175717949867248535 -0.28968890371572592057347605987160932272672653198242 -0.0057717004118255782474378179358609486371278762817383 -0.1978088285522982825437310339111718349158763885498 0.24949525212102996452045999831170774996280670166016 0.13580149083606821158731747800629818812012672424316 -0.13121305215354908679792345083114923909306526184082 0.011765614207723620182610702045167272444814443588257 -0.26039061302364119310226442394196055829524993896484 -0.15454649581848484141133326374983880668878555297852 0.016011459942144104506844826119049685075879096984863 0.22590276076065676780224578124034451320767402648926 0.0092268615446894387821519245562740252353250980377197 -0.028925369512085540024681762361069559119641780853271 0.13492198716832401461651613772119162604212760925293 0.16410497588131217616691515104321297258138656616211 -0.17329481034737853617500036307319533079862594604492 0.080830303284123758422730077199958031997084617614746 -0.31473765526295199856932072179915849119424819946289 -0.11311419698276199696795885074607213027775287628174 -0.08826230708573781780224010162783088162541389465332 0.028713126480939120399593633692347793839871883392334 0.22788255877720584030576844725146656855940818786621 -0.24235512948004023225934133733971975743770599365234 -0.10036341496093809100287330693390686064958572387695 0.15870976044283147121660704215173609554767608642578 0.11160273345681122336703339215091546066105365753174 
0.0016000000000000007271960811294775339774787425994873 0.0068000000000000004884981308350688777863979339599609 0.019199999999999998318012117692887841258198022842407 -0.0004000000000000010491607582707729307003319263458252 -0.00080000000000000209832151654154586140066385269165039 0.0091999999999999998445687765524780843406915664672852 -0.013199999999999999927835503399364824872463941574097 0.014799999999999997185584632575228170026093721389771 -0.014800000000000000655031584528842358849942684173584 0.0040000000000000000832667268468867405317723751068115 0.011200000000000001620925615952728549018502235412598 -0.019599999999999999367172875963660771958529949188232 0.0016000000000000007271960811294775339774787425994873 0.019199999999999998318012117692887841258198022842407 -0.0067999999999999987537746548582617833744734525680542 -0.01839999999999999968913755310495616868138313293457 -0.0056000000000000008104628079763642745092511177062988 0.00080000000000000209832151654154586140066385269165039 -0.016799999999999998961941471975478634703904390335083 0.019600000000000002836619827917274960782378911972046 0 0.0020000000000000017763568394002504646778106689453125 0.0047999999999999987121412914348184131085872650146484 -0.017200000000000000011102230246251565404236316680908 -0.006000000000000001859623566247137205209583044052124 -0.01839999999999999968913755310495616868138313293457 -0.0095999999999999991590060588464439206290990114212036 0.014000000000000002026157019940910686273127794265747 -0.0084000000000000012156942119645464117638766765594482 0.019199999999999998318012117692887841258198022842407 
0.0056000000000000008104628079763642745092511177062988 -0.0063999999999999994393373725642959470860660076141357 -0.013600000000000000976996261670137755572795867919922 0.0044000000000000011324274851176596712321043014526367 0.012799999999999995409227793174977705348283052444458 -0.01400000000000000029143354396410359186120331287384 0.014399999999999999605870826258069428149610757827759 0.019199999999999998318012117692887841258198022842407 -0.019599999999999999367172875963660771958529949188232 0.019199999999999998318012117692887841258198022842407 -0.016400000000000001382227665658319892827421426773071 -0.008000000000000000166533453693773481063544750213623 0 -0.014399999999999999605870826258069428149610757827759 0.012000000000000000249800180540660221595317125320435 -0.006000000000000001859623566247137205209583044052124 -0.013199999999999999927835503399364824872463941574097 -0.01400000000000000029143354396410359186120331287384 0.014399999999999999605870826258069428149610757827759 0.010399999999999999522604099411182687617838382720947 0.0064000000000000029087843245179101359099149703979492 0.014799999999999997185584632575228170026093721389771 -0.0076000000000000008520961713998076447751373052597046 -0.0091999999999999998445687765524780843406915664672852 0.017200000000000003480549182199865754228085279464722 -0.013199999999999999927835503399364824872463941574097 -0.008000000000000000166533453693773481063544750213623 0.0079999999999999966970865017401592922396957874298096 0.0011999999999999996780353228587046032771468162536621 -0.016000000000000000333066907387546962127089500427246 
0.0068000000000000004884981308350688777863979339599609 -0.013600000000000000976996261670137755572795867919922 0.018399999999999996219690601151341979857534170150757 -0.0063999999999999994393373725642959470860660076141357 -0.0084000000000000012156942119645464117638766765594482 0.010800000000000000571764857681955618318170309066772 -0.00080000000000000209832151654154586140066385269165039 -0.014399999999999999605870826258069428149610757827759 -0.0091999999999999998445687765524780843406915664672852 -0.019599999999999999367172875963660771958529949188232 0.0051999999999999997613020497055913438089191913604736 0.014799999999999997185584632575228170026093721389771 -0.008000000000000000166533453693773481063544750213623 0.0056000000000000008104628079763642745092511177062988 -0.019599999999999999367172875963660771958529949188232 -0.016400000000000001382227665658319892827421426773071 0.019199999999999998318012117692887841258198022842407 -0.013199999999999999927835503399364824872463941574097 0.010399999999999999522604099411182687617838382720947 0.013199999999999999927835503399364824872463941574097 -0.001999999999999998306909887446636275853961706161499 -0.0036000000000000025035529205297279986552894115447998 -0.011600000000000000935362898246694385306909680366516 -0.0091999999999999998445687765524780843406915664672852 -0.01240000000000000129896093881143315229564905166626 0.0064000000000000029087843245179101359099149703979492 0.017999999999999998639976794834183237981051206588745 0.020000000000000000416333634234433702658861875534058 -0.006000000000000001859623566247137205209583044052124 -0.0011999999999999996780353228587046032771468162536621 
-0.016400000000000001382227665658319892827421426773071 0.0016000000000000007271960811294775339774787425994873 0.0051999999999999997613020497055913438089191913604736 -0.01839999999999999968913755310495616868138313293457 0.014799999999999997185584632575228170026093721389771 -0.0028000000000000004052314039881821372546255588531494 -0.0067999999999999987537746548582617833744734525680542 -0.006000000000000001859623566247137205209583044052124 -0.016799999999999998961941471975478634703904390335083 -0.015599999999999999283906149116774031426757574081421 -0.006000000000000001859623566247137205209583044052124 0.0079999999999999966970865017401592922396957874298096 0.018800000000000000738298311375729099381715059280396 -0.013600000000000000976996261670137755572795867919922 0.014000000000000002026157019940910686273127794265747 0.018800000000000000738298311375729099381715059280396 -0.010000000000000000208166817117216851329430937767029 0.013199999999999999927835503399364824872463941574097 0.0064000000000000029087843245179101359099149703979492 0.00080000000000000209832151654154586140066385269165039 -0.013199999999999999927835503399364824872463941574097 0.0047999999999999987121412914348184131085872650146484 -0.0023999999999999993560706457174092065542936325073242 -0.0048000000000000004468647674116255075205117464065552 0.015200000000000001704192342799615289550274610519409 0.0047999999999999987121412914348184131085872650146484 -0.018800000000000000738298311375729099381715059280396 0.012799999999999995409227793174977705348283052444458 0.0044000000000000011324274851176596712321043014526367 0.015599999999999999283906149116774031426757574081421 
0.012000000000000000249800180540660221595317125320435 -0.011600000000000000935362898246694385306909680366516 -0.0032000000000000014543921622589550679549574851989746 0.017600000000000001060262988517024496104568243026733 -0.010000000000000000208166817117216851329430937767029 -0.0084000000000000012156942119645464117638766765594482 -0.0056000000000000008104628079763642745092511177062988 -0.016400000000000001382227665658319892827421426773071 0.0051999999999999997613020497055913438089191913604736 -0.0028000000000000004052314039881821372546255588531494 0.0083999999999999977462472600109322229400277137756348 0.018800000000000000738298311375729099381715059280396 0.0056000000000000008104628079763642745092511177062988 0.0068000000000000004884981308350688777863979339599609 -0.015200000000000001704192342799615289550274610519409 -0.019599999999999999367172875963660771958529949188232 -0.013600000000000000976996261670137755572795867919922 0.015200000000000001704192342799615289550274610519409 -0.006000000000000001859623566247137205209583044052124 -0.0067999999999999987537746548582617833744734525680542 0.016400000000000001382227665658319892827421426773071 0.0004000000000000010491607582707729307003319263458252 0.017600000000000001060262988517024496104568243026733 -0.0063999999999999994393373725642959470860660076141357 -0.0040000000000000000832667268468867405317723751068115 0.012400000000000004768407890765047341119498014450073 0.017999999999999998639976794834183237981051206588745 0.017600000000000001060262988517024496104568243026733 -0.014399999999999999605870826258069428149610757827759 0.0020000000000000017763568394002504646778106689453125 
0.013199999999999999927835503399364824872463941574097 -0.001999999999999998306909887446636275853961706161499 0.010399999999999999522604099411182687617838382720947 -0.010400000000000001257327575387989782029762864112854 -0.00439999999999999939770400914085257682017982006073 0.00080000000000000209832151654154586140066385269165039 0.00080000000000000209832151654154586140066385269165039 0.0096000000000000008937295348232510150410234928131104 -0.015200000000000001704192342799615289550274610519409 0.0064000000000000029087843245179101359099149703979492 0.0075999999999999991173726954230005503632128238677979 0.012799999999999995409227793174977705348283052444458 -0.014399999999999999605870826258069428149610757827759 0.013599999999999997507549309716523566748946905136108 0.020000000000000000416333634234433702658861875534058 0.011200000000000001620925615952728549018502235412598 -0.0056000000000000008104628079763642745092511177062988 -0.01400000000000000029143354396410359186120331287384 0.006000000000000001859623566247137205209583044052124 0.0079999999999999966970865017401592922396957874298096 -0.0011999999999999996780353228587046032771468162536621 -0.016799999999999998961941471975478634703904390335083 0.0091999999999999998445687765524780843406915664672852 0.016799999999999998961941471975478634703904390335083 -0.0036000000000000025035529205297279986552894115447998 -0.015200000000000001704192342799615289550274610519409 -0.010400000000000001257327575387989782029762864112854 0.015200000000000001704192342799615289550274610519409 0.0031999999999999979849452103053408791311085224151611 -0.0051999999999999997613020497055913438089191913604736 
0.017600000000000001060262988517024496104568243026733 -0.0040000000000000000832667268468867405317723751068115 0.012799999999999995409227793174977705348283052444458 -0.011600000000000000935362898246694385306909680366516 -0.01400000000000000029143354396410359186120331287384 0.00879999999999999879540801828170515364035964012146 0.00879999999999999879540801828170515364035964012146 -0.01240000000000000129896093881143315229564905166626 0.018800000000000000738298311375729099381715059280396 -0.006000000000000001859623566247137205209583044052124 0.013599999999999997507549309716523566748946905136108 0.006000000000000001859623566247137205209583044052124 0.0072000000000000015376588891058418084867298603057861 0.019199999999999998318012117692887841258198022842407 -0.019599999999999999367172875963660771958529949188232 0.0072000000000000015376588891058418084867298603057861 0.0099999999999999984734433411404097569175064563751221 -0.0056000000000000008104628079763642745092511177062988 -0.0063999999999999994393373725642959470860660076141357 0.016400000000000001382227665658319892827421426773071 0.0031999999999999979849452103053408791311085224151611 -0.0067999999999999987537746548582617833744734525680542 0 -0.008000000000000000166533453693773481063544750213623 -0.010400000000000001257327575387989782029762864112854 0.016400000000000001382227665658319892827421426773071 0.017200000000000003480549182199865754228085279464722 -0.00080000000000000209832151654154586140066385269165039 -0.008000000000000000166533453693773481063544750213623 0 
-0.0056000000000000008104628079763642745092511177062988 -0.010800000000000000571764857681955618318170309066772 -0.0036000000000000025035529205297279986552894115447998 0.0075999999999999991173726954230005503632128238677979 -0.0023999999999999993560706457174092065542936325073242 0.0024000000000000028255175976710233953781425952911377 -0.0040000000000000000832667268468867405317723751068115 0.0068000000000000004884981308350688777863979339599609 -0.0095999999999999991590060588464439206290990114212036 -0.0051999999999999997613020497055913438089191913604736 0.0016000000000000007271960811294775339774787425994873 0.0044000000000000011324274851176596712321043014526367 0.0011999999999999996780353228587046032771468162536621 -0.011600000000000000935362898246694385306909680366516 0.0031999999999999979849452103053408791311085224151611 -0.018000000000000002109423746787797426804900169372559 0.015200000000000001704192342799615289550274610519409 0.013599999999999997507549309716523566748946905136108 -0.0036000000000000025035529205297279986552894115447998 -0.011199999999999999886202139975921454606577754020691 -0.0091999999999999998445687765524780843406915664672852 0.019199999999999998318012117692887841258198022842407 -0.017600000000000001060262988517024496104568243026733 -0.00879999999999999879540801828170515364035964012146 0.011600000000000002670086374223501479718834161758423 -0.0084000000000000012156942119645464117638766765594482 0.0079999999999999966970865017401592922396957874298096 0.0083999999999999977462472600109322229400277137756348 -0.00879999999999999879540801828170515364035964012146 0.019600000000000002836619827917274960782378911972046 
-0.011600000000000000935362898246694385306909680366516 0.0056000000000000008104628079763642745092511177062988 -0.011199999999999999886202139975921454606577754020691 0.0044000000000000011324274851176596712321043014526367 0.013599999999999997507549309716523566748946905136108 -0.013199999999999999927835503399364824872463941574097 0.0072000000000000015376588891058418084867298603057861 -0.010400000000000001257327575387989782029762864112854 0.013199999999999999927835503399364824872463941574097 0.017200000000000003480549182199865754228085279464722 -0.015200000000000001704192342799615289550274610519409 -0.0056000000000000008104628079763642745092511177062988 0.0016000000000000007271960811294775339774787425994873 0.0056000000000000008104628079763642745092511177062988 -0.016400000000000001382227665658319892827421426773071 0.0051999999999999997613020497055913438089191913604736 0.0075999999999999991173726954230005503632128238677979 0.018399999999999996219690601151341979857534170150757 0.019600000000000002836619827917274960782378911972046 0.0044000000000000011324274851176596712321043014526367 0.0075999999999999991173726954230005503632128238677979 0.010800000000000000571764857681955618318170309066772 -0.016000000000000000333066907387546962127089500427246 0.0096000000000000008937295348232510150410234928131104 -0.01839999999999999968913755310495616868138313293457 0.015200000000000001704192342799615289550274610519409 0.0020000000000000017763568394002504646778106689453125 0.0096000000000000008937295348232510150410234928131104 0.0031999999999999979849452103053408791311085224151611 0.012799999999999995409227793174977705348283052444458 
-0.010400000000000001257327575387989782029762864112854 -0.008000000000000000166533453693773481063544750213623 0.018800000000000000738298311375729099381715059280396 -0.001999999999999998306909887446636275853961706161499 -0.0028000000000000004052314039881821372546255588531494 0.012400000000000004768407890765047341119498014450073 -0.014800000000000000655031584528842358849942684173584 -0.016000000000000000333066907387546962127089500427246 0.0024000000000000028255175976710233953781425952911377 -0.00080000000000000209832151654154586140066385269165039 0.0020000000000000017763568394002504646778106689453125 0.0068000000000000004884981308350688777863979339599609 -0.006000000000000001859623566247137205209583044052124 0.0040000000000000000832667268468867405317723751068115 0.012799999999999995409227793174977705348283052444458 -0.0028000000000000004052314039881821372546255588531494 0.0096000000000000008937295348232510150410234928131104 -0.019200000000000001787459069646502030082046985626221 -0.00439999999999999939770400914085257682017982006073 0.00879999999999999879540801828170515364035964012146 -0.014399999999999999605870826258069428149610757827759 0.0035999999999999990341059685761138098314404487609863 0.020000000000000000416333634234433702658861875534058 -0.010800000000000000571764857681955618318170309066772 0.014000000000000002026157019940910686273127794265747 0.0024000000000000028255175976710233953781425952911377 0.0047999999999999987121412914348184131085872650146484 0.016400000000000001382227665658319892827421426773071 0.012400000000000004768407890765047341119498014450073 0.00879999999999999879540801828170515364035964012146 
-0.010400000000000001257327575387989782029762864112854 -0.01839999999999999968913755310495616868138313293457 -0.019599999999999999367172875963660771958529949188232 -0.011600000000000000935362898246694385306909680366516 -0.019599999999999999367172875963660771958529949188232 -0.0028000000000000004052314039881821372546255588531494 0.0011999999999999996780353228587046032771468162536621 -0.014800000000000000655031584528842358849942684173584 -0.018000000000000002109423746787797426804900169372559 -0.016799999999999998961941471975478634703904390335083 0.0040000000000000000832667268468867405317723751068115 0.0035999999999999990341059685761138098314404487609863 -0.0095999999999999991590060588464439206290990114212036 0.017999999999999998639976794834183237981051206588745 -0.012800000000000000613398221105398988584056496620178 0.0035999999999999990341059685761138098314404487609863 -0.0051999999999999997613020497055913438089191913604736 0.016400000000000001382227665658319892827421426773071 0.0044000000000000011324274851176596712321043014526367 -0.0091999999999999998445687765524780843406915664672852 -0.01400000000000000029143354396410359186120331287384 0.0096000000000000008937295348232510150410234928131104 -0.0048000000000000004468647674116255075205117464065552 0.0064000000000000029087843245179101359099149703979492 -0.0004000000000000010491607582707729307003319263458252 -0.011199999999999999886202139975921454606577754020691 -0.011600000000000000935362898246694385306909680366516 -0.016000000000000000333066907387546962127089500427246 0.0056000000000000008104628079763642745092511177062988 -0.019599999999999999367172875963660771958529949188232 
